{"learner":{"attributes":{"scikit_learn":"{\"_estimator_type\": \"classifier\"}"},"feature_names":["event_cause","corridor","priority","hour","dayofweek","is_weekend","corridor_count_1d","corridor_count_7d","corridor_count_30d","precipitation_mm","osm_highway_class","osm_lanes","dist_to_nearest_road_m"],"feature_types":["c","c","c","int","int","int","float","float","float","float","c","float","float"],"gradient_booster":{"model":{"cats":{"enc":[{"offsets":[0,6,26,34,44,56,62,71,81,88,100,115,124,141,153,166],"values":[68,101,98,114,105,115,70,111,103,32,47,32,76,111,119,32,86,105,115,105,98,105,108,105,116,121,97,99,99,105,100,101,110,116,99,111,110,103,101,115,116,105,111,110,99,111,110,115,116,114,117,99,116,105,111,110,111,116,104,101,114,115,112,111,116,95,104,111,108,101,115,112,114,111,99,101,115,115,105,111,110,112,114,111,116,101,115,116,112,117,98,108,105,99,95,101,118,101,110,116,114,111,97,100,95,99,111,110,100,105,116,105,111,110,115,116,114,101,101,95,102,97,108,108,118,101,104,105,99,108,101,95,98,114,101,97,107,100,111,119,110,118,105,112,95,109,111,118,101,109,101,110,116,119,97,116,101,114,95,108,111,103,103,105,110,103]},{"offsets":[0,22,38,52,66,71,76,92,102,123,134,145,157,167,177,188,199,209,225,240,251,258,270,288],"values":[65,105,114,112,111,114,116,32,78,101,119,32,83,111,117,116,104,32,82,111,97,100,66,97,110,110,101,114,103,104,97,116,97,32,82,111,97,100,66,101,108,108,97,114,121,32,82,111,97,100,32,49,66,101,108,108,97,114,121,32,82,111,97,100,32,50,67,66,68,32,49,67,66,68,32,50,72,101,110,110,117,114,32,77,97,105,110,32,82,111,97,100,72,111,115,117,114,32,82,111,97,100,73,82,82,40,84,104,97,110,105,115,97,110,100,114,97,32,114,111,97,100,41,77,97,103,97,100,105,32,82,111,97,100,77,121,115,111,114,101,32,82,111,97,100,78,111,110,45,99,111,114,114,105,100,111,114,79,82,82,32,69,97,115,116,32,49,79,82,82,32,69,97,115,116,32,50,79,82,82,32,78,111,114,116,104,32,49,79,82,82,32,78,111,114,116,104,32,50,79,82,82,32,87,101,115,116,32,49,79,108,100,32,65,105,114,112,111,114,116,32,82,111,97,100,79,108,100,32,77,97,100,114,97,115,32,82,111,97,100,84,117,109,107,117,114,32,82,111,97,100,85,110,107,110,111,119,110,86,97,114,116,104,117,114,32,82,111,97,100,87,101,115,116,32,111,102,32,67,104,111,114,100,32,82,111,97,100]},{"offsets":[0,4,7],"values":[72,105,103,104,76,111,119]},{"offsets":[],"values":[]},{"offsets":[],"values":[]},{"offsets":[],"values":[]},{"offsets":[],"values":[]},{"offsets":[],"values":[]},{"offsets":[],"values":[]},{"offsets":[],"values":[]},{"offsets":[0,13,21,34,41,53,64,73,87,95,108,113,123,135],"values":[108,105,118,105,110,103,95,115,116,114,101,101,116,109,111,116,111,114,119,97,121,109,111,116,111,114,119,97,121,95,108,105,110,107,112,114,105,109,97,114,121,112,114,105,109,97,114,121,95,108,105,110,107,114,101,115,105,100,101,110,116,105,97,108,115,101,99,111,110,100,97,114,121,115,101,99,111,110,100,97,114,121,95,108,105,110,107,116,101,114,116,105,97,114,121,116,101,114,116,105,97,114,121,95,108,105,110,107,116,114,117,110,107,116,114,117,110,107,95,108,105,110,107,117,110,99,108,97,115,115,105,102,105,101,100]},{"offsets":[],"values":[]},{"offsets":[],"values":[]}],"feature_segments":[0,15,38,40,40,40,40,40,40,40,40,53,53,53],"sorted_idx":[0,1,2,3,4,5,6,7,8,9,10,11,12,13,14,0,1,2,3,4,5,6,7,8,9,10,11,12,13,14,15,16,17,18,19,20,21,22,0,1,0,1,2,3,4,5,6,7,8,9,10,11,12]},"gbtree_model_param":{"num_parallel_tree":"1","num_trees":"100"},"iteration_indptr":[0,1,2,3,4,5,6,7,8,9,10,11,12,13,14,15,16,17,18,19,20,21,22,23,24,25,26,27,28,29,30,31,32,33,34,35,36,37,38,39,40,41,42,43,44,45,46,47,48,49,50,51,52,53,54,55,56,57,58,59,60,61,62,63,64,65,66,67,68,69,70,71,72,73,74,75,76,77,78,79,80,81,82,83,84,85,86,87,88,89,90,91,92,93,94,95,96,97,98,99,100],"tree_info":[0,0,0,0,0,0,0,0,0,0,0,0,0,0,0,0,0,0,0,0,0,0,0,0,0,0,0,0,0,0,0,0,0,0,0,0,0,0,0,0,0,0,0,0,0,0,0,0,0,0,0,0,0,0,0,0,0,0,0,0,0,0,0,0,0,0,0,0,0,0,0,0,0,0,0,0,0,0,0,0,0,0,0,0,0,0,0,0,0,0,0,0,0,0,0,0,0,0,0,0],"trees":[{"base_weights":[8.266205E-8,2.949891E0,-2.900062E-1,3.7383227E0,-6.223131E-1,7.6984325E-3,-6.2364477E-1,1.3544868E0,4.244887E0,-5.840549E-3,-7.142522E-1,9.056627E-1,-1.5817052E-1,1.3217756E-1,-6.5657383E-1,1.9589595E-1,-5.9436537E-2,4.8882586E-1,1.838002E-1,-5.840549E-3,-8.4684364E-2,2.1692716E-1,5.420835E-2,-2.0000607E-2,1.042944E-1,-4.5171794E-2,-7.701439E-2],"categories":[0,1,2,3,5,6,8,10,12,13,14,1,4,5,6,13,0,1,2,3,6,9,12,13,14,15,16,17,18,19,21,22,0,1,2,6,12,0,1,2,3,4,5,6,7,8,12,14,0,1,2,3,4,5,6,7,8,0,1,2,3,5,6,7,8,9,10,12,13,14,0,1,2,3,4,5,7,8,9,10,11,12,0,1,3,6,9,13,14,16,17,18,19],"categories_nodes":[0,1,2,5,6,7,8,11,14],"categories_segments":[0,11,16,32,37,48,57,70,82],"categories_sizes":[11,5,16,5,11,9,13,12,11],"default_left":[1,1,1,0,0,1,1,1,1,0,0,1,0,0,1,0,0,0,0,0,0,0,0,0,0,0,0],"id":0,"left_children":[1,3,5,7,9,11,13,15,17,-1,19,21,23,-1,25,-1,-1,-1,-1,-1,-1,-1,-1,-1,-1,-1,-1],"loss_changes":[3.13604E2,9.474191E1,3.3156433E1,2.6882172E1,3.1031632E-1,2.6561457E1,1.095084E1,8.473485E0,2.4801422E1,0E0,4.5048475E-1,1.1597607E1,7.7744336E0,0E0,3.2686234E0,0E0,0E0,0E0,0E0,0E0,0E0,0E0,0E0,0E0,0E0,0E0,0E0],"parents":[2147483647,0,0,1,1,2,2,3,3,4,4,5,5,6,6,7,7,8,8,10,10,11,11,12,12,14,14],"right_children":[2,4,6,8,10,12,14,16,18,-1,20,22,24,-1,26,-1,-1,-1,-1,-1,-1,-1,-1,-1,-1,-1,-1],"split_conditions":[1E-45,1E-45,1E-45,3E0,3.6E1,1E-45,1E-45,1E-45,1E-45,-5.840549E-3,2E0,1E-45,4E0,1.3217756E-1,1E-45,1.9589595E-1,-5.9436537E-2,4.8882586E-1,1.838002E-1,-5.840549E-3,-8.4684364E-2,2.1692716E-1,5.420835E-2,-2.0000607E-2,1.042944E-1,-4.5171794E-2,-7.701439E-2],"split_indices":[0,1,1,3,8,0,0,1,0,0,4,10,11,0,1,0,0,0,0,0,0,0,0,0,0,0,0],"split_type":[1,1,1,0,0,1,1,1,1,0,0,1,0,0,1,0,0,0,0,0,0,0,0,0,0,0,0],"sum_hessian":[3.6457956E2,3.1812885E1,3.327667E2,2.602281E1,5.7900753E0,1.763696E2,1.5639708E2,5.204562E0,2.0818249E1,1.0409124E0,4.7491627E0,2.6803493E1,1.495661E2,1.9517107E0,1.5444537E2,3.9684784E0,1.2360835E0,1.5613686E1,5.204562E0,1.0409124E0,3.7082503E0,4.8792768E0,2.1924217E1,1.4533739E2,4.2287064E0,5.685984E1,9.758553E1],"tree_param":{"num_deleted":"0","num_feature":"13","num_nodes":"27","size_leaf_vector":"1"}},{"base_weights":[-3.721734E-3,2.0538862E0,-2.680288E-1,2.4738967E0,-6.00009E-1,-1.8500697E-2,-6.318655E-1,2.9155738E0,1.1832396E0,-5.557622E-3,-6.927308E-1,7.6624113E-1,-1.568907E-1,1.2461727E0,-6.707992E-1,3.2884905E-1,6.9368094E-2,4.969163E-2,3.247939E-1,-5.557622E-3,-8.286498E-2,1.8294702E-1,4.413065E-2,-4.363887E-4,-4.4502392E-2,1.9280647E-1,-5.2864314E-3,-4.8094433E-2,-7.43842E-2],"categories":[0,1,2,3,5,6,8,10,12,13,14,1,4,5,6,13,0,1,2,3,6,9,12,13,14,16,17,18,19,21,0,1,2,3,6,12,0,1,2,3,4,5,6,7,8,12,14,0,1,2,3,4,5,7,8,9,10,11,12,1,4,5,8,0,1,2,3,4,5,6,0,1,3,6,9,13,14,16,17,18,19],"categories_nodes":[0,1,2,5,6,11,12,13,14],"categories_segments":[0,11,16,30,36,47,59,63,70],"categories_sizes":[11,5,14,6,11,12,4,7,11],"default_left":[1,1,1,0,0,1,1,0,0,0,0,1,1,1,1,0,0,0,0,0,0,0,0,0,0,0,0,0,0],"id":1,"left_children":[1,3,5,7,9,11,13,15,17,-1,19,21,23,25,27,-1,-1,-1,-1,-1,-1,-1,-1,-1,-1,-1,-1,-1,-1],"loss_changes":[1.9974854E2,4.808809E1,2.9536978E1,1.7238632E1,2.905128E-1,2.1198843E1,1.0515221E1,1.955693E1,1.3883047E1,0E0,4.286852E-1,9.303871E0,7.2857957E0,2.7934465E0,1.4497299E0,0E0,0E0,0E0,0E0,0E0,0E0,0E0,0E0,0E0,0E0,0E0,0E0,0E0,0E0],"parents":[2147483647,0,0,1,1,2,2,3,3,4,4,5,5,6,6,7,7,8,8,10,10,11,11,12,12,13,13,14,14],"right_children":[2,4,6,8,10,12,14,16,18,-1,20,22,24,26,28,-1,-1,-1,-1,-1,-1,-1,-1,-1,-1,-1,-1,-1,-1],"split_conditions":[1E-45,1E-45,1E-45,7.694177E0,3.6E1,1E-45,1E-45,1.22E2,1.4E1,-5.557622E-3,2E0,1E-45,1E-45,1E-45,1E-45,3.2884905E-1,6.9368094E-2,4.969163E-2,3.247939E-1,-5.557622E-3,-8.286498E-2,1.8294702E-1,4.413065E-2,-4.363887E-4,-4.4502392E-2,1.9280647E-1,-5.2864314E-3,-4.8094433E-2,-7.43842E-2],"split_indices":[0,1,1,12,8,0,0,7,3,0,4,10,10,10,1,0,0,0,0,0,0,0,0,0,0,0,0,0,0],"split_type":[1,1,1,0,0,1,1,0,0,0,0,1,1,1,1,0,0,0,0,0,0,0,0,0,0,0,0,0,0],"sum_hessian":[3.6528036E2,4.0809677E1,3.244707E2,3.5292103E1,5.517573E0,1.9309338E2,1.313773E2,2.5356014E1,9.9360895E0,1.0356941E0,4.4818788E0,2.826719E1,1.648262E2,2.038509E0,1.2933879E2,2.1300888E1,4.055127E0,8.388391E0,1.5476987E0,1.0356941E0,3.4461849E0,5.532817E0,2.2734375E1,1.0843825E2,5.6387955E1,1.0192544E0,1.0192544E0,3.804237E1,9.1296425E1],"tree_param":{"num_deleted":"0","num_feature":"13","num_nodes":"29","size_leaf_vector":"1"}},{"base_weights":[-4.9021435E-3,1.3572428E0,-2.9608873E-1,1.6565807E0,-5.475356E-1,-7.2923206E-2,-6.57342E-1,2.0858765E0,9.334774E-1,-7.8004444E-1,4.6064127E-2,1.638324E-1,-2.8572547E-1,-1.575768E-1,-7.0376736E-1,3.066233E-1,1.5170608E-1,1.358037E-1,1.3465568E-2,-5.1873825E-3,-8.988418E-2,9.2901714E-2,-6.62379E-2,-1.6939802E-2,4.779511E-2,3.807759E-2,-3.888891E-2,1.1064427E-1,-5.2059937E-2,-7.4872606E-2,-2.6553003E-2],"categories":[0,1,2,3,5,6,8,12,13,1,4,5,6,13,16,0,1,2,3,6,9,13,14,16,17,18,19,22,0,1,2,3,5,6,7,8,9,10,12,13,14,0,1,4,5,8,10,2,6,12],"categories_nodes":[0,1,2,3,5,6],"categories_segments":[0,9,15,28,41,47],"categories_sizes":[9,6,13,13,6,3],"default_left":[1,1,1,1,0,1,1,0,0,0,0,0,0,0,0,0,0,0,0,0,0,0,0,0,0,0,0,0,0,0,0],"id":2,"left_children":[1,3,5,7,9,11,13,15,17,19,21,23,25,27,29,-1,-1,-1,-1,-1,-1,-1,-1,-1,-1,-1,-1,-1,-1,-1,-1],"loss_changes":[1.4541788E2,3.7723755E1,2.430243E1,1.5452316E1,1.3499808E0,9.510038E0,2.5622406E0,1.4509033E1,7.512417E0,5.4999685E-1,2.8821945E0,9.454107E0,6.97464E0,5.660902E0,1.8725433E0,0E0,0E0,0E0,0E0,0E0,0E0,0E0,0E0,0E0,0E0,0E0,0E0,0E0,0E0,0E0,0E0],"parents":[2147483647,0,0,1,1,2,2,3,3,4,4,5,5,6,6,7,7,8,8,9,9,10,10,11,11,12,12,13,13,14,14],"right_children":[2,4,6,8,10,12,14,16,18,20,22,24,26,28,30,-1,-1,-1,-1,-1,-1,-1,-1,-1,-1,-1,-1,-1,-1,-1,-1],"split_conditions":[1E-45,1E-45,1E-45,1E-45,1.04E2,1E-45,1E-45,2.2038689E0,4E0,2.9E1,4.68E2,3.6E1,3E1,1E1,2.033343E1,3.066233E-1,1.5170608E-1,1.358037E-1,1.3465568E-2,-5.1873825E-3,-8.988418E-2,9.2901714E-2,-6.62379E-2,-1.6939802E-2,4.779511E-2,3.807759E-2,-3.888891E-2,1.1064427E-1,-5.2059937E-2,-7.4872606E-2,-2.6553003E-2],"split_indices":[0,1,1,0,7,10,0,12,4,8,8,7,8,7,12,0,0,0,0,0,0,0,0,0,0,0,0,0,0,0,0],"split_type":[1,1,1,1,0,1,1,0,0,0,0,0,0,0,0,0,0,0,0,0,0,0,0,0,0,0,0,0,0,0,0],"sum_hessian":[3.646127E2,6.3571205E1,3.010415E2,5.5050297E1,8.520908E0,1.8682904E2,1.1421247E2,3.336021E1,2.1690084E1,5.897002E0,2.6239061E0,8.854614E1,9.82829E1,1.00813875E1,1.0413108E2,1.0636905E1,2.2723307E1,1.3705699E1,7.9843855E0,1.0286328E0,4.8683696E0,1.0294824E0,1.5944239E0,4.3189556E1,4.535659E1,1.2812852E1,8.547005E1,1.792425E0,8.288962E0,9.379969E1,1.0331392E1],"tree_param":{"num_deleted":"0","num_feature":"13","num_nodes":"31","size_leaf_vector":"1"}},{"base_weights":[-5.9195603E-3,1.1076041E0,-2.7459306E-1,1.3545035E0,-3.5802138E-1,-6.648123E-2,-6.291623E-1,1.6528244E0,8.090374E-1,-8.10849E-1,4.9823487E-1,2.9090405E-2,-6.076807E-1,-1.4071052E-1,-6.7658925E-1,1.8572114E-1,4.5379493E-2,1.14986E-1,1.3101511E-2,-6.075871E-3,-9.2110015E-2,1.670988E-1,-7.0948355E-2,-1.9136135E-2,3.325906E-2,-6.61359E-2,3.2450553E-2,9.690339E-2,-4.9494997E-2,-7.365995E-2,-3.3273302E-2],"categories":[0,1,2,3,5,6,8,12,13,1,4,5,6,7,13,15,16,0,1,2,3,6,9,13,14,16,17,18,19,22,0,1,2,3,5,6,7,8,9,10,12,13,14,2,6,12],"categories_nodes":[0,1,2,3,6],"categories_segments":[0,9,17,30,43],"categories_sizes":[9,8,13,13,3],"default_left":[1,1,1,1,0,0,1,0,0,0,0,0,0,0,0,0,0,0,0,0,0,0,0,0,0,0,0,0,0,0,0],"id":3,"left_children":[1,3,5,7,9,11,13,15,17,19,21,23,25,27,29,-1,-1,-1,-1,-1,-1,-1,-1,-1,-1,-1,-1,-1,-1,-1,-1],"loss_changes":[1.0936636E2,2.61986E1,2.168822E1,8.592789E0,4.6829557E0,9.673672E0,2.4252129E0,8.58976E0,5.2876415E0,5.724554E-1,7.469623E0,1.0743406E1,1.6189327E0,4.7612963E0,1.7958603E0,0E0,0E0,0E0,0E0,0E0,0E0,0E0,0E0,0E0,0E0,0E0,0E0,0E0,0E0,0E0,0E0],"parents":[2147483647,0,0,1,1,2,2,3,3,4,4,5,5,6,6,7,7,8,8,9,9,10,10,11,11,12,12,13,13,14,14],"right_children":[2,4,6,8,10,12,14,16,18,20,22,24,26,28,30,-1,-1,-1,-1,-1,-1,-1,-1,-1,-1,-1,-1,-1,-1,-1,-1],"split_conditions":[1E-45,1E-45,1E-45,1E-45,1.04E2,1.32E2,1E-45,1.1826533E1,4E0,2.8E1,1.18E2,3.8E1,1.5E1,1E1,1.4785045E1,1.8572114E-1,4.5379493E-2,1.14986E-1,1.3101511E-2,-6.075871E-3,-9.2110015E-2,1.670988E-1,-7.0948355E-2,-1.9136135E-2,3.325906E-2,-6.61359E-2,3.2450553E-2,9.690339E-2,-4.9494997E-2,-7.365995E-2,-3.3273302E-2],"split_indices":[0,1,1,0,7,7,0,12,4,8,7,7,3,7,12,0,0,0,0,0,0,0,0,0,0,0,0,0,0,0,0],"split_type":[1,1,1,1,0,0,1,0,0,0,0,0,0,0,0,0,0,0,0,0,0,0,0,0,0,0,0,0,0,0,0],"sum_hessian":[3.635441E2,7.005927E1,2.934848E2,6.0023525E1,1.00357485E1,1.8568555E2,1.0779927E2,3.7489838E1,2.253369E1,6.59895E0,3.4367983E0,1.5862062E2,2.7064928E1,9.891648E0,9.790762E1,3.1561007E1,5.9288297E0,1.453264E1,8.00105E0,1.0444125E0,5.554538E0,1.549027E0,1.8877712E0,9.209534E1,6.652528E1,2.5866009E1,1.1989193E0,1.973531E0,7.918117E0,8.238714E1,1.5520481E1],"tree_param":{"num_deleted":"0","num_feature":"13","num_nodes":"31","size_leaf_vector":"1"}},{"base_weights":[-6.830022E-3,7.68849E-1,-3.14631E-1,1.0313979E0,-2.4478745E-1,-9.105929E-2,-6.0221785E-1,1.4347802E0,6.196457E-1,-4.717072E-1,1.7697087E-1,1.0874019E0,-1.3246833E-1,-6.2642866E-1,2.4844658E-1,2.1094798E-1,9.413041E-2,7.7190004E-2,-3.222733E-2,6.2467135E-2,-6.597504E-2,2.0728917E-1,-3.6320295E-2,-5.230291E-3,-5.6950975E-2,-6.786274E-2,-1.3730004E-2,1.22644685E-1,-6.608584E-2],"categories":[0,1,2,3,6,12,0,1,3,4,5,6,13,15,16,17,20,21,0,1,2,3,6,7,9,12,13,14,16,17,18,19,22,0,1,2,3,5,6,7,8,10,12,13,14,4,5,14,0,1,2,4,5,6,7,8],"categories_nodes":[0,1,2,3,9,11],"categories_segments":[0,6,18,33,45,48],"categories_sizes":[6,12,15,12,3,8],"default_left":[1,1,1,1,0,0,0,0,0,1,0,1,0,0,0,0,0,0,0,0,0,0,0,0,0,0,0,0,0],"id":4,"left_children":[1,3,5,7,9,11,13,15,17,19,-1,21,23,25,27,-1,-1,-1,-1,-1,-1,-1,-1,-1,-1,-1,-1,-1,-1],"loss_changes":[8.694874E1,2.7786114E1,1.6707405E1,1.2791534E1,1.0934083E1,7.3591814E0,2.5003815E0,1.1613968E1,6.3467064E0,4.6685934E0,0E0,8.0830345E0,5.005768E0,2.740406E0,4.249088E0,0E0,0E0,0E0,0E0,0E0,0E0,0E0,0E0,0E0,0E0,0E0,0E0,0E0,0E0],"parents":[2147483647,0,0,1,1,2,2,3,3,4,4,5,5,6,6,7,7,8,8,9,9,11,11,12,12,13,13,14,14],"right_children":[2,4,6,8,10,12,14,16,18,20,-1,22,24,26,28,-1,-1,-1,-1,-1,-1,-1,-1,-1,-1,-1,-1,-1,-1],"split_conditions":[1E-45,1E-45,1E-45,1E-45,1.5E1,3E0,1.8E1,2.5969977E0,1.9E1,1E-45,1.7697087E-1,1E-45,1.32E2,2.033343E1,2.7102475E0,2.1094798E-1,9.413041E-2,7.7190004E-2,-3.222733E-2,6.2467135E-2,-6.597504E-2,2.0728917E-1,-3.6320295E-2,-5.230291E-3,-5.6950975E-2,-6.786274E-2,-1.3730004E-2,1.22644685E-1,-6.608584E-2],"split_indices":[0,1,1,0,3,7,3,12,6,0,0,10,7,12,12,0,0,0,0,0,0,0,0,0,0,0,0,0,0],"split_type":[1,1,1,1,0,0,0,0,0,1,0,1,0,0,0,0,0,0,0,0,0,0,0,0,0,0,0,0,0],"sum_hessian":[3.6216278E2,1.0245966E2,2.597031E2,8.1366776E1,2.109289E1,1.4685434E2,1.1284877E2,3.984609E1,4.1520687E1,1.9645767E1,1.4471229E0,4.1275735E0,1.4272676E2,1.0998216E2,2.8666124E0,1.5448955E1,2.4397135E1,3.5898464E1,5.6222205E0,2.536258E0,1.7109509E1,2.2023737E0,1.9251997E0,1.215507E2,2.1176065E1,9.902682E1,1.09553385E1,1.2130964E0,1.653516E0],"tree_param":{"num_deleted":"0","num_feature":"13","num_nodes":"29","size_leaf_vector":"1"}},{"base_weights":[-6.467299E-3,6.600514E-1,-2.9191443E-1,8.677081E-1,-2.2044414E-1,-8.240093E-2,-5.7383233E-1,7.8005916E-1,2.4682303E-1,-7.75712E-1,5.7677597E-1,9.367063E-1,-1.2119994E-1,-5.9839386E-1,2.3261432E-1,9.092907E-2,4.3132408E-3,4.448375E-2,-9.14169E-2,1.2463877E-1,-7.8016564E-2,1.6923378E-1,-3.467639E-2,-5.7567853E-2,-4.4894866E-3,-6.513035E-2,-1.2618764E-2,1.0874863E-1,-6.4376205E-2],"categories":[0,1,2,3,6,12,0,1,3,4,5,6,13,15,16,17,20,21,0,1,2,3,6,7,9,12,13,14,16,17,18,19,22,0,1,2,3,4,5,6,7,8,9,11,12,13,14,5,14,0,1,2,4,5,6,7,8],"categories_nodes":[0,1,2,9,10,11],"categories_segments":[0,6,18,33,47,49],"categories_sizes":[6,12,15,14,2,8],"default_left":[1,1,1,0,0,0,0,0,0,1,1,1,0,0,0,0,0,0,0,0,0,0,0,0,0,0,0,0,0],"id":5,"left_children":[1,3,5,7,9,11,13,15,-1,17,19,21,23,25,27,-1,-1,-1,-1,-1,-1,-1,-1,-1,-1,-1,-1,-1,-1],"loss_changes":[6.8912796E1,2.0049995E1,1.4930946E1,1.0431946E1,9.975593E0,5.911796E0,2.2773209E0,8.053429E0,0E0,2.6228209E0,9.522916E0,5.913824E0,4.9037466E0,2.5420113E0,3.629809E0,0E0,0E0,0E0,0E0,0E0,0E0,0E0,0E0,0E0,0E0,0E0,0E0,0E0,0E0],"parents":[2147483647,0,0,1,1,2,2,3,3,4,4,5,5,6,6,7,7,9,9,10,10,11,11,12,12,13,13,14,14],"right_children":[2,4,6,8,10,12,14,16,-1,18,20,22,24,26,28,-1,-1,-1,-1,-1,-1,-1,-1,-1,-1,-1,-1,-1,-1],"split_conditions":[1E-45,1E-45,1E-45,1.8E1,8E0,3E0,1.8E1,1.1364521E1,2.4682303E-1,1E-45,1E-45,1E-45,1.0241872E0,2.033343E1,2.7102475E0,9.092907E-2,4.3132408E-3,4.448375E-2,-9.14169E-2,1.2463877E-1,-7.8016564E-2,1.6923378E-1,-3.467639E-2,-5.7567853E-2,-4.4894866E-3,-6.513035E-2,-1.2618764E-2,1.0874863E-1,-6.4376205E-2],"split_indices":[0,1,1,3,3,7,3,12,0,0,0,10,12,12,12,0,0,0,0,0,0,0,0,0,0,0,0,0,0],"split_type":[1,1,1,0,0,0,0,0,0,1,1,1,0,0,0,0,0,0,0,0,0,0,0,0,0,0,0,0,0],"sum_hessian":[3.6019843E2,1.0761206E2,2.5258638E2,8.708775E1,2.0524307E1,1.4564177E2,1.0694461E2,8.397636E1,3.1113942E0,1.2113896E1,8.410412E0,4.492695E0,1.4114908E2,1.0403408E2,2.910528E0,7.124802E1,1.272834E1,1.0087316E0,1.1105165E1,5.686004E0,2.7244074E0,2.62732E0,1.8653749E0,1.9350668E1,1.2179841E2,9.321075E1,1.0823337E1,1.3513994E0,1.5591284E0],"tree_param":{"num_deleted":"0","num_feature":"13","num_nodes":"29","size_leaf_vector":"1"}},{"base_weights":[-6.440303E-3,5.694705E-1,-2.7042636E-1,6.923954E-1,-5.014055E-1,-7.464148E-2,-5.456244E-1,9.569245E-1,2.7610493E-1,3.8655184E-2,-6.207937E-1,-3.7591203E-4,-5.511375E-1,-5.703824E-1,2.1559605E-1,1.4089909E-1,5.953523E-2,8.002173E-2,-1.2385271E-2,1.309132E-2,-8.3781175E-2,1.0905496E-2,-4.228755E-2,8.2991235E-3,-7.335288E-2,-6.237921E-2,-1.1587754E-2,9.670113E-2,-6.270628E-2],"categories":[0,1,2,3,6,12,1,4,5,6,13,15,16,0,1,2,3,6,7,9,12,13,14,16,17,18,19,22,0,2,3,7,9,10,11,12,0,1,3,4,5,6,8,11,12,13,15,16,18,19,0,1,2,3,4,5,7,9,10,11,12],"categories_nodes":[0,1,2,3,8,12],"categories_segments":[0,6,13,28,36,50],"categories_sizes":[6,7,15,8,14,11],"default_left":[1,1,1,1,0,0,0,0,1,0,0,0,1,0,0,0,0,0,0,0,0,0,0,0,0,0,0,0,0],"id":6,"left_children":[1,3,5,7,9,11,13,15,17,-1,19,21,23,25,27,-1,-1,-1,-1,-1,-1,-1,-1,-1,-1,-1,-1,-1,-1],"loss_changes":[5.4797836E1,1.5260513E1,1.3274601E1,1.0973152E1,1.5381348E0,5.1507106E0,2.0560894E0,9.293831E0,8.705148E0,0E0,1.9331808E0,5.91475E0,2.3308892E0,2.3458862E0,3.111706E0,0E0,0E0,0E0,0E0,0E0,0E0,0E0,0E0,0E0,0E0,0E0,0E0,0E0,0E0],"parents":[2147483647,0,0,1,1,2,2,3,3,4,4,5,5,6,6,7,7,8,8,10,10,11,11,12,12,13,13,14,14],"right_children":[2,4,6,8,10,12,14,16,18,-1,20,22,24,26,28,-1,-1,-1,-1,-1,-1,-1,-1,-1,-1,-1,-1,-1,-1],"split_conditions":[1E-45,1E-45,1E-45,1E-45,3.6763778E-1,1.35E2,1.8E1,3.130255E0,1E-45,3.8655184E-2,2E0,1.6531338E1,1E-45,2.033343E1,2.7102475E0,1.4089909E-1,5.953523E-2,8.002173E-2,-1.2385271E-2,1.309132E-2,-8.3781175E-2,1.0905496E-2,-4.228755E-2,8.2991235E-3,-7.335288E-2,-6.237921E-2,-1.1587754E-2,9.670113E-2,-6.270628E-2],"split_indices":[0,1,1,10,12,7,3,12,1,0,4,12,10,12,12,0,0,0,0,0,0,0,0,0,0,0,0,0,0],"split_type":[1,1,1,1,0,0,0,0,1,0,0,0,1,0,0,0,0,0,0,0,0,0,0,0,0,0,0,0,0],"sum_hessian":[3.584222E2,1.1229115E2,2.4613107E2,1.0104565E2,1.1245505E1,1.4455858E2,1.01572495E2,6.099076E1,4.0054886E1,1.0675752E0,1.0177931E1,1.2593191E2,1.8626669E1,9.861579E1,2.9566998E0,2.5816309E1,3.517445E1,1.6903477E1,2.3151407E1,2.368989E0,7.8089414E0,1.00613945E2,2.5317959E1,4.282495E0,1.4344174E1,8.791257E1,1.0703226E1,1.4849603E0,1.4717394E0],"tree_param":{"num_deleted":"0","num_feature":"13","num_nodes":"29","size_leaf_vector":"1"}},{"base_weights":[-6.9081374E-3,6.944595E-1,-2.0944789E-1,8.2783586E-1,-4.4386593E-1,-9.3032554E-2,-5.898549E-1,9.8953104E-1,3.6249247E-1,-8.2332706E-1,7.425374E-2,-1.21365465E-1,8.8920504E-1,-4.165657E-1,-8.7797797E-1,1.103174E-1,8.949165E-3,5.3699086E-3,1.3558033E-1,-1.0055968E-2,-9.3353115E-2,-1.5435054E-2,9.311446E-2,1.5627289E-1,-6.585454E-2,9.827656E-3,-5.848341E-2,-4.338079E-2,-9.912466E-2],"categories":[0,1,2,3,5,6,10,12,13,0,13,16,17,0,1,3,6,9,13,14,16,18,19],"categories_nodes":[0,1,2],"categories_segments":[0,9,13],"categories_sizes":[9,4,10],"default_left":[1,1,1,0,0,0,0,0,0,0,0,0,0,0,0,0,0,0,0,0,0,0,0,0,0,0,0,0,0],"id":7,"left_children":[1,3,5,7,9,11,13,15,17,19,-1,21,23,25,27,-1,-1,-1,-1,-1,-1,-1,-1,-1,-1,-1,-1,-1,-1],"loss_changes":[5.096832E1,1.257386E1,1.2272878E1,5.082527E0,4.7004995E0,6.0726757E0,2.8816586E0,5.331333E0,6.13105E0,4.9205542E-1,0E0,7.406604E0,7.4184923E0,3.740769E0,7.535E-1,0E0,0E0,0E0,0E0,0E0,0E0,0E0,0E0,0E0,0E0,0E0,0E0,0E0,0E0],"parents":[2147483647,0,0,1,1,2,2,3,3,4,4,5,5,6,6,7,7,8,8,9,9,11,11,12,12,13,13,14,14],"right_children":[2,4,6,8,10,12,14,16,18,20,-1,22,24,26,28,-1,-1,-1,-1,-1,-1,-1,-1,-1,-1,-1,-1,-1,-1],"split_conditions":[1E-45,1E-45,1E-45,7.359232E0,6.5868793E0,4E0,4.53E2,1.22E2,1.3E1,6.5551263E-1,7.425374E-2,1.8E1,1.2709804E1,2E0,1.05E2,1.103174E-1,8.949165E-3,5.3699086E-3,1.3558033E-1,-1.0055968E-2,-9.3353115E-2,-1.5435054E-2,9.311446E-2,1.5627289E-1,-6.585454E-2,9.827656E-3,-5.848341E-2,-4.338079E-2,-9.912466E-2],"split_indices":[0,1,1,12,12,11,8,7,3,12,0,3,12,4,7,0,0,0,0,0,0,0,0,0,0,0,0,0,0],"split_type":[1,1,1,0,0,0,0,0,0,0,0,0,0,0,0,0,0,0,0,0,0,0,0,0,0,0,0,0,0],"sum_hessian":[3.5676938E2,7.9397575E1,2.773718E2,7.13145E1,8.083081E0,2.1333101E2,6.404077E1,5.2088566E1,1.9225931E1,6.3561506E0,1.7269306E0,2.0820181E2,5.1291986E0,4.1516693E1,2.252408E1,4.6048576E1,6.039991E0,1.5470601E1,3.7553294E0,1.0939595E0,5.2621913E0,2.0270258E2,5.4992332E0,3.567205E0,1.5619935E0,1.0329132E1,3.1187563E1,5.5581846E0,1.6965897E1],"tree_param":{"num_deleted":"0","num_feature":"13","num_nodes":"29","size_leaf_vector":"1"}},{"base_weights":[-6.830164E-3,6.0254455E-1,-1.9281214E-1,8.203795E-1,2.0990428E-3,-8.1011444E-2,-5.533223E-1,1.3321936E0,5.631255E-1,-4.878827E-1,4.7606498E-1,1.0330789E-1,-2.4905507E-1,-3.6443314E-1,-8.427617E-1,1.5331067E-1,-4.307574E-2,1.6902979E-1,4.0625658E-2,6.1870396E-2,-7.4730806E-2,8.602946E-2,-6.1991423E-2,-1.9968798E-2,3.8420174E-2,3.3240847E-2,-3.5237204E-2,1.648487E-2,-5.5371534E-2,-3.568609E-2,-9.901331E-2],"categories":[0,1,2,3,5,6,10,12,13,0,1,2,4,5,6,12,13,14,15,16,17,20,21,22,0,1,3,6,9,13,14,16,18,19,21,0,1,4,5,8,10,11,0,1,2,3,4,5,6,7,8,11,12,13,14,15,16,17,18,19,20,21,22,0,1,2,3,4,8,10,1,3,5,6,8],"categories_nodes":[0,1,2,5,8,9,14],"categories_segments":[0,9,24,35,42,63,70],"categories_sizes":[9,15,11,7,21,7,5],"default_left":[1,1,1,0,0,1,0,0,1,1,0,0,0,0,1,0,0,0,0,0,0,0,0,0,0,0,0,0,0,0,0],"id":8,"left_children":[1,3,5,7,9,11,13,15,17,19,21,23,25,27,29,-1,-1,-1,-1,-1,-1,-1,-1,-1,-1,-1,-1,-1,-1,-1,-1],"loss_changes":[4.0438847E1,1.0911875E1,1.0972693E1,7.3109016E0,5.6235414E0,6.524571E0,3.2210464E0,7.65485E0,6.8239384E0,3.8809876E0,5.715619E0,8.653233E0,6.7282724E0,4.1799264E0,1.4169521E0,0E0,0E0,0E0,0E0,0E0,0E0,0E0,0E0,0E0,0E0,0E0,0E0,0E0,0E0,0E0,0E0],"parents":[2147483647,0,0,1,1,2,2,3,3,4,4,5,5,6,6,7,7,8,8,9,9,10,10,11,11,12,12,13,13,14,14],"right_children":[2,4,6,8,10,12,14,16,18,20,22,24,26,28,30,-1,-1,-1,-1,-1,-1,-1,-1,-1,-1,-1,-1,-1,-1,-1,-1],"split_conditions":[1E-45,1E-45,1E-45,2.2038689E0,6E0,1E-45,4.17E2,1.27E2,1E-45,1E-45,4.85E2,3.6E1,1E1,2E0,1E-45,1.5331067E-1,-4.307574E-2,1.6902979E-1,4.0625658E-2,6.1870396E-2,-7.4730806E-2,8.602946E-2,-6.1991423E-2,-1.9968798E-2,3.8420174E-2,3.3240847E-2,-3.5237204E-2,1.648487E-2,-5.5371534E-2,-3.568609E-2,-9.901331E-2],"split_indices":[0,1,1,12,3,10,8,7,1,10,8,7,7,4,10,0,0,0,0,0,0,0,0,0,0,0,0,0,0,0,0],"split_type":[1,1,1,0,0,1,0,0,1,1,0,0,0,0,1,0,0,0,0,0,0,0,0,0,0,0,0,0,0,0,0],"sum_hessian":[3.5479022E2,8.2438515E1,2.723517E2,6.022373E1,2.2214785E1,2.0881815E2,6.3533558E1,1.8747177E1,4.147655E1,1.0908408E1,1.1306377E1,9.977012E1,1.0904803E2,3.9811523E1,2.3722034E1,1.6946283E1,1.8008926E0,3.8728926E0,3.760366E1,1.8086504E0,9.099757E0,8.530714E0,2.775663E0,4.8135834E1,5.1634285E1,1.6118187E1,9.292984E1,1.0521048E1,2.9290476E1,6.3166857E0,1.7405348E1],"tree_param":{"num_deleted":"0","num_feature":"13","num_nodes":"31","size_leaf_vector":"1"}},{"base_weights":[-6.844494E-3,6.234749E-1,-1.5412934E-1,-1.6362798E-1,8.278419E-1,-3.138837E-2,-4.974272E-1,4.1323125E-1,-6.5468466E-1,9.0532357E-1,-2.5532484E-1,8.766179E-2,-2.6955667E-1,4.5286274E-1,-5.4228204E-1,1.05692506E-1,-3.970441E-2,-9.794688E-2,2.112244E-2,2.0749366E-3,1.02019705E-1,4.4566035E-2,-7.8799814E-2,9.6655205E-2,2.2567844E-3,3.798708E-2,-3.9947424E-2,1.0979202E-1,-5.7331156E-2,-2.3442153E-2,-6.4432174E-2],"categories":[0,1,2,3,5,6,9,10,12,13,14,0,1,3,6,9,12,13,14,16,17,18,19,21,0,1,4,5,8,11,0,2,5,6,9,12,14],"categories_nodes":[0,2,5,6],"categories_segments":[0,11,24,30],"categories_sizes":[11,13,6,7],"default_left":[1,0,1,0,0,1,1,0,0,0,0,0,0,0,0,0,0,0,0,0,0,0,0,0,0,0,0,0,0,0,0],"id":9,"left_children":[1,3,5,7,9,11,13,15,17,19,21,23,25,27,29,-1,-1,-1,-1,-1,-1,-1,-1,-1,-1,-1,-1,-1,-1,-1,-1],"loss_changes":[3.2934616E1,1.0944559E1,1.2099859E1,4.430615E0,4.722069E0,6.059303E0,3.4705524E0,4.261533E0,2.5467136E0,5.075638E0,1.9762903E0,8.141003E0,6.1580358E0,3.2475324E0,2.1328754E0,0E0,0E0,0E0,0E0,0E0,0E0,0E0,0E0,0E0,0E0,0E0,0E0,0E0,0E0,0E0,0E0],"parents":[2147483647,0,0,1,1,2,2,3,3,4,4,5,5,6,6,7,7,8,8,9,9,10,10,11,11,12,12,13,13,14,14],"right_children":[2,4,6,8,10,12,14,16,18,20,22,24,26,28,30,-1,-1,-1,-1,-1,-1,-1,-1,-1,-1,-1,-1,-1,-1,-1,-1],"split_conditions":[1E-45,3E0,1E-45,2E0,1.47E2,1E-45,1E-45,1.08E2,5.632709E0,2.7E1,2.1E1,1E0,1E1,4.19E2,2E0,1.05692506E-1,-3.970441E-2,-9.794688E-2,2.112244E-2,2.0749366E-3,1.02019705E-1,4.4566035E-2,-7.8799814E-2,9.6655205E-2,2.2567844E-3,3.798708E-2,-3.9947424E-2,1.0979202E-1,-5.7331156E-2,-2.3442153E-2,-6.4432174E-2],"split_indices":[0,3,1,3,7,10,0,8,12,8,6,3,7,8,4,0,0,0,0,0,0,0,0,0,0,0,0,0,0,0,0],"split_type":[1,0,1,0,0,1,1,0,0,0,0,0,0,0,0,0,0,0,0,0,0,0,0,0,0,0,0,0,0,0,0],"sum_hessian":[3.527243E2,6.61966E1,2.865277E2,1.3685883E1,5.2510715E1,2.1186868E2,7.465902E1,6.3660154E0,7.3198667E0,4.9158474E1,3.3522437E0,1.4168056E2,7.0188126E1,2.955157E0,7.170386E1,3.3780465E0,2.987969E0,5.2278614E0,2.0920053E0,5.7858205E0,4.3372654E1,1.5179757E0,1.834268E0,8.81486E0,1.3286569E2,1.1379705E1,5.880842E1,1.7716036E0,1.1835535E0,1.8670647E1,5.3033215E1],"tree_param":{"num_deleted":"0","num_feature":"13","num_nodes":"31","size_leaf_vector":"1"}},{"base_weights":[-6.8255006E-3,4.4929102E-1,-1.7531177E-1,6.037512E-1,5.9952788E-2,-4.8581053E-2,-4.780817E-1,5.268364E-1,1.9289117E-1,3.345043E-1,-6.6569096E-1,1.1896272E-3,-7.3446935E-1,-4.405773E-2,-5.5120176E-1,9.369999E-2,2.6253188E-2,-3.4210883E-2,9.6826375E-2,-9.858324E-2,4.9767573E-3,6.2545664E-3,-5.1528372E-2,2.2279939E-2,-8.762632E-2,9.973184E-2,-3.4482997E-2,-6.129529E-2,-2.3918634E-3],"categories":[0,1,2,3,5,6,12,13,0,1,3,4,5,6,7,12,13,14,15,16,17,19,20,21,22,0,1,2,3,6,9,13,14,16,17,18,19,9,11,14,2,6,0,1,2,3,4,5,6,7,9,10,11,12],"categories_nodes":[0,1,2,4,11,12],"categories_segments":[0,8,25,37,40,42],"categories_sizes":[8,17,12,3,2,12],"default_left":[1,1,1,0,1,0,0,0,0,0,0,1,1,0,0,0,0,0,0,0,0,0,0,0,0,0,0,0,0],"id":10,"left_children":[1,3,5,7,9,11,13,15,-1,17,19,21,23,25,27,-1,-1,-1,-1,-1,-1,-1,-1,-1,-1,-1,-1,-1,-1],"loss_changes":[2.7106451E1,5.6859074E0,9.858887E0,5.9160633E0,5.828275E0,6.2365775E0,2.3838253E0,6.8719254E0,0E0,9.370081E0,1.8947148E0,5.460719E0,1.872889E0,4.1110377E0,2.0969582E0,0E0,0E0,0E0,0E0,0E0,0E0,0E0,0E0,0E0,0E0,0E0,0E0,0E0,0E0],"parents":[2147483647,0,0,1,1,2,2,3,3,4,4,5,5,6,6,7,7,9,9,10,10,11,11,12,12,13,13,14,14],"right_children":[2,4,6,8,10,12,14,16,-1,18,20,22,24,26,28,-1,-1,-1,-1,-1,-1,-1,-1,-1,-1,-1,-1,-1,-1],"split_conditions":[1E-45,1E-45,1E-45,1.8E1,1E-45,1.56E2,2E0,2.5969977E0,1.9289117E-1,6E0,1.35E2,1E-45,1E-45,1.1E1,1.4E1,9.369999E-2,2.6253188E-2,-3.4210883E-2,9.6826375E-2,-9.858324E-2,4.9767573E-3,6.2545664E-3,-5.1528372E-2,2.2279939E-2,-8.762632E-2,9.973184E-2,-3.4482997E-2,-6.129529E-2,-2.3918634E-3],"split_indices":[0,1,1,3,0,7,3,12,0,3,8,0,10,7,3,0,0,0,0,0,0,0,0,0,0,0,0,0,0],"split_type":[1,1,1,0,1,0,0,0,0,0,0,1,1,0,0,0,0,0,0,0,0,0,0,0,0,0,0,0,0],"sum_hessian":[3.5069687E2,9.415072E1,2.5654614E2,6.7013916E1,2.71368E1,1.8166632E2,7.4879814E1,6.465858E1,2.3553424E0,2.0078869E1,7.057932E0,1.703065E2,1.1359825E1,1.1027228E1,6.3852585E1,2.4340454E1,4.0318123E1,9.9336815E0,1.0145187E1,4.6149907E0,2.4429412E0,1.530083E2,1.7298195E1,1.3918657E0,9.967959E0,1.9521971E0,9.075031E0,5.7013187E1,6.8393993E0],"tree_param":{"num_deleted":"0","num_feature":"13","num_nodes":"29","size_leaf_vector":"1"}},{"base_weights":[-6.4922394E-3,4.5340568E-1,-1.4460993E-1,6.833986E-1,7.6118903E-3,-6.794066E-2,-4.4532776E-1,9.211864E-1,1.4435366E-1,-4.241782E-1,4.11677E-1,-9.428684E-2,6.956364E-1,5.860459E-1,-5.1815796E-1,1.1681863E-1,1.9606372E-2,1.2365931E-1,-6.84329E-3,3.719162E-2,-7.553139E-2,9.643798E-2,-3.5752263E-2,-1.2284621E-2,8.686712E-2,-6.7219034E-2,1.2097211E-1,1.5660816E-1,-6.623389E-2,-1.599494E-2,-6.5838836E-2],"categories":[0,1,2,3,5,6,7,10,12,13,0,1,2,3,4,5,6,7,12,13,14,15,16,17,19,20,21,22,1,3,6,9,13,14,16,18,19,0,1,2,4,5,6,10,12,0,1,2,3,4,7,9,11,12,0,1,2,3,4,5,6,7,8,9,11,12,13,14,15,16,17,18,0,1,2,3,4,5,6,7,8,9,10,11,12,13,15,16,17,9,11,14],"categories_nodes":[0,1,2,6,7,8,9,10],"categories_segments":[0,10,28,37,45,54,72,89],"categories_sizes":[10,18,9,8,9,18,17,3],"default_left":[1,1,1,0,0,0,1,1,1,1,1,0,0,0,0,0,0,0,0,0,0,0,0,0,0,0,0,0,0,0,0],"id":11,"left_children":[1,3,5,7,9,11,13,15,17,19,21,23,25,27,29,-1,-1,-1,-1,-1,-1,-1,-1,-1,-1,-1,-1,-1,-1,-1,-1],"loss_changes":[2.2273314E1,8.298613E0,6.1862473E0,6.713648E0,5.160097E0,4.411562E0,4.4047384E0,6.3761444E0,4.160247E0,4.05219E0,6.836128E0,5.873953E0,5.9636765E0,6.0171776E0,2.482974E0,0E0,0E0,0E0,0E0,0E0,0E0,0E0,0E0,0E0,0E0,0E0,0E0,0E0,0E0,0E0,0E0],"parents":[2147483647,0,0,1,1,2,2,3,3,4,4,5,5,6,6,7,7,8,8,9,9,10,10,11,11,12,12,13,13,14,14],"right_children":[2,4,6,8,10,12,14,16,18,20,22,24,26,28,30,-1,-1,-1,-1,-1,-1,-1,-1,-1,-1,-1,-1,-1,-1,-1,-1],"split_conditions":[1E-45,1E-45,1E-45,6.015853E0,8E0,1.8E1,1E-45,1E-45,1E-45,1E-45,1E-45,4E0,2E0,1.44E2,2E0,1.1681863E-1,1.9606372E-2,1.2365931E-1,-6.84329E-3,3.719162E-2,-7.553139E-2,9.643798E-2,-3.5752263E-2,-1.2284621E-2,8.686712E-2,-6.7219034E-2,1.2097211E-1,1.5660816E-1,-6.623389E-2,-1.599494E-2,-6.5838836E-2],"split_indices":[0,1,1,12,3,3,0,10,1,1,0,11,4,8,4,0,0,0,0,0,0,0,0,0,0,0,0,0,0,0,0],"split_type":[1,1,1,0,0,0,1,1,1,1,1,0,0,0,0,0,0,0,0,0,0,0,0,0,0,0,0,0,0,0,0],"sum_hessian":[3.4861795E2,7.9989586E1,2.686284E2,5.241484E1,2.757474E1,2.150312E2,5.3597176E1,3.5878784E1,1.6536058E1,1.3305985E1,1.4268755E1,2.0870659E2,6.324615E0,3.0703368E0,5.052684E1,2.6306822E1,9.571962E0,1.9117198E0,1.4624338E1,3.8725958E0,9.43339E0,8.15517E0,6.113584E0,2.0354236E2,5.164222E0,1.6436917E0,4.6809235E0,1.5774693E0,1.4928675E0,1.4817421E1,3.570942E1],"tree_param":{"num_deleted":"0","num_feature":"13","num_nodes":"31","size_leaf_vector":"1"}},{"base_weights":[-5.4784003E-3,3.0678248E-1,-1.8082748E-1,2.1215461E-1,2.6995212E-1,-5.4341536E-2,-4.244646E-1,3.729307E-1,-2.3136328E-1,1.8587554E-2,-4.6953517E-1,-4.9841464E-1,-1.8131005E-2,4.416817E-2,-2.3017412E-2,-4.3163996E-2,1.2173492E-1,-2.982808E-3,1.283776E-1,4.257614E-2,-7.619001E-2,-5.410699E-2,4.3002542E-2,9.155934E-2,-6.6198096E-2],"categories":[0,1,2,3,6,12,13,0,2,3,4,5,6,7,8,9,10,11,12,1,2,3,6,7,9,13,14,16,17,18,19,22,0,1,3,4,5,6,13,15,16,17,19,0,1,2,3,4,5,7,9,10,11,12,0,1,3,4,5,6,8,9,10,11,12,13,14,15,16,17,18,19],"categories_nodes":[0,1,2,4,10,12],"categories_segments":[0,7,19,32,43,54],"categories_sizes":[7,12,13,11,11,18],"default_left":[1,1,1,0,1,0,0,0,0,0,1,0,1,0,0,0,0,0,0,0,0,0,0,0,0],"id":12,"left_children":[1,3,5,-1,7,9,11,13,15,17,19,21,23,-1,-1,-1,-1,-1,-1,-1,-1,-1,-1,-1,-1],"loss_changes":[1.906439E1,7.7964334E0,6.84753E0,0E0,6.4810324E0,4.4872828E0,2.2759724E0,4.3784266E0,6.8291025E0,7.803568E0,6.1186485E0,2.7790575E0,8.268977E0,0E0,0E0,0E0,0E0,0E0,0E0,0E0,0E0,0E0,0E0,0E0,0E0],"parents":[2147483647,0,0,1,1,2,2,4,4,5,5,6,6,7,7,8,8,9,9,10,10,11,11,12,12],"right_children":[2,4,6,-1,8,10,12,14,16,18,20,22,24,-1,-1,-1,-1,-1,-1,-1,-1,-1,-1,-1,-1],"split_conditions":[1E-45,1E-45,1E-45,2.1215461E-1,1E-45,1.28E2,2.1E1,3E0,1.5E1,5.54E2,1E-45,1.8E1,1E-45,4.416817E-2,-2.3017412E-2,-4.3163996E-2,1.2173492E-1,-2.982808E-3,1.283776E-1,4.257614E-2,-7.619001E-2,-5.410699E-2,4.3002542E-2,9.155934E-2,-6.6198096E-2],"split_indices":[0,10,1,0,1,7,6,11,3,8,10,3,1,0,0,0,0,0,0,0,0,0,0,0,0],"split_type":[1,1,1,0,1,0,0,0,0,0,1,0,1,0,0,0,0,0,0,0,0,0,0,0,0],"sum_hessian":[3.461653E2,1.2421472E2,2.2195059E2,1.3448715E0,1.2286985E2,1.4690622E2,7.5044365E1,1.0214388E2,2.0725971E1,1.25769875E2,2.1136345E1,6.3297943E1,1.1746421E1,9.193176E1,1.0212118E1,1.8825499E1,1.9004712E0,1.220748E2,3.6950774E0,5.0907845E0,1.604556E1,6.091649E1,2.381456E0,4.621772E0,7.124649E0],"tree_param":{"num_deleted":"0","num_feature":"13","num_nodes":"25","size_leaf_vector":"1"}},{"base_weights":[-4.5372546E-3,4.4767618E-1,-1.06487356E-1,5.7445914E-1,-3.1657308E-1,-2.0201698E-2,-3.6459896E-1,6.9311506E-1,-1.6325997E-1,7.355537E-2,-5.248772E-1,3.2736456E-1,-1.0266974E-1,-1.959889E-1,-7.6627636E-1,7.610478E-2,-5.377228E-2,-7.359151E-2,1.4540295E-1,-9.0161346E-2,3.7491385E-2,1.299511E-1,1.7606067E-2,-1.3480797E-2,7.224121E-2,2.0417026E-3,-7.112768E-2,-8.887597E-2,-3.0814174E-3],"categories":[0,1,2,3,5,6,7,9,10,12,13,14,0,13,14,0,1,3,6,9,12,13,15,16,17,18,19,21,3,8,10,0,1,2,4,6,7,8,10,11,12,13],"categories_nodes":[0,1,2,4,5],"categories_segments":[0,12,15,28,31],"categories_sizes":[12,3,13,3,11],"default_left":[1,1,1,0,1,1,0,0,0,0,0,0,0,0,0,0,0,0,0,0,0,0,0,0,0,0,0,0,0],"id":13,"left_children":[1,3,5,7,9,11,13,15,17,-1,19,21,23,25,27,-1,-1,-1,-1,-1,-1,-1,-1,-1,-1,-1,-1,-1,-1],"loss_changes":[1.5967309E1,6.355755E0,6.2862043E0,4.928198E0,2.5143676E0,6.13442E0,4.640867E0,4.387274E0,8.878345E0,0E0,3.2837012E0,5.810157E0,4.679179E0,5.720488E0,1.8257256E0,0E0,0E0,0E0,0E0,0E0,0E0,0E0,0E0,0E0,0E0,0E0,0E0,0E0,0E0],"parents":[2147483647,0,0,1,1,2,2,3,3,4,4,5,5,6,6,7,7,8,8,10,10,11,11,12,12,13,13,14,14],"right_children":[2,4,6,8,10,12,14,16,18,-1,20,22,24,26,28,-1,-1,-1,-1,-1,-1,-1,-1,-1,-1,-1,-1,-1,-1],"split_conditions":[1E-45,1E-45,1E-45,1.2709804E1,1E-45,1E-45,5E0,1.47E2,1.5E1,7.355537E-2,5.632709E0,7E0,4E0,1.06E2,1.4785045E1,7.610478E-2,-5.377228E-2,-7.359151E-2,1.4540295E-1,-9.0161346E-2,3.7491385E-2,1.299511E-1,1.7606067E-2,-1.3480797E-2,7.224121E-2,2.0417026E-3,-7.112768E-2,-8.887597E-2,-3.0814174E-3],"split_indices":[0,1,1,12,10,0,4,7,3,0,12,7,11,7,12,0,0,0,0,0,0,0,0,0,0,0,0,0,0],"split_type":[1,1,1,0,1,1,0,0,0,0,0,0,0,0,0,0,0,0,0,0,0,0,0,0,0,0,0,0,0],"sum_hessian":[3.4430435E2,6.2718193E1,2.8158615E2,5.4007164E1,8.711029E0,2.1184537E2,6.9740776E1,4.657623E1,7.4309344E0,1.0213125E0,7.6897173E0,4.0056282E1,1.717891E2,5.0169365E1,1.9571411E1,4.4501762E1,2.0744689E0,5.8902617E0,1.5406728E0,5.418855E0,2.2708619E0,4.372659E0,3.5683624E1,1.6615375E2,5.6353393E0,3.60076E1,1.4161765E1,1.6598646E1,2.9727652E0],"tree_param":{"num_deleted":"0","num_feature":"13","num_nodes":"29","size_leaf_vector":"1"}},{"base_weights":[-4.3026167E-3,3.9895675E-1,-9.71494E-2,-1.7444557E-1,5.477506E-1,-2.4172073E-2,-3.6639273E-1,2.8248528E-1,-6.167863E-1,6.291097E-1,-2.3486531E-1,-1.5318635E-1,1.1497298E-1,5.9660244E-1,-4.492362E-1,7.4268386E-2,-3.779156E-2,-9.743785E-2,2.3120118E-2,7.313195E-2,-2.0919412E-2,-7.51971E-2,4.7116023E-2,1.677451E-2,-3.6493722E-2,1.176128E-1,3.4150034E-3,1.3542885E-1,-4.2541694E-2,-1.02455E-2,-5.7484914E-2],"categories":[0,1,2,3,5,6,7,9,10,12,13,14,0,1,3,6,9,12,13,16,17,18,19,21,0,2,5,6,9,12,14],"categories_nodes":[0,2,6],"categories_segments":[0,12,24],"categories_sizes":[12,12,7],"default_left":[1,0,1,0,0,0,1,0,0,0,0,0,0,0,0,0,0,0,0,0,0,0,0,0,0,0,0,0,0,0,0],"id":14,"left_children":[1,3,5,7,9,11,13,15,17,19,21,23,25,27,29,-1,-1,-1,-1,-1,-1,-1,-1,-1,-1,-1,-1,-1,-1,-1,-1],"loss_changes":[1.2890629E1,5.593157E0,5.4891806E0,3.0108123E0,3.4206667E0,3.988851E0,5.0227327E0,2.5871243E0,2.4828756E0,4.165798E0,2.387334E0,7.8910413E0,9.136897E0,4.56458E0,2.3564672E0,0E0,0E0,0E0,0E0,0E0,0E0,0E0,0E0,0E0,0E0,0E0,0E0,0E0,0E0,0E0,0E0],"parents":[2147483647,0,0,1,1,2,2,3,3,4,4,5,5,6,6,7,7,8,8,9,9,10,10,11,11,12,12,13,13,14,14],"right_children":[2,4,6,8,10,12,14,16,18,20,22,24,26,28,30,-1,-1,-1,-1,-1,-1,-1,-1,-1,-1,-1,-1,-1,-1,-1,-1],"split_conditions":[1E-45,3E0,1E-45,2E0,3E0,3.8E1,1E-45,1.08E2,5.632709E0,1.4410132E1,3.7885592E0,1.1E1,1E0,3E0,2E0,7.4268386E-2,-3.779156E-2,-9.743785E-2,2.3120118E-2,7.313195E-2,-2.0919412E-2,-7.51971E-2,4.7116023E-2,1.677451E-2,-3.6493722E-2,1.176128E-1,3.4150034E-3,1.3542885E-1,-4.2541694E-2,-1.02455E-2,-5.7484914E-2],"split_indices":[0,3,1,3,11,7,0,8,12,12,12,7,3,4,4,0,0,0,0,0,0,0,0,0,0,0,0,0,0,0,0],"split_type":[1,0,1,0,0,0,1,0,0,0,0,0,0,0,0,0,0,0,0,0,0,0,0,0,0,0,0,0,0,0,0],"sum_hessian":[3.4225354E2,6.3436085E1,2.7881747E2,1.3034197E1,5.040189E1,2.2021803E2,5.8599438E1,6.5891237E0,6.4450736E0,4.5833298E1,4.568589E0,1.1421645E2,1.0600157E2,4.150566E0,5.444887E1,3.8097289E0,2.7793946E0,4.4285336E0,2.0165398E0,4.096614E1,4.867157E0,2.5995538E0,1.9690356E0,4.548572E1,6.873073E1,6.543081E0,9.945849E1,2.1968186E0,1.9537477E0,1.4961129E1,3.948774E1],"tree_param":{"num_deleted":"0","num_feature":"13","num_nodes":"31","size_leaf_vector":"1"}},{"base_weights":[-4.2022946E-3,2.2713253E-1,-1.4296313E-1,1.8505496E-1,1.9389613E-1,-3.0748248E-2,-3.6713842E-1,2.3770028E-1,-6.8604636E-1,3.4680653E-2,-4.6728617E-1,9.345405E-2,-4.5596617E-1,1.9962296E-2,1.3249014E-1,-2.2726228E-2,-8.7162755E-2,-7.685701E-4,9.9373326E-2,1.7174298E-2,-6.934472E-2,-1.8370666E-2,1.0932596E-1,-4.9886152E-2,3.75359E-2],"categories":[0,1,2,3,6,12,13,0,2,3,4,5,6,7,8,9,10,11,12,1,2,3,6,7,8,9,13,14,16,17,18,19,22,0,1,2,3,4,5,7,9,10,11,12],"categories_nodes":[0,1,2,10],"categories_segments":[0,7,19,33],"categories_sizes":[7,12,14,11],"default_left":[1,1,1,0,0,0,0,0,0,0,1,0,0,0,0,0,0,0,0,0,0,0,0,0,0],"id":15,"left_children":[1,3,5,-1,7,9,11,13,15,17,19,21,23,-1,-1,-1,-1,-1,-1,-1,-1,-1,-1,-1,-1],"loss_changes":[1.0989784E1,6.567495E0,5.3715186E0,0E0,5.054836E0,4.120306E0,2.959278E0,4.770914E0,3.3621073E-1,5.122808E0,2.8358994E0,3.6246462E0,2.3244715E0,0E0,0E0,0E0,0E0,0E0,0E0,0E0,0E0,0E0,0E0,0E0,0E0],"parents":[2147483647,0,0,1,1,2,2,4,4,5,5,6,6,7,7,8,8,9,9,10,10,11,11,12,12],"right_children":[2,4,6,-1,8,10,12,14,16,18,20,22,24,-1,-1,-1,-1,-1,-1,-1,-1,-1,-1,-1,-1],"split_conditions":[1E-45,1E-45,1E-45,1.8505496E-1,5.64E2,1.32E2,2E0,1.8E1,2.1E1,5.54E2,1E-45,2.2E1,1.8E1,1.9962296E-2,1.3249014E-1,-2.2726228E-2,-8.7162755E-2,-7.685701E-4,9.9373326E-2,1.7174298E-2,-6.934472E-2,-1.8370666E-2,1.0932596E-1,-4.9886152E-2,3.75359E-2],"split_indices":[0,10,1,0,8,7,3,3,6,8,10,6,3,0,0,0,0,0,0,0,0,0,0,0,0],"split_type":[1,1,1,0,0,0,0,0,0,0,1,0,0,0,0,0,0,0,0,0,0,0,0,0,0],"sum_hessian":[3.4034705E2,1.2736834E2,2.1297871E2,1.4583322E0,1.2591001E2,1.4268993E2,7.028879E1,1.20634605E2,5.2754054E0,1.2489157E2,1.7798363E1,1.135555E1,5.893324E1,1.1769611E2,2.9384892E0,2.1600478E0,3.1153576E0,1.20557884E2,4.333684E0,4.715396E0,1.3082968E1,9.529963E0,1.8255872E0,5.642186E1,2.511379E0],"tree_param":{"num_deleted":"0","num_feature":"13","num_nodes":"25","size_leaf_vector":"1"}},{"base_weights":[-3.2331557E-3,3.1527174E-1,-8.6441435E-2,-1.4745247E-1,4.268648E-1,8.392676E-1,-1.0240544E-1,2.3800406E-1,-5.1136965E-1,-1.18156135E-1,5.236678E-1,1.4487767E0,-5.6566E-2,3.423843E-2,-2.3119333E-1,6.4620204E-2,-3.6655184E-2,-8.066037E-2,1.9753743E-2,2.4618642E-2,-8.285139E-2,1.8648826E-1,4.5623265E-2,3.7122067E-2,1.7641193E-1,1.1889388E-2,-4.8287667E-2,1.6091114E-2,-3.183521E-2],"categories":[0,1,2,3,5,6,7,10,12,13,14,6,0,1,4,5,8,10,12,0,1,2,3,4,5,6,7,9,10,11,12,13,14,0,1,2,4,6,7,8,9,10,11,13],"categories_nodes":[0,5,6,10,13],"categories_segments":[0,11,12,19,33],"categories_sizes":[11,1,7,14,11],"default_left":[1,0,0,0,0,1,1,0,0,0,1,0,0,1,0,0,0,0,0,0,0,0,0,0,0,0,0,0,0],"id":16,"left_children":[1,3,5,7,9,11,13,15,17,19,21,23,-1,25,27,-1,-1,-1,-1,-1,-1,-1,-1,-1,-1,-1,-1,-1,-1],"loss_changes":[9.032143E0,3.708228E0,4.078726E0,2.150102E0,3.076272E0,4.8348837E0,4.697707E0,2.138216E0,1.782515E0,2.645411E0,3.5539713E0,5.517955E-1,0E0,5.7560134E0,4.744187E0,0E0,0E0,0E0,0E0,0E0,0E0,0E0,0E0,0E0,0E0,0E0,0E0,0E0,0E0],"parents":[2147483647,0,0,1,1,2,2,3,3,4,4,5,5,6,6,7,7,8,8,9,9,10,10,11,11,13,13,14,14],"right_children":[2,4,6,8,10,12,14,16,18,20,22,24,-1,26,28,-1,-1,-1,-1,-1,-1,-1,-1,-1,-1,-1,-1,-1,-1],"split_conditions":[1E-45,3E0,2E0,2E0,2.9E1,1E-45,1E-45,1.08E2,5.632709E0,9E0,1E-45,1.01E2,-5.6566E-2,1E-45,1E1,6.4620204E-2,-3.6655184E-2,-8.066037E-2,1.9753743E-2,2.4618642E-2,-8.285139E-2,1.8648826E-1,4.5623265E-2,3.7122067E-2,1.7641193E-1,1.1889388E-2,-4.8287667E-2,1.6091114E-2,-3.183521E-2],"split_indices":[0,3,11,3,8,10,10,8,12,7,0,8,0,0,7,0,0,0,0,0,0,0,0,0,0,0,0,0,0],"split_type":[1,0,0,0,0,1,1,0,0,0,1,0,0,1,0,0,0,0,0,0,0,0,0,0,0,0,0,0,0],"sum_hessian":[3.387784E2,6.9594696E1,2.6918372E2,1.3460202E1,5.613449E1,3.68912E0,2.654946E2,6.704681E0,6.7555213E0,8.4332075E0,4.7701283E1,2.5511336E0,1.1379863E0,1.2917459E2,1.3632E2,3.961188E0,2.743493E0,4.6719923E0,2.0835288E0,6.006108E0,2.4271E0,1.0075594E0,4.6693726E1,1.0704613E0,1.4806725E0,1.11664406E2,1.751018E1,2.463726E1,1.1168274E2],"tree_param":{"num_deleted":"0","num_feature":"13","num_nodes":"29","size_leaf_vector":"1"}},{"base_weights":[-2.618416E-3,1.9158675E-1,-1.2300647E-1,1.6775118E-1,1.6084217E-1,-2.0129634E-2,-3.3562177E-1,2.0035258E-1,-6.6796196E-1,-4.448319E-1,4.6767883E-2,9.9868454E-2,-4.2365047E-1,5.608746E-3,4.598556E-2,-2.2121757E-2,-8.538036E-2,1.8284827E-1,-6.794769E-2,3.4859154E-2,-1.3381371E-2,-2.1821426E-2,9.550028E-2,-4.6664633E-2,3.5005234E-2],"categories":[0,1,2,3,6,12,13,0,2,3,4,5,6,7,8,9,10,11,12,1,2,3,6,7,8,9,13,14,16,17,18,19,22],"categories_nodes":[0,1,2],"categories_segments":[0,7,19],"categories_sizes":[7,12,14],"default_left":[1,1,1,0,0,0,0,0,0,0,0,0,0,0,0,0,0,0,0,0,0,0,0,0,0],"id":17,"left_children":[1,3,5,-1,7,9,11,13,15,17,19,21,23,-1,-1,-1,-1,-1,-1,-1,-1,-1,-1,-1,-1],"loss_changes":[7.9347196E0,5.663601E0,4.575543E0,0E0,4.3369036E0,4.062206E0,2.658668E0,4.5895166E0,3.151672E-1,1.1618551E1,6.7938404E0,3.5499923E0,2.058302E0,0E0,0E0,0E0,0E0,0E0,0E0,0E0,0E0,0E0,0E0,0E0,0E0],"parents":[2147483647,0,0,1,1,2,2,4,4,5,5,6,6,7,7,8,8,9,9,10,10,11,11,12,12],"right_children":[2,4,6,-1,8,10,12,14,16,18,20,22,24,-1,-1,-1,-1,-1,-1,-1,-1,-1,-1,-1,-1],"split_conditions":[1E-45,1E-45,1E-45,1.6775118E-1,5.64E2,1.0241872E0,2E0,8E0,2.1E1,1E0,4.204028E0,1.4785045E1,1.8E1,5.608746E-3,4.598556E-2,-2.2121757E-2,-8.538036E-2,1.8284827E-1,-6.794769E-2,3.4859154E-2,-1.3381371E-2,-2.1821426E-2,9.550028E-2,-4.6664633E-2,3.5005234E-2],"split_indices":[0,10,1,0,8,12,3,6,6,3,12,12,3,0,0,0,0,0,0,0,0,0,0,0,0],"split_type":[1,1,1,0,0,0,0,0,0,0,0,0,0,0,0,0,0,0,0,0,0,0,0,0,0],"sum_hessian":[3.3737292E2,1.2887903E2,2.0849388E2,1.526744E0,1.2735229E2,1.4124515E2,6.724873E1,1.2228121E2,5.071079E0,1.8452032E1,1.2279312E2,1.1285127E1,5.5963604E1,7.937212E1,4.290909E1,2.1332698E0,2.937809E0,1.0908624E0,1.736117E1,4.5617596E1,7.717552E1,8.768386E0,2.516741E0,5.3393322E1,2.5702825E0],"tree_param":{"num_deleted":"0","num_feature":"13","num_nodes":"25","size_leaf_vector":"1"}},{"base_weights":[-2.002199E-3,2.4801882E-1,-7.896377E-2,-9.296465E-2,3.8247502E-1,-2.8996574E-2,-4.4224274E-1,2.3149946E-1,-7.27631E-1,1.1149199E0,2.8644395E-1,2.6951786E-2,-4.0439522E-1,-5.164505E-1,7.419155E-2,-2.910989E-2,6.026072E-2,-1.9644564E-2,-7.841143E-2,1.5695421E-1,-4.2893406E-2,6.263566E-3,5.473953E-2,-8.569351E-3,1.9794619E-2,3.749708E-2,-5.642866E-2,3.923564E-2,-6.401812E-2],"categories":[0,1,2,3,5,6,7,12,13,14,3,5,1,2,3,6,13,17,6,0,1,3,4,5,6,7,8,9,10,11,12,13,14,15,16,17,18,19,20,21],"categories_nodes":[0,3,5,9,13],"categories_segments":[0,10,12,18,19],"categories_sizes":[10,2,6,1,21],"default_left":[1,0,0,1,0,1,0,0,0,1,0,0,0,1,0,0,0,0,0,0,0,0,0,0,0,0,0,0,0],"id":18,"left_children":[1,3,5,7,9,11,13,15,17,19,21,23,25,27,-1,-1,-1,-1,-1,-1,-1,-1,-1,-1,-1,-1,-1,-1,-1],"loss_changes":[6.506423E0,3.6844888E0,4.6800175E0,4.9691014E0,3.7093067E0,4.806713E0,3.1239157E0,3.314291E0,8.9821815E-2,5.0903206E0,3.001679E0,3.862767E0,3.9100819E0,3.6178455E0,0E0,0E0,0E0,0E0,0E0,0E0,0E0,0E0,0E0,0E0,0E0,0E0,0E0,0E0,0E0],"parents":[2147483647,0,0,1,1,2,2,3,3,4,4,5,5,6,6,7,7,8,8,9,9,10,10,11,11,12,12,13,13],"right_children":[2,4,6,8,10,12,14,16,18,20,22,24,26,28,-1,-1,-1,-1,-1,-1,-1,-1,-1,-1,-1,-1,-1,-1,-1],"split_conditions":[1E-45,2E0,1.32E2,1E-45,1E1,1E-45,1.6E1,5E0,1.2E1,1E-45,1.3E1,8E0,2E0,1E-45,7.419155E-2,-2.910989E-2,6.026072E-2,-1.9644564E-2,-7.841143E-2,1.5695421E-1,-4.2893406E-2,6.263566E-3,5.473953E-2,-8.569351E-3,1.9794619E-2,3.749708E-2,-5.642866E-2,3.923564E-2,-6.401812E-2],"split_indices":[0,6,7,10,7,1,3,3,8,10,6,6,3,1,0,0,0,0,0,0,0,0,0,0,0,0,0,0,0],"split_type":[1,0,0,1,0,1,0,0,0,1,0,0,0,1,0,0,0,0,0,0,0,0,0,0,0,0,0,0,0],"sum_hessian":[3.3611853E2,7.858876E1,2.575298E2,2.2312477E1,5.627628E1,2.273401E2,3.0189674E1,1.5184738E1,7.127739E0,5.293313E0,5.0982967E1,1.986605E2,2.8679598E1,2.8939959E1,1.2497164E0,6.3949237E0,8.789815E0,1.1154716E0,6.0122676E0,4.0763125E0,1.2170005E0,2.8112202E1,2.2870764E1,1.2006477E2,7.859573E1,4.6531873E0,2.4026411E1,3.2077618E0,2.5732197E1],"tree_param":{"num_deleted":"0","num_feature":"13","num_nodes":"29","size_leaf_vector":"1"}},{"base_weights":[-1.8287583E-3,1.5464133E-1,-1.08838715E-1,2.2329144E-1,-5.861151E-1,-3.896701E-2,-4.2406338E-1,1.2969501E0,1.8710083E-1,3.4016356E-2,-7.04964E-1,-2.1683332E-1,1.06637426E-1,-1.9191717E-1,-7.122962E-1,2.7638042E-2,1.6376528E-1,2.2320293E-2,-6.2265027E-2,5.920961E-3,-9.442652E-2,5.334396E-2,-3.1960104E-2,5.031221E-2,-6.2217168E-3,-3.1938776E-2,7.7752136E-2,-8.703192E-2,-4.8178285E-3],"categories":[0,1,2,6,12,13,5,6,13,15,16,1,3,9,13,14,18,19,22,0,2,3,5,6,7,8,9,10,11,12],"categories_nodes":[0,1,2,3],"categories_segments":[0,6,11,19],"categories_sizes":[6,5,8,11],"default_left":[1,1,1,1,0,0,0,0,0,0,0,0,0,0,0,0,0,0,0,0,0,0,0,0,0,0,0,0,0],"id":19,"left_children":[1,3,5,7,9,11,13,15,17,-1,19,21,23,25,27,-1,-1,-1,-1,-1,-1,-1,-1,-1,-1,-1,-1,-1,-1],"loss_changes":[5.6426578E0,7.0913143E0,4.3911705E0,4.652807E0,1.5481739E0,4.294017E0,2.2860832E0,9.1727304E-1,3.7361588E0,0E0,2.0416374E0,5.919462E0,6.1470156E0,2.8958373E0,1.6145535E0,0E0,0E0,0E0,0E0,0E0,0E0,0E0,0E0,0E0,0E0,0E0,0E0,0E0,0E0],"parents":[2147483647,0,0,1,1,2,2,3,3,4,4,5,5,6,6,7,7,8,8,10,10,11,11,12,12,13,13,14,14],"right_children":[2,4,6,8,10,12,14,16,18,-1,20,22,24,26,28,-1,-1,-1,-1,-1,-1,-1,-1,-1,-1,-1,-1,-1,-1],"split_conditions":[1E-45,1E-45,1E-45,1E-45,3.6763778E-1,6E0,1.2E1,4.1160874E0,5.64E2,3.4016356E-2,2E0,1.2E1,4E0,9E0,1.2E1,2.7638042E-2,1.6376528E-1,2.2320293E-2,-6.2265027E-2,5.920961E-3,-9.442652E-2,5.334396E-2,-3.1960104E-2,5.031221E-2,-6.2217168E-3,-3.1938776E-2,7.7752136E-2,-8.703192E-2,-4.8178285E-3],"split_indices":[0,1,1,10,12,6,6,12,8,0,4,8,3,6,3,0,0,0,0,0,0,0,0,0,0,0,0,0,0],"split_type":[1,1,1,1,0,0,0,0,0,0,0,0,0,0,0,0,0,0,0,0,0,0,0,0,0,0,0,0,0],"sum_hessian":[3.3499347E2,1.3587369E2,1.9911978E2,1.2498883E2,1.0884863E1,1.6391133E2,3.5208454E1,2.939735E0,1.22049095E2,1.0260365E0,9.858827E0,7.3561485E1,9.0349846E1,2.0424305E1,1.4784147E1,1.1890779E0,1.7506572E0,1.17533325E2,4.5157714E0,2.5305274E0,7.3282995E0,8.357249E0,6.520423E1,2.6394274E1,6.3955574E1,1.864344E1,1.7808658E0,1.1691687E1,3.09246E0],"tree_param":{"num_deleted":"0","num_feature":"13","num_nodes":"29","size_leaf_vector":"1"}},{"base_weights":[-1.8571672E-3,1.3863577E-1,-9.9453226E-2,1.9977738E-1,-5.6017005E-1,-3.5227973E-2,-3.9933E-1,1.1723521E0,1.6626094E-1,3.4833644E-2,-6.82273E-1,-1.8818378E-1,1.0951771E-1,-1.7461792E-1,-6.9039404E-1,2.6055295E-2,1.4602934E-1,1.9770557E-2,-6.324418E-2,5.476437E-3,-9.2985906E-2,4.3005407E-2,-2.7207246E-2,5.8184285E-3,1.348252E-1,5.0628822E-2,-3.424903E-2,-8.554879E-2,-4.469775E-3],"categories":[0,1,2,6,12,13,5,6,13,15,16,1,3,9,13,14,18,19,22,0,2,3,5,6,7,8,9,10,11,12],"categories_nodes":[0,1,2,3],"categories_segments":[0,6,11,19],"categories_sizes":[6,5,8,11],"default_left":[1,1,1,1,0,0,0,0,0,0,0,0,0,0,0,0,0,0,0,0,0,0,0,0,0,0,0,0,0],"id":20,"left_children":[1,3,5,7,9,11,13,15,17,-1,19,21,23,25,27,-1,-1,-1,-1,-1,-1,-1,-1,-1,-1,-1,-1,-1,-1],"loss_changes":[4.604905E0,5.994082E0,3.8025043E0,3.9557672E0,1.4955394E0,3.6582925E0,2.15936E0,6.8981457E-1,3.2457073E0,0E0,1.9366388E0,4.2792945E0,5.3297997E0,2.574927E0,1.5446019E0,0E0,0E0,0E0,0E0,0E0,0E0,0E0,0E0,0E0,0E0,0E0,0E0,0E0,0E0],"parents":[2147483647,0,0,1,1,2,2,3,3,4,4,5,5,6,6,7,7,8,8,10,10,11,11,12,12,13,13,14,14],"right_children":[2,4,6,8,10,12,14,16,18,-1,20,22,24,26,28,-1,-1,-1,-1,-1,-1,-1,-1,-1,-1,-1,-1,-1,-1],"split_conditions":[1E-45,1E-45,1E-45,1E-45,3.383627E-1,3.8E1,1.2E1,4.1160874E0,1E-1,3.4833644E-2,2E0,1.2E1,1E-1,2E0,1.2E1,2.6055295E-2,1.4602934E-1,1.9770557E-2,-6.324418E-2,5.476437E-3,-9.2985906E-2,4.3005407E-2,-2.7207246E-2,5.8184285E-3,1.348252E-1,5.0628822E-2,-3.424903E-2,-8.554879E-2,-4.469775E-3],"split_indices":[0,1,1,10,12,7,6,12,9,0,4,8,9,3,3,0,0,0,0,0,0,0,0,0,0,0,0,0,0],"split_type":[1,1,1,1,0,0,0,0,0,0,0,0,0,0,0,0,0,0,0,0,0,0,0,0,0,0,0,0,0],"sum_hessian":[3.3383566E2,1.366716E2,1.9716405E2,1.26332344E2,1.033926E1,1.6330594E2,3.385811E1,3.0766346E0,1.2325571E2,1.0054443E0,9.333816E0,7.92552E1,8.4050735E1,2.0009768E1,1.3848342E1,1.1955789E0,1.8810556E0,1.1931094E2,3.9447598E0,2.5428443E0,6.7909713E0,8.976229E0,7.027897E1,8.171156E1,2.3391747E0,3.5588453E0,1.6450922E1,1.0769779E1,3.078562E0],"tree_param":{"num_deleted":"0","num_feature":"13","num_nodes":"29","size_leaf_vector":"1"}},{"base_weights":[-1.6538991E-3,2.169234E-1,-5.6634896E-2,3.04872E-1,-3.4784076E-1,7.703192E-1,-7.156394E-2,4.0254942E-1,-2.9029152E-1,5.809885E-2,-5.362078E-1,1.2653887E0,-5.3712185E-2,4.0599532E-2,-1.7691244E-1,1.6296087E-1,3.419179E-2,-7.754306E-2,1.12412654E-1,-8.984684E-2,2.4064327E-2,4.568165E-2,1.6225266E-1,1.2894538E-2,-4.2684864E-2,-1.0612256E-2,-6.4658545E-2],"categories":[0,1,2,3,5,6,7,9,10,12,13,14,0,13,14,3,8,10,6,0,1,4,5,8,10,11,12,0,1,2,3,4,5,6,7,9,10,11,12,13,14,0,1,2,4,6,7,8,9,10,11,13],"categories_nodes":[0,1,4,5,6,7,13],"categories_segments":[0,12,15,18,19,27,41],"categories_sizes":[12,3,3,1,8,14,11],"default_left":[1,1,0,0,1,1,1,1,0,0,0,0,0,1,0,0,0,0,0,0,0,0,0,0,0,0,0],"id":21,"left_children":[1,3,5,7,9,11,13,15,17,-1,19,21,-1,23,25,-1,-1,-1,-1,-1,-1,-1,-1,-1,-1,-1,-1],"loss_changes":[4.022713E0,3.4477684E0,3.3567781E0,3.5319877E0,1.9793205E0,3.8043208E0,3.1220336E0,3.228407E0,6.953417E0,0E0,2.5928748E0,3.5599613E-1,0E0,5.361198E0,4.457111E0,0E0,0E0,0E0,0E0,0E0,0E0,0E0,0E0,0E0,0E0,0E0,0E0],"parents":[2147483647,0,0,1,1,2,2,3,3,4,4,5,5,6,6,7,7,8,8,10,10,11,11,13,13,14,14],"right_children":[2,4,6,8,10,12,14,16,18,-1,20,22,-1,24,26,-1,-1,-1,-1,-1,-1,-1,-1,-1,-1,-1,-1],"split_conditions":[1E-45,1E-45,2E0,1.2709804E1,1E-45,1E-45,1E-45,1E-45,1.5E1,5.809885E-2,5.632709E0,4E0,-5.3712185E-2,1E-45,1.3E2,1.6296087E-1,3.419179E-2,-7.754306E-2,1.12412654E-1,-8.984684E-2,2.4064327E-2,4.568165E-2,1.6225266E-1,1.2894538E-2,-4.2684864E-2,-1.0612256E-2,-6.4658545E-2],"split_indices":[0,1,11,12,10,10,10,0,3,0,12,4,0,0,7,0,0,0,0,0,0,0,0,0,0,0,0],"split_type":[1,1,0,0,1,1,1,1,0,0,0,0,0,1,0,0,0,0,0,0,0,0,0,0,0,0,0],"sum_hessian":[3.3271292E2,6.6278175E1,2.6643475E2,5.7745815E1,8.532362E0,3.827402E0,2.6260733E2,4.988276E1,7.8630557E0,1.0871809E0,7.4451814E0,2.7995148E0,1.0278873E0,1.2748741E2,1.3511992E2,1.1303105E0,4.875245E1,6.1912513E0,1.6718044E0,4.9706974E0,2.4744837E0,1.5559334E0,1.2435813E0,1.0783179E2,1.9655626E1,1.1848728E2,1.6632647E1],"tree_param":{"num_deleted":"0","num_feature":"13","num_nodes":"27","size_leaf_vector":"1"}},{"base_weights":[-1.018336E-3,-2.2579798E-2,5.2244496E-1,7.5975256E-3,-4.8586825E-1,1.2476279E0,-1.7689155E-1,9.2167385E-2,-2.1479619E-1,4.1670796E-1,-7.4734366E-1,1.603649E0,2.7479038E-2,6.0248047E-2,-5.4384947E-1,1.3924253E-2,-5.5118557E-2,6.590675E-2,-2.7222468E-2,-6.7724637E-3,9.588935E-2,6.1273035E-2,-9.2706524E-2,4.114182E-2,1.8271734E-1,2.103796E-3,-8.079881E-2],"categories":[0,2,3,4,5,7,9,10,11,12,0,1,2,3,4,6,9,13,14,15,16,17,18,19,20,0,1,2,3,5,11,12,0,1,2,3,4,5,6,7,8,9,10,12,13,14,15,16,17,18,19,2,10,0,1,2,3,4,5,6,8,9,11,12,14,0,1,2,3,5,6,7,8,9,10,0,1,3,4,5,6,7,8,9,10,11,12,13,14,15,16,17,18,19,20,21,22],"categories_nodes":[2,3,4,5,7,8,9,10],"categories_segments":[0,10,25,32,51,53,65,75],"categories_sizes":[10,15,7,19,2,12,10,22],"default_left":[0,0,1,1,1,1,0,1,1,1,1,0,0,0,0,0,0,0,0,0,0,0,0,0,0,0,0],"id":22,"left_children":[1,3,5,7,9,11,13,15,17,19,21,23,-1,-1,25,-1,-1,-1,-1,-1,-1,-1,-1,-1,-1,-1,-1],"loss_changes":[3.764075E0,4.481182E0,6.9117146E0,5.6933465E0,4.937173E0,1.8456659E0,2.4990146E0,6.716954E0,4.3652534E0,1.3899666E0,4.3703995E0,4.810257E-1,0E0,0E0,8.656107E-1,0E0,0E0,0E0,0E0,0E0,0E0,0E0,0E0,0E0,0E0,0E0,0E0],"parents":[2147483647,0,0,1,1,2,2,3,3,4,4,5,5,6,6,7,7,8,8,9,9,10,10,11,11,14,14],"right_children":[2,4,6,8,10,12,14,16,18,20,22,24,-1,-1,26,-1,-1,-1,-1,-1,-1,-1,-1,-1,-1,-1,-1],"split_conditions":[1.8E1,1.55E2,1E-45,1E-45,1E-45,1E-45,1.9E1,1E-45,1E-45,1E-45,1E-45,2.5969977E0,2.7479038E-2,6.0248047E-2,2.8634925E0,1.3924253E-2,-5.5118557E-2,6.590675E-2,-2.7222468E-2,-6.7724637E-3,9.588935E-2,6.1273035E-2,-9.2706524E-2,4.114182E-2,1.8271734E-1,2.103796E-3,-8.079881E-2],"split_indices":[3,7,10,1,0,1,3,0,0,0,1,12,0,0,12,0,0,0,0,0,0,0,0,0,0,0,0],"split_type":[0,0,1,1,1,1,0,1,1,1,1,0,0,0,0,0,0,0,0,0,0,0,0,0,0,0,0],"sum_hessian":[3.3145328E2,3.1925983E2,1.2193454E1,3.006593E2,1.8600512E1,5.601212E0,6.5922413E0,2.1825055E2,8.240877E1,4.04479E0,1.4555723E1,3.6258621E0,1.9753503E0,1.9048202E0,4.6874213E0,2.0409981E2,1.4150734E1,4.4357405E0,7.797303E1,2.5983248E0,1.446465E0,1.4177005E0,1.3138022E1,1.020947E0,2.604915E0,1.7867107E0,2.9007103E0],"tree_param":{"num_deleted":"0","num_feature":"13","num_nodes":"27","size_leaf_vector":"1"}},{"base_weights":[-4.7527783E-4,1.7053115E-1,-5.9794504E-2,2.3206249E-1,-4.8762548E-1,-7.830403E-2,5.628924E-1,3.0890808E-1,-3.626189E-1,-9.165233E-2,2.0627588E-1,-1.4779978E-2,-4.5654494E-1,-7.059096E-2,1.1034869E0,1.4674722E-1,2.672266E-2,-7.6015376E-2,7.001745E-2,1.2292198E-1,-6.750717E-2,3.4046777E-2,-7.3802434E-3,6.930569E-2,-5.810768E-2,1.6737512E-1,-5.84958E-2],"categories":[0,1,2,5,6,7,12,13,14,13,15,16,22,0,1,2,3,4,5,6,7,9,10,11,12,13,14,0,2,5,12],"categories_nodes":[0,1,7,12],"categories_segments":[0,9,13,27],"categories_sizes":[9,4,14,4],"default_left":[1,1,0,0,0,0,0,1,0,0,0,0,1,0,0,0,0,0,0,0,0,0,0,0,0,0,0],"id":23,"left_children":[1,3,5,7,9,11,13,15,17,-1,19,21,23,-1,25,-1,-1,-1,-1,-1,-1,-1,-1,-1,-1,-1,-1],"loss_changes":[3.3730042E0,3.5812588E0,2.8894136E0,3.7219167E0,2.4640832E0,5.7747636E0,5.7508063E0,3.0120559E0,4.5457854E0,0E0,4.198354E0,4.366565E0,5.3514013E0,0E0,6.2488465E0,0E0,0E0,0E0,0E0,0E0,0E0,0E0,0E0,0E0,0E0,0E0,0E0],"parents":[2147483647,0,0,1,1,2,2,3,3,4,4,5,5,6,6,7,7,8,8,10,10,11,11,12,12,14,14],"right_children":[2,4,6,8,10,12,14,16,18,-1,20,22,24,-1,26,-1,-1,-1,-1,-1,-1,-1,-1,-1,-1,-1,-1],"split_conditions":[1E-45,1E-45,4E0,1.4410132E1,1.04E2,3E0,2E0,1E-45,1.5E1,-9.165233E-2,4.36E2,2E0,1E-45,-7.059096E-2,1.15E2,1.4674722E-1,2.672266E-2,-7.6015376E-2,7.001745E-2,1.2292198E-1,-6.750717E-2,3.4046777E-2,-7.3802434E-3,6.930569E-2,-5.810768E-2,1.6737512E-1,-5.84958E-2],"split_indices":[0,1,11,12,7,11,4,0,3,0,8,3,0,0,7,0,0,0,0,0,0,0,0,0,0,0,0],"split_type":[1,1,0,0,0,0,0,1,0,0,0,0,1,0,0,0,0,0,0,0,0,0,0,0,0,0,0],"sum_hessian":[3.3050806E2,8.463786E1,2.4587021E2,7.7993614E1,6.6442513E0,2.3962164E2,6.248565E0,6.949404E1,8.499573E0,3.907941E0,2.73631E0,2.0605466E2,3.3566982E1,1.7755228E0,4.4730425E0,1.2254354E0,6.826861E1,6.3930345E0,2.106538E0,1.0837458E0,1.6525642E0,2.8677917E1,1.7737674E2,2.8345807E0,3.07324E1,3.350223E0,1.1228195E0],"tree_param":{"num_deleted":"0","num_feature":"13","num_nodes":"27","size_leaf_vector":"1"}},{"base_weights":[-2.899144E-4,7.8799516E-1,-1.2915369E-2,2.1385425E-1,1.4265606E-1,2.9828155E-2,-2.2546718E-1,-5.8935463E-2,7.6864436E-2,7.514541E-3,6.3780695E-1,-9.0644605E-2,-7.861474E-1,6.4379945E-3,-2.8421113E-2,1.1755269E-1,-7.672516E-2,2.9945279E-2,-2.9060904E-2,-9.434478E-2,-3.1613495E-2],"categories":[0,1,2,3,4,5,6,7,8,9,10,0,1,3,6,13,14,16,17,18,19,0,2,3,4,5,7,9,11,12,0,2,5,11,12,14],"categories_nodes":[1,2,10,11],"categories_segments":[0,11,21,30],"categories_sizes":[11,10,9,6],"default_left":[0,1,1,0,0,0,0,0,0,0,1,1,0,0,0,0,0,0,0,0,0],"id":24,"left_children":[1,3,5,7,-1,9,11,-1,-1,13,15,17,19,-1,-1,-1,-1,-1,-1,-1,-1],"loss_changes":[3.2973661E0,1.6097276E0,2.9691079E0,2.202681E0,0E0,3.6900578E0,4.064353E0,0E0,0E0,4.3932896E0,8.177706E0,3.6155574E0,4.7619534E-1,0E0,0E0,0E0,0E0,0E0,0E0,0E0,0E0],"parents":[2147483647,0,0,1,1,2,2,3,3,5,5,6,6,9,9,10,10,11,11,12,12],"right_children":[2,4,6,8,-1,10,12,-1,-1,14,16,18,20,-1,-1,-1,-1,-1,-1,-1,-1],"split_conditions":[2E0,1E-45,1E-45,1.01E2,1.4265606E-1,1.8E1,1.18E2,-5.8935463E-2,7.6864436E-2,1.378245E1,1E-45,1E-45,1.56E2,6.4379945E-3,-2.8421113E-2,1.1755269E-1,-7.672516E-2,2.9945279E-2,-2.9060904E-2,-9.434478E-2,-3.1613495E-2],"split_indices":[11,0,1,8,0,3,7,0,0,12,10,0,7,0,0,0,0,0,0,0,0],"split_type":[0,1,1,0,0,0,0,0,0,0,1,1,0,0,0,0,0,0,0,0,0],"sum_hessian":[3.2928915E2,4.2227635E0,3.2506638E2,2.9264548E0,1.2963085E0,2.71357E2,5.3709404E1,1.1701066E0,1.7563483E0,2.6272693E2,8.630061E0,4.4234367E1,9.475037E0,2.2052066E2,4.2206264E1,6.359589E0,2.270472E0,1.48218565E1,2.941251E1,6.3444424E0,3.130594E0],"tree_param":{"num_deleted":"0","num_feature":"13","num_nodes":"21","size_leaf_vector":"1"}},{"base_weights":[-3.853569E-4,1.5695585E-2,-5.4744905E-1,7.9249626E-1,2.9967576E-3,2.8195484E-2,-6.9262266E-1,4.6029105E-3,1.118687E-1,2.3995634E-2,-4.9770477E-1,-8.8715404E-2,-1.3242884E-1,8.423002E-3,-1.3734176E-2,5.895346E-2,-9.38051E-2,3.3253845E-2,-5.555169E-2],"categories":[0,1,2,3,4,5,6,7,12,2,0,1,2,3,6,9,13,14,15,16,17,18,19,1,3,5,6],"categories_nodes":[2,4,9,10],"categories_segments":[0,9,10,23],"categories_sizes":[9,1,13,4],"default_left":[0,0,1,0,1,0,0,0,0,1,1,0,0,0,0,0,0,0,0],"id":25,"left_children":[1,3,5,7,9,-1,11,-1,-1,13,15,-1,17,-1,-1,-1,-1,-1,-1],"loss_changes":[2.9077935E0,3.165273E0,1.3317606E0,1.2052279E0,3.344472E0,0E0,7.893939E-1,0E0,0E0,2.9770558E0,6.682954E0,0E0,8.379348E-1,0E0,0E0,0E0,0E0,0E0,0E0],"parents":[2147483647,0,0,1,1,2,2,3,3,4,4,6,6,9,9,10,10,12,12],"right_children":[2,4,6,8,10,-1,12,-1,-1,14,16,-1,18,-1,-1,-1,-1,-1,-1],"split_conditions":[1.66E2,2E0,1E-45,1.01E2,1E-45,2.8195484E-2,5.9145474E0,4.6029105E-3,1.118687E-1,1E-45,1E-45,-8.8715404E-2,2.3E1,8.423002E-3,-1.3734176E-2,5.895346E-2,-9.38051E-2,3.3253845E-2,-5.555169E-2],"split_indices":[7,11,0,8,0,0,12,0,0,1,10,0,6,0,0,0,0,0,0],"split_type":[0,0,1,0,1,0,0,0,0,1,1,0,0,0,0,0,0,0,0],"sum_hessian":[3.2855582E2,3.2011725E2,8.43854E0,4.1612644E0,3.15956E2,1.1166608E0,7.3218794E0,1.61243E0,2.5488346E0,3.0415225E2,1.1803738E1,5.0014386E0,2.320441E0,2.2181633E2,8.233593E1,3.3049164E0,8.498821E0,1.2074703E0,1.1129707E0],"tree_param":{"num_deleted":"0","num_feature":"13","num_nodes":"19","size_leaf_vector":"1"}},{"base_weights":[-6.13998E-4,-1.9072674E-2,4.4055462E-1,6.372701E-3,-4.3795985E-1,1.0388042E0,-1.6426569E-1,-8.6703666E-2,1.4027415E-1,4.068925E-1,-7.107379E-1,1.2392855E0,9.676773E-3,5.636235E-2,-5.237353E-1,3.932091E-3,-5.4050695E-2,8.337214E-2,5.4461714E-3,-2.565903E-2,7.182268E-2,6.061743E-2,-9.069492E-2,4.458754E-2,1.6561E-1,1.1019792E-3,-7.879966E-2],"categories":[0,2,3,4,5,7,9,10,11,12,0,1,2,3,5,11,12,0,1,2,3,4,5,6,7,8,9,10,12,13,14,15,1,2,5,6,7,8,13,15,16,17,19,22,0,1,3,4,5,6,7,8,9,10,11,12,13,14,15,16,17,18,19,20,21,22],"categories_nodes":[2,4,5,7,10],"categories_segments":[0,10,17,32,44],"categories_sizes":[10,7,15,12,22],"default_left":[0,0,1,0,1,1,0,1,0,0,1,0,0,0,0,0,0,0,0,0,0,0,0,0,0,0,0],"id":26,"left_children":[1,3,5,7,9,11,13,15,17,19,21,23,-1,-1,25,-1,-1,-1,-1,-1,-1,-1,-1,-1,-1,-1,-1],"loss_changes":[2.6900575E0,3.3820188E0,4.970868E0,3.7494378E0,4.476605E0,1.1654563E0,2.247242E0,1.01736765E1,7.294612E0,1.23171E0,4.192944E0,1.0893936E0,0E0,0E0,7.8767335E-1,0E0,0E0,0E0,0E0,0E0,0E0,0E0,0E0,0E0,0E0,0E0,0E0],"parents":[2147483647,0,0,1,1,2,2,3,3,4,4,5,5,6,6,7,7,8,8,9,9,10,10,11,11,14,14],"right_children":[2,4,6,8,10,12,14,16,18,20,22,24,-1,-1,26,-1,-1,-1,-1,-1,-1,-1,-1,-1,-1,-1,-1],"split_conditions":[1.8E1,1.55E2,1E-45,8E0,1E-45,1E-45,1.9E1,1E-45,1E1,1.6E2,1E-45,7E0,9.676773E-3,5.636235E-2,2.8634925E0,3.932091E-3,-5.4050695E-2,8.337214E-2,5.4461714E-3,-2.565903E-2,7.182268E-2,6.061743E-2,-9.069492E-2,4.458754E-2,1.6561E-1,1.1019792E-3,-7.879966E-2],"split_indices":[3,7,10,6,0,1,3,1,6,7,1,6,0,0,12,0,0,0,0,0,0,0,0,0,0,0,0],"split_type":[0,0,1,0,1,1,0,1,0,0,1,0,0,0,0,0,0,0,0,0,0,0,0,0,0,0,0],"sum_hessian":[3.283046E2,3.1603818E2,1.2266399E1,2.9886816E2,1.7170013E1,5.8059664E0,6.4604325E0,1.765198E2,1.2234837E2,4.070656E0,1.3099358E1,4.5270047E0,1.2789617E0,1.9480003E0,4.512432E0,1.3886836E2,3.7651436E1,1.2513292E1,1.0983508E2,1.3562325E0,2.7144232E0,1.4276949E0,1.1671662E1,2.2719843E0,2.2550204E0,1.809353E0,2.7030792E0],"tree_param":{"num_deleted":"0","num_feature":"13","num_nodes":"27","size_leaf_vector":"1"}},{"base_weights":[-2.1763479E-4,3.5174124E-2,-2.0825818E-1,7.02001E-2,-4.1759342E-1,6.099957E-1,-3.4521797E-1,2.3360988E-1,-1.2055571E-2,-5.562678E-1,7.819714E-2,-7.5667396E-2,1.1072571E0,-5.0326973E-1,3.9375114E-1,2.8050462E-2,-7.28473E-2,3.5250213E-2,-7.281223E-3,-7.427897E-2,-1.9166028E-2,1.8809256E-1,-4.098985E-2,4.1368514E-2,-5.445027E-2,8.653029E-2,-7.229406E-2],"categories":[0,1,6,13,16,17,18,0,1,2,3,4,5,12,0,1,2,6,7,10,12,13,14,0,1,3,11],"categories_nodes":[1,2,3,12],"categories_segments":[0,7,14,23],"categories_sizes":[7,7,9,4],"default_left":[0,1,1,1,0,0,0,0,0,0,0,0,1,0,0,0,0,0,0,0,0,0,0,0,0,0,0],"id":27,"left_children":[1,3,5,7,9,11,13,15,17,19,-1,-1,21,23,25,-1,-1,-1,-1,-1,-1,-1,-1,-1,-1,-1,-1],"loss_changes":[2.4264448E0,4.495777E0,5.579959E0,3.528158E0,3.8230503E0,5.7520084E0,5.0662823E0,4.168563E0,3.9108555E0,1.1389623E0,0E0,0E0,7.4707932E0,1.5400801E0,4.7881837E0,0E0,0E0,0E0,0E0,0E0,0E0,0E0,0E0,0E0,0E0,0E0,0E0],"parents":[2147483647,0,0,1,1,2,2,3,3,4,4,5,5,6,6,7,7,8,8,9,9,12,12,13,13,14,14],"right_children":[2,4,6,8,10,12,14,16,18,20,-1,-1,22,24,26,-1,-1,-1,-1,-1,-1,-1,-1,-1,-1,-1,-1],"split_conditions":[3E0,1E-45,1E-45,1E-45,1.6E1,4.5E1,4E0,9.960502E1,2E0,1.3E1,7.819714E-2,-7.5667396E-2,1E-45,3E0,1.2709804E1,2.8050462E-2,-7.28473E-2,3.5250213E-2,-7.281223E-3,-7.427897E-2,-1.9166028E-2,1.8809256E-1,-4.098985E-2,4.1368514E-2,-5.445027E-2,8.653029E-2,-7.229406E-2],"split_indices":[11,1,0,0,3,8,11,12,3,6,0,0,1,7,12,0,0,0,0,0,0,0,0,0,0,0,0],"split_type":[0,1,1,1,0,0,0,0,0,0,0,0,1,0,0,0,0,0,0,0,0,0,0,0,0,0,0],"sum_hessian":[3.2755426E2,2.8064243E2,4.691183E1,2.612752E2,1.9367228E1,6.2310653E0,4.0680767E1,8.686616E1,1.7440906E2,1.7841013E1,1.5262151E0,1.5231552E0,4.70791E0,3.3775726E1,6.905042E0,8.350435E1,3.3618047E0,2.4228588E1,1.5018047E2,1.1116781E1,6.7242317E0,2.9591372E0,1.748773E0,1.0647401E0,3.2710987E1,5.013206E0,1.8918359E0],"tree_param":{"num_deleted":"0","num_feature":"13","num_nodes":"27","size_leaf_vector":"1"}},{"base_weights":[-5.803361E-4,6.449578E-1,-1.168422E-2,1.0446006E0,-5.4649103E-2,6.528878E-2,-1.1243079E-1,3.3622157E-2,1.3524729E-1,-4.725207E-1,1.267249E-1,2.390014E-1,-2.1190278E-1,-9.6968755E-2,-2.1428732E-2,2.8398288E-2,-1.5351926E-2,1.03201985E-1,-1.4195511E-2,-4.6902236E-2,9.970993E-3],"categories":[6,0,2,3,4,6,7,8,9,11,12],"categories_nodes":[1,11],"categories_segments":[0,1],"categories_sizes":[1,10],"default_left":[0,1,0,0,0,0,0,0,0,0,0,1,0,0,0,0,0,0,0,0,0],"id":28,"left_children":[1,3,5,7,-1,9,11,-1,-1,13,15,17,19,-1,-1,-1,-1,-1,-1,-1,-1],"loss_changes":[2.3555765E0,3.216898E0,2.512257E0,5.277138E-1,0E0,6.131013E0,4.9541774E0,0E0,0E0,2.2378845E0,7.345936E0,9.636974E0,8.848633E0,0E0,0E0,0E0,0E0,0E0,0E0,0E0,0E0],"parents":[2147483647,0,0,1,1,2,2,3,3,5,5,6,6,9,9,10,10,11,11,12,12],"right_children":[2,4,6,8,-1,10,12,-1,-1,14,16,18,20,-1,-1,-1,-1,-1,-1,-1,-1],"split_conditions":[2E0,1E-45,4E0,4E0,-5.4649103E-2,2.8E1,3.3E1,3.3622157E-2,1.3524729E-1,2.337105E0,4.19E2,1E-45,1.2E1,-9.6968755E-2,-2.1428732E-2,2.8398288E-2,-1.5351926E-2,1.03201985E-1,-1.4195511E-2,-4.6902236E-2,9.970993E-3],"split_indices":[11,10,4,4,0,8,8,0,0,12,8,10,6,0,0,0,0,0,0,0,0],"split_type":[0,1,0,0,0,0,0,0,0,0,0,1,0,0,0,0,0,0,0,0,0],"sum_hessian":[3.2657355E2,4.5570965E0,3.2201645E2,3.5047607E0,1.0523359E0,1.8274583E2,1.3927061E2,1.6955576E0,1.8092031E0,1.8049541E1,1.6469629E2,3.0414436E1,1.08856186E2,5.228408E0,1.2821135E1,1.0548847E2,5.920781E1,9.314947E0,2.109949E1,5.9366352E1,4.948983E1],"tree_param":{"num_deleted":"0","num_feature":"13","num_nodes":"21","size_leaf_vector":"1"}},{"base_weights":[-8.1686885E-4,9.247117E-2,-8.59929E-3,-2.5817672E-2,3.9758292E-1,-9.764339E-3,-6.047338E-1,7.192674E-1,-5.572426E-1,-1.9058287E-3,9.737503E-2,2.5128037E-2,-7.746848E-2,9.4004296E-2,-6.2205713E-2,-5.0505106E-3,-7.1671814E-2],"categories":[0,1,2,3,4,5,6,7,9,10,11,12,13,14,0,2,3,4,5,0,1,2,3,4,5,6,7,12,0,1,2,3,4,5,6,7,8,9,10,11,12,13,14],"categories_nodes":[0,4,6,8],"categories_segments":[0,14,19,28],"categories_sizes":[14,5,9,15],"default_left":[1,0,0,0,1,0,1,0,1,0,0,0,0,0,0,0,0],"id":29,"left_children":[1,-1,3,5,7,9,11,13,15,-1,-1,-1,-1,-1,-1,-1,-1],"loss_changes":[2.3667905E0,0E0,2.2884731E0,2.9070482E0,4.4884186E0,2.8156042E0,1.4226229E0,3.6618457E0,2.803551E-1,0E0,0E0,0E0,0E0,0E0,0E0,0E0,0E0],"parents":[2147483647,0,0,2,2,3,3,4,4,5,5,6,6,7,7,8,8],"right_children":[2,-1,4,6,8,10,12,14,16,-1,-1,-1,-1,-1,-1,-1,-1],"split_conditions":[1E-45,9.247117E-2,1.8E1,1.66E2,1E-45,1.63E2,1E-45,5.37E2,1E-45,-1.9058287E-3,9.737503E-2,2.5128037E-2,-7.746848E-2,9.4004296E-2,-6.2205713E-2,-5.0505106E-3,-7.1671814E-2],"split_indices":[0,0,3,7,10,7,0,8,1,0,0,0,0,0,0,0,0],"split_type":[1,0,0,0,1,0,1,0,1,0,0,0,0,0,0,0,0],"sum_hessian":[3.2648676E2,1.7399648E0,3.247468E2,3.1243872E2,1.2308083E1,3.04998E2,7.4407215E0,9.390941E0,2.9171426E0,3.0311426E2,1.8837259E0,1.1532832E0,6.2874384E0,8.320581E0,1.0703586E0,1.0134801E0,1.9036624E0],"tree_param":{"num_deleted":"0","num_feature":"13","num_nodes":"17","size_leaf_vector":"1"}},{"base_weights":[-6.075153E-4,9.07401E-3,-6.510219E-1,8.935229E-2,1.5072171E-3,-8.000212E-2,-4.6312422E-3,3.4987107E-2,-1.981132E-1,7.1690935E-3,-3.4038603E-2,5.120827E-2,-3.1734023E-2],"categories":[0,1,2,3,4,5,6,7,9,10,11,12,13,14,0,1,6,13,16,17,18,22,0,1,2,3,4,5,12],"categories_nodes":[1,7,8],"categories_segments":[0,14,22],"categories_sizes":[14,8,7],"default_left":[0,1,0,0,0,0,0,1,1,0,0,0,0],"id":30,"left_children":[1,3,5,-1,7,-1,-1,9,11,-1,-1,-1,-1],"loss_changes":[2.0653226E0,2.1618938E0,3.9638066E-1,0E0,2.1555767E0,0E0,0E0,3.8293705E0,4.0851507E0,0E0,0E0,0E0,0E0],"parents":[2147483647,0,0,1,1,2,2,4,4,7,7,8,8],"right_children":[2,4,6,-1,8,-1,-1,10,12,-1,-1,-1,-1],"split_conditions":[4.2103745E3,1E-45,9.9E1,8.935229E-2,3E0,-8.000212E-2,-4.6312422E-3,1E-45,1E-45,7.1690935E-3,-3.4038603E-2,5.120827E-2,-3.1734023E-2],"split_indices":[12,0,7,0,11,0,0,1,0,0,0,0,0],"split_type":[0,1,0,0,0,0,0,1,1,0,0,0,0],"sum_hessian":[3.2604684E2,3.2223636E2,3.8104928E0,1.7402607E0,3.204961E2,2.7980692E0,1.0124235E0,2.7516995E2,4.5326153E1,2.5139743E2,2.377252E1,6.041847E0,3.9284306E1],"tree_param":{"num_deleted":"0","num_feature":"13","num_nodes":"13","size_leaf_vector":"1"}},{"base_weights":[-7.016557E-4,5.7442576E-1,-1.0934881E-2,1.12274475E-1,1.12225525E-1,5.837681E-2,-1.02853134E-1,-5.834886E-2,5.567657E-2,-4.4948718E-1,1.143355E-1,2.0535387E-1,-2.034279E-1,1.5825067E-2,-6.333383E-2,2.5099372E-2,-1.3799104E-2,-1.2645912E-2,5.871275E-2,3.346628E-2,-2.9459203E-2],"categories":[0,1,2,3,4,5,6,7,8,9,10,0,1,3,4,6,7,8,9,11,12,13,14,17,18,19,20,21,22],"categories_nodes":[1,6],"categories_segments":[0,11],"categories_sizes":[11,18],"default_left":[0,1,0,0,0,0,1,0,0,0,0,0,0,0,0,0,0,0,0,0,0],"id":31,"left_children":[1,3,5,7,-1,9,11,-1,-1,13,15,17,19,-1,-1,-1,-1,-1,-1,-1,-1],"loss_changes":[1.9291853E0,1.3248329E0,2.057428E0,1.6297748E0,0E0,5.286489E0,4.343809E0,0E0,0E0,2.165644E0,5.7836704E0,4.4628167E0,5.2562504E0,0E0,0E0,0E0,0E0,0E0,0E0,0E0,0E0],"parents":[2147483647,0,0,1,1,2,2,3,3,5,5,6,6,9,9,10,10,11,11,12,12],"right_children":[2,4,6,8,-1,10,12,-1,-1,14,16,18,20,-1,-1,-1,-1,-1,-1,-1,-1],"split_conditions":[2E0,1E-45,4E0,1.01E2,1.12225525E-1,2.8E1,1E-45,-5.834886E-2,5.567657E-2,6E0,4.19E2,1.47E2,1E0,1.5825067E-2,-6.333383E-2,2.5099372E-2,-1.3799104E-2,-1.2645912E-2,5.871275E-2,3.346628E-2,-2.9459203E-2],"split_indices":[11,0,4,8,0,8,1,0,0,8,8,8,6,0,0,0,0,0,0,0,0],"split_type":[0,1,0,0,0,0,1,0,0,0,0,0,0,0,0,0,0,0,0,0,0],"sum_hessian":[3.2572394E2,4.7304406E0,3.209935E2,3.2194462E0,1.5109947E0,1.8320854E2,1.3778496E2,1.1330965E0,2.0863497E0,1.7485252E1,1.657233E2,3.3643646E1,1.04141304E2,4.093391E0,1.3391862E1,1.07504776E2,5.8218517E1,1.8357368E1,1.5286279E1,1.47006445E1,8.944066E1],"tree_param":{"num_deleted":"0","num_feature":"13","num_nodes":"21","size_leaf_vector":"1"}},{"base_weights":[-6.016899E-4,8.364759E-3,-6.2854826E-1,8.309358E-2,1.1829461E-3,-4.211405E-3,-7.823884E-2,1.4149548E-1,-4.3301523E-2,-1.9486509E-3,1.03837706E-1,-2.2396958E-2,7.203029E-3],"categories":[0,1,2,3,4,5,6,7,9,10,11,12,13,14],"categories_nodes":[1],"categories_segments":[0],"categories_sizes":[14],"default_left":[0,1,0,0,0,0,0,0,0,0,0,0,0],"id":32,"left_children":[1,3,5,-1,7,-1,-1,9,11,-1,-1,-1,-1],"loss_changes":[1.8440509E0,1.9069756E0,3.8301647E-1,0E0,2.0108168E0,0E0,0E0,1.1216737E1,5.1133804E0,0E0,0E0,0E0,0E0],"parents":[2147483647,0,0,1,1,2,2,4,4,7,7,8,8],"right_children":[2,4,6,-1,8,-1,-1,10,12,-1,-1,-1,-1],"split_conditions":[4.2103745E3,1E-45,3E0,8.309358E-2,1.1E1,-4.211405E-3,-7.823884E-2,3E0,1.39E2,-1.9486509E-3,1.03837706E-1,-2.2396958E-2,7.203029E-3],"split_indices":[12,0,3,0,7,0,0,6,8,0,0,0,0],"split_type":[0,1,0,0,0,0,0,0,0,0,0,0,0],"sum_hessian":[3.255801E2,3.219694E2,3.610722E0,1.7939919E0,3.201754E2,1.0150671E0,2.595655E0,7.65479E1,2.436275E2,6.572851E1,1.0819389E1,9.455871E1,1.490688E2],"tree_param":{"num_deleted":"0","num_feature":"13","num_nodes":"13","size_leaf_vector":"1"}},{"base_weights":[-4.6939403E-4,1.1731551E-2,-4.723857E-1,-6.206995E-2,1.0689204E-1,2.381647E-2,-6.232275E-1,-1.3778429E-2,-7.527318E-1,6.7059183E-1,3.7400726E-2,-8.467283E-2,-5.2551357E-3,2.6165638E-3,-7.678361E-2,-9.6347794E-2,3.897065E-3,1.2977111E-1,-6.4691375E-3,1.1372321E-2,-4.047524E-2],"categories":[0,1,2,3,4,5,6,7,12,5,7,8,13,16,0,1,2,3,4,6,9,10,11,12,13,14,15,18,19,20,21,0,1,2,3,10,11,14],"categories_nodes":[2,3,4,10],"categories_segments":[0,9,14,31],"categories_sizes":[9,5,17,7],"default_left":[0,0,1,1,1,0,0,0,0,0,1,0,0,0,0,0,0,0,0,0,0],"id":33,"left_children":[1,3,5,7,9,-1,11,13,15,17,19,-1,-1,-1,-1,-1,-1,-1,-1,-1,-1],"loss_changes":[1.8841006E0,2.2470732E0,1.0323323E0,6.0033264E0,5.447714E0,0E0,8.5842896E-1,5.1266437E0,2.0004244E0,7.126907E0,4.2790594E0,0E0,0E0,0E0,0E0,0E0,0E0,0E0,0E0,0E0,0E0],"parents":[2147483647,0,0,1,1,2,2,3,3,4,4,6,6,7,7,8,8,9,9,10,10],"right_children":[2,4,6,8,10,-1,12,14,16,18,20,-1,-1,-1,-1,-1,-1,-1,-1,-1,-1],"split_conditions":[1.66E2,8E0,1E-45,1E-45,1E-45,2.381647E-2,5.9145474E0,4.2E1,5E0,4.68E2,1E-45,-8.467283E-2,-5.2551357E-3,2.6165638E-3,-7.678361E-2,-9.6347794E-2,3.897065E-3,1.2977111E-1,-6.4691375E-3,1.1372321E-2,-4.047524E-2],"split_indices":[7,6,0,1,1,0,12,7,6,8,0,0,0,0,0,0,0,0,0,0,0],"split_type":[0,0,1,1,1,0,0,0,0,0,1,0,0,0,0,0,0,0,0,0,0],"sum_hessian":[3.2526184E2,3.18015E2,7.246834E0,1.7930397E2,1.3871104E2,1.1676477E0,6.079186E0,1.6853952E2,1.0764442E1,1.427391E1,1.2443713E2,4.0207596E0,2.0584264E0,1.609775E2,7.562027E0,8.330063E0,2.4343789E0,7.2907515E0,6.983158E0,1.06752754E2,1.7684383E1],"tree_param":{"num_deleted":"0","num_feature":"13","num_nodes":"21","size_leaf_vector":"1"}},{"base_weights":[-1.2179567E-3,-1.6286558E-2,3.5084835E-1,2.0546736E-2,-2.2953793E-1,8.809356E-1,-1.826928E-1,8.456085E-2,-1.9831237E-1,5.455292E-1,-3.5046655E-1,1.1489806E0,1.559624E-1,4.7166187E-1,-5.1827097E-1,1.1435938E-2,-6.252753E-2,1.0230526E-2,-4.68035E-2,-7.578507E-2,1.3631938E-1,1.0415929E-2,-4.300354E-2,3.686286E-2,1.531769E-1,2.6130224E-2,-2.6833497E-3,1.314296E-1,-5.93715E-2,-1.5167288E-3,-7.7636205E-2],"categories":[0,2,3,4,5,7,9,10,11,12,0,1,2,3,6,7,13,15,16,17,19,0,1,2,3,4,5,8,10,0,1,2,3,4,5,6,7,8,9,10,12,13,14,15,16,17,18,19,0,1,2,4,5,6,7,8,9,11,12,0,1,3,4,6,7,8,9,10,11,12,14],"categories_nodes":[2,3,4,5,8,10],"categories_segments":[0,10,21,29,48,59],"categories_sizes":[10,11,8,19,11,12],"default_left":[0,0,1,1,1,1,0,0,1,0,1,0,0,0,0,0,0,0,0,0,0,0,0,0,0,0,0,0,0,0,0],"id":34,"left_children":[1,3,5,7,9,11,13,15,17,19,21,23,25,27,29,-1,-1,-1,-1,-1,-1,-1,-1,-1,-1,-1,-1,-1,-1,-1,-1],"loss_changes":[1.7363808E0,2.4694605E0,3.960341E0,3.7783618E0,4.5306206E0,1.1636863E0,1.8964772E0,4.4803057E0,4.998719E0,8.109334E0,1.5155716E0,8.954644E-1,6.521014E-2,3.5398138E0,6.9581735E-1,0E0,0E0,0E0,0E0,0E0,0E0,0E0,0E0,0E0,0E0,0E0,0E0,0E0,0E0,0E0,0E0],"parents":[2147483647,0,0,1,1,2,2,3,3,4,4,5,5,6,6,7,7,8,8,9,9,10,10,11,11,12,12,13,13,14,14],"right_children":[2,4,6,8,10,12,14,16,18,20,22,24,26,28,30,-1,-1,-1,-1,-1,-1,-1,-1,-1,-1,-1,-1,-1,-1,-1,-1],"split_conditions":[1.8E1,1.5153373E1,1E-45,1E-45,1E-45,1E-45,1.9E1,1.57E2,1E-45,2.1777008E1,1E-45,7E0,2.2E1,1.6E1,2.8634925E0,1.1435938E-2,-6.252753E-2,1.0230526E-2,-4.68035E-2,-7.578507E-2,1.3631938E-1,1.0415929E-2,-4.300354E-2,3.686286E-2,1.531769E-1,2.6130224E-2,-2.6833497E-3,1.314296E-1,-5.93715E-2,-1.5167288E-3,-7.7636205E-2],"split_indices":[3,12,10,1,10,1,3,7,10,12,0,6,3,6,12,0,0,0,0,0,0,0,0,0,0,0,0,0,0,0,0],"split_type":[0,0,1,1,1,1,0,0,1,0,1,0,0,0,0,0,0,0,0,0,0,0,0,0,0,0,0,0,0,0,0],"sum_hessian":[3.252241E2,3.1279025E2,1.2433827E1,2.6749203E2,4.529822E1,5.910489E0,6.523339E0,2.0743344E2,6.0058586E1,5.639816E0,3.9658405E1,3.8880844E0,2.0224047E0,2.0738845E0,4.4494543E0,1.9988142E2,7.5520196E0,2.8696165E1,3.1362423E1,2.2023544E0,3.4374614E0,5.8611255E0,3.379728E1,1.9255893E0,1.9624952E0,1.0105685E0,1.0118362E0,1.0275358E0,1.0463488E0,1.8676199E0,2.5818343E0],"tree_param":{"num_deleted":"0","num_feature":"13","num_nodes":"31","size_leaf_vector":"1"}},{"base_weights":[-1.0268147E-3,2.8194329E-2,-1.7860927E-1,5.9146844E-2,-3.2195568E-1,2.0371486E-1,-3.796481E-1,3.2687563E-1,1.7155545E-2,-4.3379802E-1,7.48069E-2,5.342633E-1,-5.396608E-1,5.0920004E-1,-4.8066202E-1,-2.3458732E-2,7.033114E-2,1.8372124E-2,-7.086868E-3,3.2252476E-2,-5.932212E-2,-2.0219708E-2,1.9708112E-1,-8.294744E-2,1.8400079E-2,1.1994286E-1,-6.29449E-2,-5.3047784E-2,4.0861648E-2],"categories":[0,1,5,6,13,17,18,22,0,1,2,3,4,6,8,9,11,12,13,14,15,16,0,1,2,3,4,5,12,14,0,1,2,6,7,10,12,13,14,0,1,3,4,5,6,7,8,9,10,11,12],"categories_nodes":[1,2,6,8,13],"categories_segments":[0,8,22,30,39],"categories_sizes":[8,14,8,9,12],"default_left":[0,1,1,0,0,0,1,0,1,0,0,0,0,1,0,0,0,0,0,0,0,0,0,0,0,0,0,0,0],"id":35,"left_children":[1,3,5,7,9,11,13,15,17,19,-1,21,23,25,27,-1,-1,-1,-1,-1,-1,-1,-1,-1,-1,-1,-1,-1,-1],"loss_changes":[1.6940182E0,3.0575478E0,3.6227312E0,2.899743E0,3.0680678E0,4.3542786E0,2.990385E0,7.558639E0,3.3038433E0,2.7702837E0,0E0,1.3047926E1,1.3251175E0,3.5891917E0,1.4559917E0,0E0,0E0,0E0,0E0,0E0,0E0,0E0,0E0,0E0,0E0,0E0,0E0,0E0,0E0],"parents":[2147483647,0,0,1,1,2,2,3,3,4,4,5,5,6,6,7,7,8,8,9,9,11,11,12,12,13,13,14,14],"right_children":[2,4,6,8,10,12,14,16,18,20,-1,22,24,26,28,-1,-1,-1,-1,-1,-1,-1,-1,-1,-1,-1,-1,-1,-1],"split_conditions":[3E0,1E-45,1E-45,2E0,1.6E1,4.59E2,1E-45,1.02E2,1E-45,1.2995462E0,7.48069E-2,3.9E1,1.1E1,1E-45,1.6E2,-2.3458732E-2,7.033114E-2,1.8372124E-2,-7.086868E-3,3.2252476E-2,-5.932212E-2,-2.0219708E-2,1.9708112E-1,-8.294744E-2,1.8400079E-2,1.1994286E-1,-6.29449E-2,-5.3047784E-2,4.0861648E-2],"split_indices":[11,1,1,3,3,8,0,8,0,12,0,7,3,1,7,0,0,0,0,0,0,0,0,0,0,0,0,0,0],"split_type":[0,1,1,0,0,0,1,0,1,0,0,0,0,1,0,0,0,0,0,0,0,0,0,0,0,0,0,0,0],"sum_hessian":[3.244827E2,2.79356E2,4.5126717E1,2.5743073E2,2.1925247E1,1.5547004E1,2.9579714E1,3.398219E1,2.2344855E2,2.0388742E1,1.5365047E0,1.0956432E1,4.590572E0,2.6061988E0,2.6973515E1,1.3790358E1,2.0191832E1,7.688123E1,1.465673E2,3.3713892E0,1.7017353E1,7.8111944E0,3.145238E0,3.173445E0,1.4171267E0,1.5893718E0,1.0168271E0,2.5924732E1,1.0487835E0],"tree_param":{"num_deleted":"0","num_feature":"13","num_nodes":"29","size_leaf_vector":"1"}},{"base_weights":[-6.506012E-4,5.228406E-1,-1.0177366E-2,8.629043E-1,-5.404302E-2,5.397868E-2,-9.596269E-2,2.67157E-2,1.1158466E-1,1.2698947E-1,-2.9258606E-1,2.0988627E-1,-1.8622124E-1,2.2725677E-2,-2.2979667E-2,-5.9801202E-2,5.0119534E-3,8.8252276E-2,-1.3706418E-2,1.771169E-2,-3.650774E-2],"categories":[6,0,1,6,10,13,15,16,19,0,2,3,4,6,7,8,9,11,12,2,3,7,11,12,14],"categories_nodes":[1,9,11,12],"categories_segments":[0,1,9,19],"categories_sizes":[1,8,10,6],"default_left":[0,1,0,0,0,0,0,0,0,1,0,1,1,0,0,0,0,0,0,0,0],"id":36,"left_children":[1,3,5,7,-1,9,11,-1,-1,13,15,17,19,-1,-1,-1,-1,-1,-1,-1,-1],"loss_changes":[1.6240162E0,2.5708208E0,1.7649772E0,4.2444372E-1,0E0,4.6822195E0,3.8258193E0,0E0,0E0,5.501695E0,3.4053288E0,7.5251274E0,6.9821033E0,0E0,0E0,0E0,0E0,0E0,0E0,0E0,0E0],"parents":[2147483647,0,0,1,1,2,2,3,3,5,5,6,6,9,9,10,10,11,11,12,12],"right_children":[2,4,6,8,-1,10,12,-1,-1,14,16,18,20,-1,-1,-1,-1,-1,-1,-1,-1],"split_conditions":[2E0,1E-45,4E0,4E0,-5.404302E-2,1.2709804E1,3.3E1,2.67157E-2,1.1158466E-1,1E-45,9E0,1E-45,1E-45,2.2725677E-2,-2.2979667E-2,-5.9801202E-2,5.0119534E-3,8.8252276E-2,-1.3706418E-2,1.771169E-2,-3.650774E-2],"split_indices":[11,10,4,4,0,12,8,0,0,1,3,10,0,0,0,0,0,0,0,0,0],"split_type":[0,1,0,0,0,0,0,0,0,1,0,1,1,0,0,0,0,0,0,0,0],"sum_hessian":[3.2357135E2,4.8202395E0,3.187511E2,3.7949517E0,1.025288E0,1.8257785E2,1.3617325E2,1.7438687E0,2.0510828E0,1.5133061E2,3.1247242E1,3.0726942E1,1.0544631E2,1.1841546E2,3.2915146E1,1.6128359E1,1.5118883E1,9.930643E0,2.0796299E1,3.4787273E1,7.0659035E1],"tree_param":{"num_deleted":"0","num_feature":"13","num_nodes":"21","size_leaf_vector":"1"}},{"base_weights":[-7.365734E-4,-1.7544071E-1,2.825148E-2,5.264782E-1,-3.607377E-1,9.1517735E-1,1.2709091E-3,1.4000458E-1,1.0011524E0,4.5148605E-1,-5.473124E-1,1.718772E0,3.349685E-1,3.983082E-2,-2.5109878E-1,4.3691773E-2,-7.267275E-2,1.9784633E-3,1.3582294E-1,-6.1926138E-2,1.3491714E-1,-3.4706883E-2,-8.969963E-2,4.8360962E-2,2.1515341E-1,6.916517E-2,-3.9848816E-2,2.8306812E-3,9.549261E-2,1.1837268E-2,-5.163005E-2],"categories":[0,1,2,3,4,5,9,10,12,0,1,2,3,4,7,8,9,10,11,12,3,6,13,14,15,18,22],"categories_nodes":[1,5,6],"categories_segments":[0,9,20],"categories_sizes":[9,11,7],"default_left":[0,1,0,0,0,1,1,0,0,0,0,0,0,0,0,0,0,0,0,0,0,0,0,0,0,0,0,0,0,0,0],"id":37,"left_children":[1,3,5,7,9,11,13,15,17,19,21,23,25,27,29,-1,-1,-1,-1,-1,-1,-1,-1,-1,-1,-1,-1,-1,-1,-1,-1],"loss_changes":[1.6450609E0,6.202407E0,6.666307E0,1.7055662E0,5.879264E0,3.258864E0,2.6511128E0,2.0439043E0,1.4984555E0,8.035372E0,1.8366375E0,6.733465E-1,1.8500016E0,2.4648192E0,3.599205E0,0E0,0E0,0E0,0E0,0E0,0E0,0E0,0E0,0E0,0E0,0E0,0E0,0E0,0E0,0E0,0E0],"parents":[2147483647,0,0,1,1,2,2,3,3,4,4,5,5,6,6,7,7,8,8,9,9,10,10,11,11,12,12,13,13,14,14],"right_children":[2,4,6,8,10,12,14,16,18,20,22,24,26,28,30,-1,-1,-1,-1,-1,-1,-1,-1,-1,-1,-1,-1,-1,-1,-1,-1],"split_conditions":[9.9604857E-1,1E-45,1.1440505E0,6.818475E-1,2E0,1E-45,1E-45,1.8E1,3.2E1,9E0,1.1E1,1.31E2,5E0,6.5E1,1.06E2,4.3691773E-2,-7.267275E-2,1.9784633E-3,1.3582294E-1,-6.1926138E-2,1.3491714E-1,-3.4706883E-2,-8.969963E-2,4.8360962E-2,2.1515341E-1,6.916517E-2,-3.9848816E-2,2.8306812E-3,9.549261E-2,1.1837268E-2,-5.163005E-2],"split_indices":[12,0,12,12,3,10,1,6,8,6,3,8,4,6,8,0,0,0,0,0,0,0,0,0,0,0,0,0,0,0,0],"split_type":[0,1,0,0,0,1,1,0,0,0,0,0,0,0,0,0,0,0,0,0,0,0,0,0,0,0,0,0,0,0,0],"sum_hessian":[3.2285397E2,4.5227333E1,2.7762662E2,9.0612755E0,3.6166058E1,7.224293E0,2.7040234E2,5.708466E0,3.3528094E0,6.4905586E0,2.9675499E1,2.2062638E0,5.018029E0,2.3529367E2,3.510867E1,4.6212754E0,1.0871909E0,1.1760455E0,2.1767638E0,3.101403E0,3.3891556E0,2.0136831E1,9.538668E0,1.1218488E0,1.084415E0,3.414527E0,1.6035024E0,2.3338553E2,1.9081447E0,1.49017E1,2.0206968E1],"tree_param":{"num_deleted":"0","num_feature":"13","num_nodes":"31","size_leaf_vector":"1"}},{"base_weights":[2.1954926E-4,7.022511E-3,-7.181434E-2,-8.814746E-3,3.891035E-1,1.00379E-2,-3.3652923E-1,-4.8681664E-1,6.318984E-1,6.1459E-3,-1.3505138E-2,7.8067705E-2,-6.1948355E-2,-6.1546173E-2,-1.0118581E-2,8.060518E-2,-2.4893966E-2],"categories":[2,6,0,1,4,8,11,12,0,1,2,3,4,5,6,7,9,10,11,0,1,2,3,4,5,0,2,3,4,5],"categories_nodes":[3,5,6,7,8],"categories_segments":[0,2,8,19,25],"categories_sizes":[2,6,11,6,5],"default_left":[0,0,0,1,0,1,1,1,1,0,0,0,0,0,0,0,0],"id":38,"left_children":[1,3,-1,5,7,9,11,13,15,-1,-1,-1,-1,-1,-1,-1,-1],"loss_changes":[1.5847113E0,1.9470301E0,0E0,1.9148848E0,3.031032E0,2.1982388E0,5.8131504E0,1.0362351E-1,1.8055048E0,0E0,0E0,0E0,0E0,0E0,0E0,0E0,0E0],"parents":[2147483647,0,0,1,1,3,3,4,4,5,5,6,6,7,7,8,8],"right_children":[2,4,-1,6,8,10,12,14,16,-1,-1,-1,-1,-1,-1,-1,-1],"split_conditions":[6.31E2,1.8E1,-7.181434E-2,1E-45,2E0,1E-45,1E-45,1E-45,1E-45,6.1459E-3,-1.3505138E-2,7.8067705E-2,-6.1948355E-2,-6.1546173E-2,-1.0118581E-2,8.060518E-2,-2.4893966E-2],"split_indices":[8,3,0,0,4,10,10,10,10,0,0,0,0,0,0,0,0],"split_type":[0,0,0,1,0,1,1,1,1,0,0,0,0,0,0,0,0],"sum_hessian":[3.2223914E2,3.2019705E2,2.0420709E0,3.0839117E2,1.1805884E1,2.9253186E2,1.58593025E1,2.3441057E0,9.461779E0,2.164103E2,7.612158E1,2.849484E0,1.3009818E1,1.3108306E0,1.0332751E0,7.970757E0,1.4910213E0],"tree_param":{"num_deleted":"0","num_feature":"13","num_nodes":"17","size_leaf_vector":"1"}},{"base_weights":[-2.1879122E-4,7.765939E-3,-5.928973E-1,-1.6074459E-1,3.5469808E-2,-7.467068E-2,-4.723006E-3,4.8152187E-1,-3.361955E-1,8.26874E-1,1.0174459E-2,1.2087096E-1,2.2101631E-2,4.023733E-2,-5.167217E-2,2.5581319E-2,1.5647365E-1,2.4465742E-3,-5.8493625E-2],"categories":[0,1,2,3,4,5,9,10,12,0,1,2,3,5,6,7,8,9,10,11],"categories_nodes":[3,9],"categories_segments":[0,9],"categories_sizes":[9,11],"default_left":[0,0,0,1,0,0,0,0,0,1,0,0,0,0,0,0,0,0,0],"id":39,"left_children":[1,3,5,7,9,-1,-1,11,13,15,17,-1,-1,-1,-1,-1,-1,-1,-1],"loss_changes":[1.5333503E0,1.4983386E0,3.2622743E-1,5.26932E0,5.50494E0,0E0,0E0,1.6529872E0,5.032948E0,3.1887589E0,2.2926915E0,0E0,0E0,0E0,0E0,0E0,0E0,0E0,0E0],"parents":[2147483647,0,0,1,1,2,2,3,3,4,4,7,7,8,8,9,9,10,10],"right_children":[2,4,6,8,10,-1,-1,12,14,16,18,-1,-1,-1,-1,-1,-1,-1,-1],"split_conditions":[4.2103745E3,9.9604857E-1,9.7E1,1E-45,1.1440505E0,-7.467068E-2,-4.723006E-3,2E0,2E0,1E-45,1.66E2,1.2087096E-1,2.2101631E-2,4.023733E-2,-5.167217E-2,2.5581319E-2,1.5647365E-1,2.4465742E-3,-5.8493625E-2],"split_indices":[12,12,7,0,12,0,0,4,3,0,7,0,0,0,0,0,0,0,0],"split_type":[0,0,0,1,0,0,0,0,0,1,0,0,0,0,0,0,0,0,0],"sum_hessian":[3.2203967E2,3.187325E2,3.3071566E0,4.4324387E1,2.7440814E2,2.2925243E0,1.0146322E0,9.136021E0,3.5188366E1,7.5176606E0,2.6689047E2,1.4496202E0,7.686401E0,6.6702304E0,2.8518133E1,4.996989E0,2.5206718E0,2.6156793E2,5.3225327E0],"tree_param":{"num_deleted":"0","num_feature":"13","num_nodes":"19","size_leaf_vector":"1"}},{"base_weights":[1.3656163E-4,-6.499528E-2,7.394332E-2,4.7126196E-2,-3.2198307E-1,3.7752143E-1,-5.389187E-2,-1.1165402E-1,4.3370157E-1,6.444765E-1,-5.078331E-1,1.0358357E0,1.9673316E-1,1.3413279E-2,-7.1199155E-1,-5.4951668E-2,6.6479854E-4,6.0496088E-2,-8.563906E-2,1.0747186E-1,-4.7297567E-2,1.9382618E-2,-6.3531965E-2,1.498165E-1,-8.045491E-3,5.839782E-2,-1.013277E-2,6.957696E-2,-4.3772706E-3,-3.39557E-2,-8.937424E-2],"categories":[0,1,2,3,4,5,6,7,8,10,11,13,16,17,18,19,0,1,2,3,4,6,8,9,11,12,13,15,16,17,18,19,20,21,22,3,9,14,18,0,1,2,5,0,8,0,1,2,4,10,3,5,10],"categories_nodes":[4,5,6,8,9,11,14],"categories_segments":[0,16,35,39,43,45,50],"categories_sizes":[16,19,4,4,2,5,3],"default_left":[0,0,0,0,1,1,1,0,1,1,0,1,0,0,1,0,0,0,0,0,0,0,0,0,0,0,0,0,0,0,0],"id":40,"left_children":[1,3,5,7,9,11,13,15,17,19,21,23,25,27,29,-1,-1,-1,-1,-1,-1,-1,-1,-1,-1,-1,-1,-1,-1,-1,-1],"loss_changes":[1.5557368E0,4.9688087E0,5.9079065E0,7.4489803E0,9.730219E0,5.161346E0,4.776899E0,4.471936E0,8.319094E0,4.7795076E0,4.1007233E0,5.012101E0,4.283776E0,3.8789656E0,3.7375116E-1,0E0,0E0,0E0,0E0,0E0,0E0,0E0,0E0,0E0,0E0,0E0,0E0,0E0,0E0,0E0,0E0],"parents":[2147483647,0,0,1,1,2,2,3,3,4,4,5,5,6,6,7,7,8,8,9,9,10,10,11,11,12,12,13,13,14,14],"right_children":[2,4,6,8,10,12,14,16,18,20,22,24,26,28,30,-1,-1,-1,-1,-1,-1,-1,-1,-1,-1,-1,-1,-1,-1,-1,-1],"split_conditions":[1.39E2,7.5E1,4.15E2,3E0,1E-45,1E-45,1E-45,3E0,1E-45,1E-45,2E0,1E-45,2E0,1E0,1E-45,-5.4951668E-2,6.6479854E-4,6.0496088E-2,-8.563906E-2,1.0747186E-1,-4.7297567E-2,1.9382618E-2,-6.3531965E-2,1.498165E-1,-8.045491E-3,5.839782E-2,-1.013277E-2,6.957696E-2,-4.3772706E-3,-3.39557E-2,-8.937424E-2],"split_indices":[8,8,8,6,1,1,1,3,0,10,3,10,4,3,10,0,0,0,0,0,0,0,0,0,0,0,0,0,0,0,0],"split_type":[0,0,0,0,1,1,1,0,1,1,0,1,0,0,1,0,0,0,0,0,0,0,0,0,0,0,0,0,0,0,0],"sum_hessian":[3.2162863E2,1.709185E2,1.5071013E2,1.19568474E2,5.1350033E1,4.4079243E1,1.0663088E2,8.526024E1,3.4308235E1,7.8839736E0,4.346606E1,8.478061E0,3.560118E1,9.762609E1,9.004795E0,1.7360405E1,6.789984E1,3.0756403E1,3.5518298E0,5.719926E0,2.1640475E0,6.603178E0,3.6862885E1,5.7531943E0,2.7248669E0,1.506685E1,2.0534332E1,6.6855683E0,9.094052E1,3.8938901E0,5.1109047E0],"tree_param":{"num_deleted":"0","num_feature":"13","num_nodes":"31","size_leaf_vector":"1"}},{"base_weights":[-4.4300075E-4,5.8705797E-3,-6.97818E-2,-8.664137E-3,3.5234603E-1,-3.0722465E-2,2.5881195E-1,7.6579463E-1,-1.1573174E-1,-5.2059896E-4,-5.0156374E-2,5.8511492E-2,-3.73899E-2,9.951043E-2,1.4046462E-2,6.476312E-2,-4.9358316E-2],"categories":[0,2,3,4,5,7,9,10,11,12,2,6,0,1,4,5,6,7,8,9,10,12,13,14,15,16,17,18,0,1,2,3,4,5,6,7,8,9,10,12,13,14,15,16,17,18,19],"categories_nodes":[4,5,6,7],"categories_segments":[0,10,12,28],"categories_sizes":[10,2,16,19],"default_left":[0,0,0,0,1,1,1,1,0,0,0,0,0,0,0,0,0],"id":41,"left_children":[1,3,-1,5,7,9,11,13,15,-1,-1,-1,-1,-1,-1,-1,-1],"loss_changes":[1.4227908E0,1.6161411E0,0E0,1.8275113E0,2.5890481E0,3.4309852E0,5.0914164E0,8.6280584E-1,2.3181114E0,0E0,0E0,0E0,0E0,0E0,0E0,0E0,0E0],"parents":[2147483647,0,0,1,1,3,3,4,4,5,5,6,6,7,7,8,8],"right_children":[2,4,-1,6,8,10,12,14,16,-1,-1,-1,-1,-1,-1,-1,-1],"split_conditions":[6.31E2,1.8E1,-6.97818E-2,5.49E2,1E-45,1E-45,1E-45,1E-45,1.9E1,-5.2059896E-4,-5.0156374E-2,5.8511492E-2,-3.73899E-2,9.951043E-2,1.4046462E-2,6.476312E-2,-4.9358316E-2],"split_indices":[8,3,0,8,10,0,1,1,3,0,0,0,0,0,0,0,0],"split_type":[0,0,0,0,1,1,1,1,0,0,0,0,0,0,0,0,0],"sum_hessian":[3.2121564E2,3.1931635E2,1.8993008E0,3.0739603E2,1.1920333E1,2.847946E2,2.260142E1,5.9917955E0,5.928537E0,2.7111313E2,1.3681478E1,1.4960953E1,7.640467E0,3.9514608E0,2.0403347E0,1.7265172E0,4.2020197E0],"tree_param":{"num_deleted":"0","num_feature":"13","num_nodes":"17","size_leaf_vector":"1"}},{"base_weights":[-4.6949706E-4,7.0100366E-3,-5.7415104E-1,3.4570128E-2,-1.615179E-1,-7.273727E-2,-4.919167E-3,6.165637E-2,-2.8300032E-1,1.9149996E-1,-3.5485873E-1,1.4338687E-2,-5.484651E-3,-4.841639E-2,3.231653E-2,-6.5070175E-2,4.502955E-2,4.2242464E-2,-4.5103658E-2],"categories":[0,1,5,6,13,17,18,22,0,1,2,3,4,6,8,9,11,12,13,14,15,16,0,1,4,5,8,12,0,1,2,3,4,5,12,14],"categories_nodes":[3,4,7,10],"categories_segments":[0,8,22,28],"categories_sizes":[8,14,6,8],"default_left":[0,0,0,1,1,0,0,1,0,0,1,0,0,0,0,0,0,0,0],"id":42,"left_children":[1,3,5,7,9,-1,-1,11,13,15,17,-1,-1,-1,-1,-1,-1,-1,-1],"loss_changes":[1.3846956E0,1.4854428E0,2.9828477E-1,2.3800037E0,3.136441E0,0E0,0E0,2.4254065E0,2.8103385E0,3.9021187E0,2.3883173E0,0E0,0E0,0E0,0E0,0E0,0E0,0E0,0E0],"parents":[2147483647,0,0,1,1,2,2,3,3,4,4,7,7,8,8,9,9,10,10],"right_children":[2,4,6,8,10,-1,-1,12,14,16,18,-1,-1,-1,-1,-1,-1,-1,-1],"split_conditions":[4.2103745E3,3E0,1.3E1,1E-45,1E-45,-7.273727E-2,-4.919167E-3,1E-45,1.1E1,1.8162608E0,1E-45,1.4338687E-2,-5.484651E-3,-4.841639E-2,3.231653E-2,-6.5070175E-2,4.502955E-2,4.2242464E-2,-4.5103658E-2],"split_indices":[12,11,6,1,1,0,0,10,3,12,0,0,0,0,0,0,0,0,0],"split_type":[0,0,0,1,1,0,0,1,0,0,1,0,0,0,0,0,0,0,0],"sum_hessian":[3.207694E2,3.1761618E2,3.153229E0,2.736585E2,4.395767E1,2.142354E0,1.010875E0,2.5289445E2,2.0764044E1,1.5558741E1,2.8398928E1,1.4849188E2,1.0440258E2,1.574135E1,5.022695E0,3.301213E0,1.2257527E1,2.7535293E0,2.56454E1],"tree_param":{"num_deleted":"0","num_feature":"13","num_nodes":"19","size_leaf_vector":"1"}},{"base_weights":[-9.820375E-4,1.12737015E-1,-3.764191E-2,-2.0786531E-2,7.9750896E-1,-2.2923157E-1,5.2850958E-2,7.432351E-2,-7.706231E-1,2.3781247E-1,2.0705678E-1,8.3012186E-2,-4.5581603E-1,1.0843567E0,2.4446517E-2,-4.328491E-2,1.997262E-2,-9.42022E-2,1.4670382E-2,6.0160633E-2,-5.564193E-2,-1.1685008E-2,8.954246E-2,4.8079472E-2,-4.8764516E-2,1.6330431E-1,-2.451927E-2,1.3695619E-1,3.6247788E-4],"categories":[7,15,19,21,0,1,2,3,4,5,6,7,9,10,11,12,0,1,2,3,4,5,6,7,10,11,12,13,14,0,1,2,3,4,5,6,7,8,9,0,1,2,3,4,5,6,7,8,9,10,11,12,13,14,15,16,17,18,20,21,22],"categories_nodes":[3,4,6,10,12],"categories_segments":[0,4,16,29,39],"categories_sizes":[4,12,13,10,22],"default_left":[0,0,0,1,1,0,1,0,0,0,1,0,1,0,0,0,0,0,0,0,0,0,0,0,0,0,0,0,0],"id":43,"left_children":[1,3,5,7,9,11,13,15,17,-1,19,21,23,25,27,-1,-1,-1,-1,-1,-1,-1,-1,-1,-1,-1,-1,-1,-1],"loss_changes":[1.3451931E0,7.209081E0,4.242281E0,4.821451E0,1.1510701E1,5.588839E0,4.852698E0,3.914922E0,1.3343186E0,0E0,3.485245E0,5.5991464E0,1.5944719E0,3.6392312E0,4.5627956E0,0E0,0E0,0E0,0E0,0E0,0E0,0E0,0E0,0E0,0E0,0E0,0E0,0E0,0E0],"parents":[2147483647,0,0,1,1,2,2,3,3,4,4,5,5,6,6,7,7,8,8,10,10,11,11,12,12,13,13,14,14],"right_children":[2,4,6,8,10,12,14,16,18,-1,20,22,24,26,28,-1,-1,-1,-1,-1,-1,-1,-1,-1,-1,-1,-1,-1,-1],"split_conditions":[1.1E1,3E0,3.2E1,1E-45,1E-45,3.5400636E0,1E-45,3E0,1.4E1,2.3781247E-1,1E-45,2.8081908E0,1E-45,1.2E1,5.5E1,-4.328491E-2,1.997262E-2,-9.42022E-2,1.4670382E-2,6.0160633E-2,-5.564193E-2,-1.1685008E-2,8.954246E-2,4.8079472E-2,-4.8764516E-2,1.6330431E-1,-2.451927E-2,1.3695619E-1,3.6247788E-4],"split_indices":[7,6,7,1,10,12,0,3,3,0,0,12,1,3,8,0,0,0,0,0,0,0,0,0,0,0,0,0,0],"split_type":[0,0,0,1,1,0,1,0,0,0,1,0,1,0,0,0,0,0,0,0,0,0,0,0,0,0,0,0,0],"sum_hessian":[3.2065344E2,7.7664055E1,2.429894E2,6.580282E1,1.1861236E1,7.745985E1,1.6552956E2,5.919531E1,6.6075134E0,2.4024212E0,9.458815E0,3.283935E1,4.4620495E1,3.4397466E0,1.620898E2,1.1248945E1,4.794636E1,5.5446053E0,1.062908E0,6.3758936E0,3.0829206E0,2.7042719E1,5.7966337E0,1.0029176E0,4.3617577E1,2.2733138E0,1.1664329E0,1.4834151E0,1.6060638E2],"tree_param":{"num_deleted":"0","num_feature":"13","num_nodes":"29","size_leaf_vector":"1"}},{"base_weights":[1.9212077E-4,6.181261E-3,-6.82569E-2,-5.5580955E-2,7.564167E-2,-1.5462644E-2,-6.8744355E-1,3.370607E-1,-3.879166E-2,2.9778793E-2,-9.735821E-3,-9.157895E-2,3.0127976E-3,5.011614E-2,-2.4056256E-2,3.528283E-2,-1.4851677E-2],"categories":[5,7,13,16,17,0,1,2,4,5,6,7,8,9,12,13,0,1,2,4,6,8,9,12,13,15,16,17,18,20,21,0,3,9,10,11,12,13,14,18,19,22],"categories_nodes":[3,5,7,8],"categories_segments":[0,5,16,31],"categories_sizes":[5,11,15,11],"default_left":[0,0,0,1,0,1,0,1,1,0,0,0,0,0,0,0,0],"id":44,"left_children":[1,3,-1,5,7,9,11,13,15,-1,-1,-1,-1,-1,-1,-1,-1],"loss_changes":[1.3159856E0,1.3726948E0,0E0,4.284296E0,4.5171847E0,4.14227E0,1.6812477E0,4.475541E0,4.590911E0,0E0,0E0,0E0,0E0,0E0,0E0,0E0,0E0],"parents":[2147483647,0,0,1,1,3,3,4,4,5,5,6,6,7,7,8,8],"right_children":[2,4,-1,6,8,10,12,14,16,-1,-1,-1,-1,-1,-1,-1,-1],"split_conditions":[6.31E2,1.39E2,-6.82569E-2,1E-45,4.15E2,1E-45,5E0,1E-45,1E-45,2.9778793E-2,-9.735821E-3,-9.157895E-2,3.0127976E-3,5.011614E-2,-2.4056256E-2,3.528283E-2,-1.4851677E-2],"split_indices":[8,8,0,1,8,0,6,1,1,0,0,0,0,0,0,0,0],"split_type":[0,0,0,1,0,1,0,1,1,0,0,0,0,0,0,0,0],"sum_hessian":[3.197918E2,3.1799335E2,1.798472E0,1.6843001E2,1.4956334E2,1.5933777E2,9.092225E0,4.4944252E1,1.0461909E2,3.247701E1,1.2686076E2,6.6877975E0,2.404428E0,3.510377E1,9.840482E0,2.2412182E1,8.22069E1],"tree_param":{"num_deleted":"0","num_feature":"13","num_nodes":"17","size_leaf_vector":"1"}},{"base_weights":[-3.8719652E-4,9.256595E-3,-4.0717041E-1,8.1151683E-4,8.87118E-2,2.41053E-2,-5.6412095E-1,-8.268616E-3,7.4508154E-1,-8.1076495E-2,9.3242637E-4,1.8055212E-3,-3.5841968E-2,1.135537E-1,-8.800814E-3],"categories":[0,1,2,3,4,5,6,7,12,0,1,2,3,4,5,6,7,8,9,10],"categories_nodes":[2,8],"categories_segments":[0,9],"categories_sizes":[9,11],"default_left":[0,0,1,0,0,0,0,0,1,0,0,0,0,0,0],"id":45,"left_children":[1,3,5,7,-1,-1,9,11,13,-1,-1,-1,-1,-1,-1],"loss_changes":[1.2606868E0,2.326859E0,8.9314973E-1,2.1144743E0,0E0,0E0,8.973284E-1,2.8564527E0,1.3266323E0,0E0,0E0,0E0,0E0,0E0,0E0],"parents":[2147483647,0,0,1,1,2,2,3,3,6,6,7,7,8,8],"right_children":[2,4,6,8,-1,-1,10,12,14,-1,-1,-1,-1,-1,-1],"split_conditions":[1.66E2,1.63E2,1E-45,5.8E1,8.87118E-2,2.41053E-2,5.9145474E0,1.3E2,1E-45,-8.1076495E-2,9.3242637E-4,1.8055212E-3,-3.5841968E-2,1.135537E-1,-8.800814E-3],"split_indices":[7,7,0,6,0,0,12,7,1,0,0,0,0,0,0],"split_type":[0,0,1,0,0,0,0,0,1,0,0,0,0,0,0],"sum_hessian":[3.194026E2,3.1296036E2,6.442246E0,3.1096973E2,1.9906225E0,1.1513181E0,5.290928E0,3.0819858E2,2.7711484E0,3.4102845E0,1.8806434E0,2.8753088E2,2.06677E1,1.6396353E0,1.1315131E0],"tree_param":{"num_deleted":"0","num_feature":"13","num_nodes":"15","size_leaf_vector":"1"}},{"base_weights":[-1.353582E-4,4.582772E-1,-8.719699E-3,8.563456E-1,-3.4069326E-2,5.2752778E-2,-7.169241E-2,5.3903353E-3,1.2563099E-1,4.3643724E-2,-3.8679123E-2,1.3742338E-1,-3.1113052E-1,1.2484101E-1,-2.0878911E-1,5.277446E-2,4.2724614E-3,-3.906193E-2,5.34076E-2,8.865818E-2,-1.9002513E-3,-1.2923633E-2,-7.462103E-2],"categories":[0,1,2,3,4,5,6,7,9,11,12,0,4,5,8,10,11,12,0,1,2,6,7,9,10,11,13,0,1,2,3,4,5,6,8,9,11,12,13,15,16,17,18,19,20,21,0,1,2,3,4,5,6,8,9,12,13,14,7,14,15,22],"categories_nodes":[1,2,5,11,13,14],"categories_segments":[0,11,18,27,46,58],"categories_sizes":[11,7,9,19,12,4],"default_left":[0,1,1,0,0,1,0,0,0,0,0,1,0,1,1,0,0,0,0,0,0,0,0],"id":46,"left_children":[1,3,5,7,9,11,13,-1,-1,-1,-1,15,17,19,21,-1,-1,-1,-1,-1,-1,-1,-1],"loss_changes":[1.2640121E0,1.1863785E0,1.2242938E0,9.923997E-1,7.6648915E-1,4.9761224E0,4.2338686E0,0E0,0E0,0E0,0E0,4.8044314E0,2.2598534E0,7.116972E0,3.852645E0,0E0,0E0,0E0,0E0,0E0,0E0,0E0,0E0],"parents":[2147483647,0,0,1,1,2,2,3,3,4,4,5,5,6,6,11,11,12,12,13,13,14,14],"right_children":[2,4,6,8,10,12,14,-1,-1,-1,-1,16,18,20,22,-1,-1,-1,-1,-1,-1,-1,-1],"split_conditions":[2E0,1E-45,1E-45,3.7169733E0,2.9313238E0,1E-45,3.2985926E0,5.3903353E-3,1.2563099E-1,4.3643724E-2,-3.8679123E-2,1E-45,2.5E1,1E-45,1E-45,5.277446E-2,4.2724614E-3,-3.906193E-2,5.34076E-2,8.865818E-2,-1.9002513E-3,-1.2923633E-2,-7.462103E-2],"split_indices":[11,10,10,12,12,0,12,0,0,0,0,1,6,0,1,0,0,0,0,0,0,0,0],"split_type":[0,1,1,0,0,1,0,0,0,0,0,1,0,1,1,0,0,0,0,0,0,0,0],"sum_hessian":[3.1919357E2,4.904473E0,3.142891E2,2.303085E0,2.601388E0,1.591211E2,1.55168E2,1.1435561E0,1.1595289E0,1.0129037E0,1.5884843E0,1.295897E2,2.9531387E1,6.3799023E1,9.136897E1,2.440918E1,1.0518053E2,2.7484415E1,2.0469728E0,9.313698E0,5.4485325E1,8.066836E1,1.070061E1],"tree_param":{"num_deleted":"0","num_feature":"13","num_nodes":"23","size_leaf_vector":"1"}},{"base_weights":[2.5430502E-4,7.1611675E-3,-5.500796E-1,3.2804374E-2,-1.5129466E-1,-3.5660823E-3,-7.133971E-2,5.0060026E-2,-3.7439182E-1,1.516547E-1,-3.268441E-1,2.4393294E-3,3.393035E-2,-5.581806E-2,6.780874E-2,3.588213E-2,-7.8914136E-2,9.709521E-3,-4.8329793E-2],"categories":[1,6,13,17,18,0,1,2,3,4,6,8,9,11,12,13,14,15,16,2,5,12,14],"categories_nodes":[3,4,10],"categories_segments":[0,5,19],"categories_sizes":[5,14,4],"default_left":[0,0,0,1,1,0,0,0,0,0,1,0,0,0,0,0,0,0,0],"id":47,"left_children":[1,3,5,7,9,-1,-1,11,13,15,17,-1,-1,-1,-1,-1,-1,-1,-1],"loss_changes":[1.2197489E0,1.292553E0,3.087175E-1,1.9409282E0,2.4064448E0,0E0,0E0,1.9466338E0,2.552582E0,3.5851376E0,1.9289484E0,0E0,0E0,0E0,0E0,0E0,0E0,0E0,0E0],"parents":[2147483647,0,0,1,1,2,2,3,3,4,4,7,7,8,8,9,9,10,10],"right_children":[2,4,6,8,10,-1,-1,12,14,16,18,-1,-1,-1,-1,-1,-1,-1,-1],"split_conditions":[4.2103745E3,3E0,4E0,1E-45,1E-45,-3.5660823E-3,-7.133971E-2,5.49E2,1.7E1,1.378245E1,1E-45,2.4393294E-3,3.393035E-2,-5.581806E-2,6.780874E-2,3.588213E-2,-7.8914136E-2,9.709521E-3,-4.8329793E-2],"split_indices":[12,11,3,1,1,0,0,8,3,12,0,0,0,0,0,0,0,0,0],"split_type":[0,0,0,1,1,0,0,0,0,0,1,0,0,0,0,0,0,0,0],"sum_hessian":[3.1885898E2,3.1588156E2,2.9774246E0,2.7256485E2,4.3316708E1,1.0110774E0,1.9663472E0,2.623254E2,1.0239437E1,1.5941771E1,2.7374937E1,2.4194055E2,2.0384857E1,9.117032E0,1.1224059E0,1.3571809E1,2.369962E0,7.4816055E0,1.9893332E1],"tree_param":{"num_deleted":"0","num_feature":"13","num_nodes":"19","size_leaf_vector":"1"}},{"base_weights":[-3.0073032E-4,1.3240559E-2,-2.8584006E-1,-1.0245393E-2,5.19894E-1,1.6327073E-1,-6.040783E-1,2.6682494E-2,-2.4456944E-1,9.644521E-1,-4.918985E-1,5.354754E-1,-6.731745E-2,-8.4172085E-2,-8.866169E-2,-4.47859E-3,1.978517E-2,-7.7328034E-2,4.2971442E-3,-2.6754353E-3,1.4743064E-1,-8.0744945E-2,3.2028582E-2,1.0961642E-1,-2.3577565E-2,8.0223605E-2,-7.037641E-2],"categories":[0,1,3,0,1,10,11,0,1,2,3,4,5,6,7,8,9,10,11,13,14],"categories_nodes":[4,6,11],"categories_segments":[0,3,7],"categories_sizes":[3,4,14],"default_left":[0,0,0,0,1,0,1,0,0,0,0,1,0,0,0,0,0,0,0,0,0,0,0,0,0,0,0],"id":48,"left_children":[1,3,5,7,9,11,13,15,17,19,21,23,-1,25,-1,-1,-1,-1,-1,-1,-1,-1,-1,-1,-1,-1,-1],"loss_changes":[1.2399544E0,3.6487248E0,2.1738086E0,2.5471048E0,6.584449E0,2.4802415E0,1.204911E0,3.1226285E0,6.1247873E0,4.979493E0,1.4910365E0,2.5369253E0,0E0,2.855835E0,0E0,0E0,0E0,0E0,0E0,0E0,0E0,0E0,0E0,0E0,0E0,0E0,0E0],"parents":[2147483647,0,0,1,1,2,2,3,3,4,4,5,5,6,6,7,7,8,8,9,9,10,10,11,11,13,13],"right_children":[2,4,6,8,10,12,14,16,18,20,22,24,-1,26,-1,-1,-1,-1,-1,-1,-1,-1,-1,-1,-1,-1,-1],"split_conditions":[5.64E2,5.49E2,2.2E1,5.06E2,1E-45,6.538815E0,1E-45,1.52E2,2.5612607E0,5E0,1.33E2,1E-45,-6.731745E-2,3E0,-8.866169E-2,-4.47859E-3,1.978517E-2,-7.7328034E-2,4.2971442E-3,-2.6754353E-3,1.4743064E-1,-8.0744945E-2,3.2028582E-2,1.0961642E-1,-2.3577565E-2,8.0223605E-2,-7.037641E-2],"split_indices":[8,8,6,8,10,12,1,8,12,3,7,0,0,4,0,0,0,0,0,0,0,0,0,0,0,0,0],"split_type":[0,0,0,0,1,0,1,0,0,0,0,1,0,0,0,0,0,0,0,0,0,0,0,0,0,0,0],"sum_hessian":[3.1870694E2,3.051875E2,1.3519445E1,2.926036E2,1.258388E1,5.808793E0,7.7106524E0,2.5353444E2,3.9069187E1,8.775097E0,3.8087842E0,4.268984E0,1.539809E0,3.1718915E0,4.538761E0,1.7937727E2,7.4157166E1,1.316781E1,2.5901377E1,3.3024116E0,5.472685E0,2.747249E0,1.0615352E0,2.2279873E0,2.0409968E0,1.1836883E0,1.9882033E0],"tree_param":{"num_deleted":"0","num_feature":"13","num_nodes":"27","size_leaf_vector":"1"}},{"base_weights":[-7.435798E-4,1.1098061E-1,-3.6643535E-2,-1.1762509E-2,7.218404E-1,-1.7574857E-1,5.672511E-2,7.344218E-2,-7.36514E-1,2.0741044E-1,1.9203416E-1,3.4866616E-1,-2.5164384E-1,6.030334E-1,-5.085916E-3,-8.76621E-2,1.2991788E-2,-9.196715E-2,1.5899023E-2,-4.2578626E-2,6.298082E-2,7.52674E-2,-2.9960131E-2,-8.0090836E-2,-1.8472005E-2,1.521911E-1,2.1137552E-2,3.4639366E-2,-1.1308748E-2],"categories":[7,15,19,21,0,1,2,3,4,5,6,7,9,10,11,12,0,1,2,4,5,8,9,10,12,14,3,5,7,11,12,14],"categories_nodes":[3,4,5,14],"categories_segments":[0,4,16,26],"categories_sizes":[4,12,10,6],"default_left":[0,0,0,1,1,1,0,0,0,0,0,0,0,0,1,0,0,0,0,0,0,0,0,0,0,0,0,0,0],"id":49,"left_children":[1,3,5,7,9,11,13,15,17,-1,19,21,23,25,27,-1,-1,-1,-1,-1,-1,-1,-1,-1,-1,-1,-1,-1,-1],"loss_changes":[1.2864907E0,5.8570642E0,3.1625881E0,4.1257763E0,8.963497E0,3.977565E0,4.933159E0,3.3283317E0,1.2987604E0,0E0,3.1055522E0,3.5714016E0,3.0117593E0,5.0219517E0,5.0556808E0,0E0,0E0,0E0,0E0,0E0,0E0,0E0,0E0,0E0,0E0,0E0,0E0,0E0,0E0],"parents":[2147483647,0,0,1,1,2,2,3,3,4,4,5,5,6,6,7,7,8,8,10,10,11,11,12,12,13,13,14,14],"right_children":[2,4,6,8,10,12,14,16,18,-1,20,22,24,26,28,-1,-1,-1,-1,-1,-1,-1,-1,-1,-1,-1,-1,-1,-1],"split_conditions":[1.1E1,3E0,8E0,1E-45,1E-45,1E-45,1E1,1E0,1.4E1,2.0741044E-1,2.5612607E0,4E0,8.442246E-1,1.3724134E0,1E-45,-8.76621E-2,1.2991788E-2,-9.196715E-2,1.5899023E-2,-4.2578626E-2,6.298082E-2,7.52674E-2,-2.9960131E-2,-8.0090836E-2,-1.8472005E-2,1.521911E-1,2.1137552E-2,3.4639366E-2,-1.1308748E-2],"split_indices":[7,6,6,1,10,0,6,3,3,0,12,6,12,12,0,0,0,0,0,0,0,0,0,0,0,0,0,0,0],"split_type":[0,0,0,1,1,1,0,0,0,0,0,0,0,0,1,0,0,0,0,0,0,0,0,0,0,0,0,0,0],"sum_hessian":[3.1873526E2,7.700299E1,2.4173227E2,6.493585E1,1.2067142E1,9.673282E1,1.4499945E2,5.8908943E1,6.0269065E0,2.576391E0,9.49075E0,1.1775238E1,8.495758E1,1.3848174E1,1.3115128E2,2.4904928E0,5.6418453E1,4.9811287E0,1.0457778E0,3.9473414E0,5.5434084E0,7.1550646E0,4.6201735E0,8.036017E0,7.692156E1,3.2761369E0,1.0572038E1,