{"learner":{"attributes":{"scikit_learn":"{\"_estimator_type\": \"classifier\"}"},"feature_names":["event_cause","corridor","priority","hour","dayofweek","is_weekend","corridor_count_1d","corridor_count_7d","corridor_count_30d","precipitation_mm","osm_highway_class","osm_lanes","dist_to_nearest_road_m"],"feature_types":["int","int","int","int","int","int","float","float","float","float","int","float","float"],"gradient_booster":{"model":{"cats":{"enc":[],"feature_segments":[],"sorted_idx":[]},"gbtree_model_param":{"num_parallel_tree":"1","num_trees":"100"},"iteration_indptr":[0,1,2,3,4,5,6,7,8,9,10,11,12,13,14,15,16,17,18,19,20,21,22,23,24,25,26,27,28,29,30,31,32,33,34,35,36,37,38,39,40,41,42,43,44,45,46,47,48,49,50,51,52,53,54,55,56,57,58,59,60,61,62,63,64,65,66,67,68,69,70,71,72,73,74,75,76,77,78,79,80,81,82,83,84,85,86,87,88,89,90,91,92,93,94,95,96,97,98,99,100],"tree_info":[0,0,0,0,0,0,0,0,0,0,0,0,0,0,0,0,0,0,0,0,0,0,0,0,0,0,0,0,0,0,0,0,0,0,0,0,0,0,0,0,0,0,0,0,0,0,0,0,0,0,0,0,0,0,0,0,0,0,0,0,0,0,0,0,0,0,0,0,0,0,0,0,0,0,0,0,0,0,0,0,0,0,0,0,0,0,0,0,0,0,0,0,0,0,0,0,0,0,0,0],"trees":[{"base_weights":[8.266205E-8,9.174284E-1,-3.4607762E-1,6.1288357E-1,4.471479E0,-5.322114E-1,1.161989E-2,-5.5608463E-1,1.121003E0,5.81741E-1,3.0541582E-2,-5.6906253E-1,1.1613406E0,5.267097E-1,-1.3536903E-1,-7.141689E-2,3.6770206E-2,2.4943137E-1,4.9935307E-2,-6.0159463E-2,4.1878667E-2,1.9330454E-1,-5.483824E-2,2.7849156E-2,1.5332517E-1,1.1572361E-1,-2.1804895E-2],"categories":[],"categories_nodes":[],"categories_segments":[],"categories_sizes":[],"default_left":[0,0,0,0,0,0,0,0,0,0,0,0,0,0,0,0,0,0,0,0,0,0,0,0,0,0,0],"id":0,"left_children":[1,3,5,7,9,11,13,15,17,-1,-1,19,21,23,25,-1,-1,-1,-1,-1,-1,-1,-1,-1,-1,-1,-1],"loss_changes":[1.1638956E2,1.0593693E2,1.7727837E1,5.6243954E1,4.176863E1,1.1588284E1,7.0428944E0,4.5034285E0,5.475978E1,0E0,0E0,5.780594E0,6.413756E0,4.731544E0,7.9933863E0,0E0,0E0,0E0,0E0,0E0,0E0,0E0,0E0,0E0,0E0,0E0,0E0],"parents":[2147483647,0,0,1,1,2,2,3,3,4,4,5,5,6,6,7,7,8,8,11,11,12,12,13,13,14,14],"right_children":[2,4,6,8,10,12,14,16,18,-1,-1,20,22,24,26,-1,-1,-1,-1,-1,-1,-1,-1,-1,-1,-1,-1],"split_conditions":[1.2E1,1.1E1,1E0,4E0,6.015853E0,4E0,1.2E1,1.4E1,5E0,5.81741E-1,3.0541582E-2,1.4E1,1.15E2,3E0,1E0,-7.141689E-2,3.6770206E-2,2.4943137E-1,4.9935307E-2,-6.0159463E-2,4.1878667E-2,1.9330454E-1,-5.483824E-2,2.7849156E-2,1.5332517E-1,1.1572361E-1,-2.1804895E-2],"split_indices":[0,0,2,0,12,11,7,3,0,0,0,0,7,6,3,0,0,0,0,0,0,0,0,0,0,0,0],"split_type":[0,0,0,0,0,0,0,0,0,0,0,0,0,0,0,0,0,0,0,0,0,0,0,0,0,0,0],"sum_hessian":[3.6457956E2,9.9407135E1,2.6517242E2,9.2641205E1,6.7659307E0,1.7409259E2,9.1079834E1,2.8039577E1,6.460162E1,4.81422E0,1.9517107E0,1.7103491E2,3.0576801E0,1.964722E1,7.143261E1,2.4136156E1,3.9034214E0,1.9191822E1,4.54098E1,1.6596046E2,5.074448E0,2.0167677E0,1.0409124E0,1.6784712E1,2.862509E0,3.5130794E0,6.791953E1],"tree_param":{"num_deleted":"0","num_feature":"13","num_nodes":"27","size_leaf_vector":"1"}},{"base_weights":[-1.4769852E-3,7.585921E-1,-3.2100627E-1,3.6449483E-1,2.2059972E0,-5.026893E-1,1.26957195E-2,1.5242934E-1,3.0049589E0,2.6581824E0,4.530057E-1,-5.3954494E-1,9.9453497E-1,8.394142E-2,-9.129319E-2,-6.376981E-2,5.069722E-2,3.0571396E-2,4.1222125E-1,2.88896E-1,1.1409091E-2,1.20429695E-1,-2.7397467E-2,-5.721236E-2,3.7181124E-2,1.7587268E-1,-2.5652234E-2,2.4540996E-2,-3.3522915E-2],"categories":[],"categories_nodes":[],"categories_segments":[],"categories_sizes":[],"default_left":[0,0,0,0,0,0,0,0,0,0,0,0,0,0,0,0,0,0,0,0,0,0,0,0,0,0,0,0,0],"id":1,"left_children":[1,3,5,7,9,11,13,15,17,19,21,23,25,27,-1,-1,-1,-1,-1,-1,-1,-1,-1,-1,-1,-1,-1,-1,-1],"loss_changes":[8.905947E1,6.11059E1,1.5658569E1,4.7980537E1,1.7050667E1,9.761963E0,6.1427245E0,2.3049835E1,1.7972965E1,1.0298187E1,3.5675242E0,5.0765038E0,4.627375E0,5.925067E0,0E0,0E0,0E0,0E0,0E0,0E0,0E0,0E0,0E0,0E0,0E0,0E0,0E0,0E0,0E0],"parents":[2147483647,0,0,1,1,2,2,3,3,4,4,5,5,6,6,7,7,8,8,9,9,10,10,11,11,12,12,13,13],"right_children":[2,4,6,8,10,12,14,16,18,20,22,24,26,28,-1,-1,-1,-1,-1,-1,-1,-1,-1,-1,-1,-1,-1,-1,-1],"split_conditions":[1.2E1,7E0,1E0,1.6E1,7.229338E0,4E0,1.59E2,4E0,3E0,1.5E1,3E0,1.4E1,4.17E2,1.29459305E1,-9.129319E-2,-6.376981E-2,5.069722E-2,3.0571396E-2,4.1222125E-1,2.88896E-1,1.1409091E-2,1.20429695E-1,-2.7397467E-2,-5.721236E-2,3.7181124E-2,1.7587268E-1,-2.5652234E-2,2.4540996E-2,-3.3522915E-2],"split_indices":[0,0,2,3,12,11,7,0,0,1,4,0,8,12,0,0,0,0,0,0,0,0,0,0,0,0,0,0,0],"split_type":[0,0,0,0,0,0,0,0,0,0,0,0,0,0,0,0,0,0,0,0,0,0,0,0,0,0,0,0,0],"sum_hessian":[3.6470193E2,1.0753433E2,2.571676E2,8.550499E1,2.2029345E1,1.6618324E2,9.098437E1,8.012739E1,5.3776E0,1.7101604E1,4.9277396E0,1.6281503E2,3.368215E0,8.532612E1,5.6582503E0,2.4570774E1,5.5556614E1,1.9471015E0,3.4304988E0,1.5555034E1,1.5465705E0,2.100462E0,2.827278E0,1.5755507E2,5.259953E0,1.8390582E0,1.5291569E0,6.189724E1,2.3428879E1],"tree_param":{"num_deleted":"0","num_feature":"13","num_nodes":"29","size_leaf_vector":"1"}},{"base_weights":[-2.386858E-3,6.424398E-1,-2.9804167E-1,-4.9985555E-1,9.732939E-1,-4.736407E-1,9.799225E-3,-6.6210264E-1,3.1898487E-1,2.8786165E-1,1.4892E0,-5.104206E-1,8.734473E-1,7.456518E-2,-8.963311E-2,2.712487E-2,-9.471818E-2,-6.75196E-2,1.0093241E-1,1.0524183E-1,-1.864918E-2,2.8768334E-1,1.0200639E-1,-5.428938E-2,3.3111416E-2,-5.6240737E-2,1.4586417E-1,1.3484358E-3,1.0144857E-1],"categories":[],"categories_nodes":[],"categories_segments":[],"categories_sizes":[],"default_left":[0,0,0,0,0,0,0,0,0,0,0,0,0,0,0,0,0,0,0,0,0,0,0,0,0,0,0,0,0],"id":2,"left_children":[1,3,5,7,9,11,13,15,17,19,21,23,25,27,-1,-1,-1,-1,-1,-1,-1,-1,-1,-1,-1,-1,-1,-1,-1],"loss_changes":[6.983488E1,4.4007465E1,1.3580772E1,3.7349472E0,3.1266815E1,8.37035E0,5.477916E0,6.2336407E0,4.1550765E0,1.4605642E1,3.020108E1,4.451664E0,4.702118E0,4.979703E0,0E0,0E0,0E0,0E0,0E0,0E0,0E0,0E0,0E0,0E0,0E0,0E0,0E0,0E0,0E0],"parents":[2147483647,0,0,1,1,2,2,3,3,4,4,5,5,6,6,7,7,8,8,9,9,10,10,11,11,12,12,13,13],"right_children":[2,4,6,8,10,12,14,16,18,20,22,24,26,28,-1,-1,-1,-1,-1,-1,-1,-1,-1,-1,-1,-1,-1,-1,-1],"split_conditions":[1.2E1,4E0,1E0,1.4E1,5E0,4E0,1.59E2,6.1E1,6E0,2.7102475E0,5E0,1.4E1,2E0,1.4E1,-8.963311E-2,2.712487E-2,-9.471818E-2,-6.75196E-2,1.0093241E-1,1.0524183E-1,-1.864918E-2,2.8768334E-1,1.0200639E-1,-5.428938E-2,3.3111416E-2,-5.6240737E-2,1.4586417E-1,1.3484358E-3,1.0144857E-1],"split_indices":[0,0,2,3,3,11,7,8,10,12,0,0,4,0,0,0,0,0,0,0,0,0,0,0,0,0,0,0,0],"split_type":[0,0,0,0,0,0,0,0,0,0,0,0,0,0,0,0,0,0,0,0,0,0,0,0,0,0,0,0,0],"sum_hessian":[3.6430197E2,1.141552E2,2.5014677E2,2.5523354E1,8.863184E1,1.5894345E2,9.120333E1,2.1462194E1,4.061159E0,3.8731365E1,4.990048E1,1.553237E2,3.6197538E0,8.597588E1,5.2274437E0,5.0329137E0,1.6429281E1,1.6733079E0,2.387851E0,1.4362861E1,2.4368504E1,1.1311268E1,3.858921E1,1.4989444E2,5.4292502E0,1.0593741E0,2.5603797E0,8.168211E1,4.293773E0],"tree_param":{"num_deleted":"0","num_feature":"13","num_nodes":"29","size_leaf_vector":"1"}},{"base_weights":[-3.3577513E-3,5.4769087E-1,-2.76031E-1,3.5380098E-1,2.1141982E0,-4.4544387E-1,8.549207E-3,-4.7335696E-1,5.9869045E-1,2.4356215E0,-5.9072625E-2,-4.8177123E-1,7.554224E-1,4.3495682E-1,-1.21792234E-1,-6.356249E-2,2.8433321E-2,1.3117927E-1,2.1095132E-2,2.7324694E-1,9.081014E-2,-5.1398773E-2,2.9565448E-2,1.2531748E-1,-5.501278E-2,-7.156913E-2,5.8506966E-2,9.738159E-2,-1.9941026E-2],"categories":[],"categories_nodes":[],"categories_segments":[],"categories_sizes":[],"default_left":[0,0,0,0,0,0,0,0,0,0,0,0,0,0,0,0,0,0,0,0,0,0,0,0,0,0,0,0,0],"id":3,"left_children":[1,3,5,7,9,11,13,15,17,19,-1,21,23,25,27,-1,-1,-1,-1,-1,-1,-1,-1,-1,-1,-1,-1,-1,-1],"loss_changes":[5.4959614E1,3.6028297E1,1.1800419E1,2.2351994E1,1.2858692E1,7.055744E0,5.18221E0,3.309216E0,2.3087826E1,2.9305344E0,0E0,3.8963928E0,3.8694265E0,4.1884027E0,6.271373E0,0E0,0E0,0E0,0E0,0E0,0E0,0E0,0E0,0E0,0E0,0E0,0E0,0E0,0E0],"parents":[2147483647,0,0,1,1,2,2,3,3,4,4,5,5,6,6,7,7,8,8,9,9,11,11,12,12,13,13,14,14],"right_children":[2,4,6,8,10,12,14,16,18,20,-1,22,24,26,28,-1,-1,-1,-1,-1,-1,-1,-1,-1,-1,-1,-1,-1,-1],"split_conditions":[1.2E1,1.1E1,1E0,4E0,1.1045262E1,4E0,1.2E1,1.4E1,5E0,1.54E2,-5.9072625E-2,1.4E1,1.15E2,2E0,1E0,-6.356249E-2,2.8433321E-2,1.3117927E-1,2.1095132E-2,2.7324694E-1,9.081014E-2,-5.1398773E-2,2.9565448E-2,1.2531748E-1,-5.501278E-2,-7.156913E-2,5.8506966E-2,9.738159E-2,-1.9941026E-2],"split_indices":[0,0,2,0,12,11,7,3,0,8,0,0,7,3,3,0,0,0,0,0,0,0,0,0,0,0,0,0,0],"split_type":[0,0,0,0,0,0,0,0,0,0,0,0,0,0,0,0,0,0,0,0,0,0,0,0,0,0,0,0,0],"sum_hessian":[3.637665E2,1.20082245E2,2.4368425E2,1.0794724E2,1.2135004E1,1.5239626E2,9.1287994E1,2.4445444E1,8.35018E1,1.0935152E1,1.1998519E0,1.4850273E2,3.8935375E0,2.0824451E1,7.046354E1,2.026629E1,4.1791534E0,2.8571653E1,5.493014E1,8.495389E0,2.439763E0,1.4291904E2,5.583695E0,2.847877E0,1.0456604E0,1.9684167E0,1.8856035E1,3.897836E0,6.6565704E1],"tree_param":{"num_deleted":"0","num_feature":"13","num_nodes":"29","size_leaf_vector":"1"}},{"base_weights":[-3.542528E-3,4.740196E-1,-2.551496E-1,2.016924E-1,1.303854E0,-4.180396E-1,7.7464175E-3,4.17464E-2,1.7365863E0,-6.975002E-2,1.4403515E0,-4.5368296E-1,6.574548E-1,6.611939E-2,-8.777668E-2,-6.968656E-2,2.119759E-2,2.2009855E-2,2.1721406E-1,1.5555373E-1,-6.2399145E-2,-4.85495E-2,2.6460364E-2,1.13095574E-1,-5.771009E-2,2.0352585E-2,-3.1167641E-2],"categories":[],"categories_nodes":[],"categories_segments":[],"categories_sizes":[],"default_left":[0,0,0,0,0,0,0,0,0,0,0,0,0,0,0,0,0,0,0,0,0,0,0,0,0,0,0],"id":4,"left_children":[1,3,5,7,9,11,13,15,17,-1,19,21,23,25,-1,-1,-1,-1,-1,-1,-1,-1,-1,-1,-1,-1,-1],"loss_changes":[4.380488E1,2.8165638E1,1.022753E1,2.3470514E1,9.445831E0,5.9500885E0,4.830119E0,1.1196259E1,5.4833736E0,0E0,7.9265137E0,3.402834E0,3.656025E0,4.6078587E0,0E0,0E0,0E0,0E0,0E0,0E0,0E0,0E0,0E0,0E0,0E0,0E0,0E0],"parents":[2147483647,0,0,1,1,2,2,3,3,4,4,5,5,6,6,7,7,8,8,10,10,11,11,12,12,13,13],"right_children":[2,4,6,8,10,12,14,16,18,-1,20,22,24,26,-1,-1,-1,-1,-1,-1,-1,-1,-1,-1,-1,-1,-1],"split_conditions":[1.2E1,7E0,1E0,1.6E1,4E0,4E0,1.59E2,3E0,3E0,-6.975002E-2,5.64E2,1.4E1,1.2709804E1,1.29459305E1,-8.777668E-2,-6.968656E-2,2.119759E-2,2.2009855E-2,2.1721406E-1,1.5555373E-1,-6.2399145E-2,-4.85495E-2,2.6460364E-2,1.13095574E-1,-5.771009E-2,2.0352585E-2,-3.1167641E-2],"split_indices":[0,0,2,3,7,11,7,0,0,0,8,0,12,12,0,0,0,0,0,0,0,0,0,0,0,0,0],"split_type":[0,0,0,0,0,0,0,0,0,0,0,0,0,0,0,0,0,0,0,0,0,0,0,0,0,0,0],"sum_hessian":[3.625541E2,1.2479788E2,2.3775624E2,9.4898155E1,2.9899725E1,1.4643512E2,9.132112E1,8.687265E1,8.025501E0,1.646623E0,2.8253101E1,1.4229735E2,4.137766E0,8.654163E1,4.7794867E0,1.5692121E1,7.1180534E1,2.1265905E0,5.8989105E0,2.6993404E1,1.2596974E0,1.365728E2,5.72455E0,3.0513642E0,1.086402E0,6.3798897E1,2.2742737E1],"tree_param":{"num_deleted":"0","num_feature":"13","num_nodes":"27","size_leaf_vector":"1"}},{"base_weights":[-4.403351E-3,4.1147912E-1,-2.3592682E-1,-4.2575106E-1,5.9242773E-1,-3.914597E-1,5.4967753E-3,-5.8865494E-1,2.5258663E-1,-1.3569136E-1,8.453632E-1,-4.2624354E-1,5.734673E-1,7.180636E-1,-5.958214E-2,3.608957E-2,-9.1431014E-2,-4.705238E-2,1.0139861E-1,4.1949302E-2,-5.3010266E-2,1.7952962E-1,4.9919765E-2,-6.621316E-3,-4.913911E-2,-5.7672303E-2,1.00496665E-1,1.1068737E-1,-6.290332E-2,1.6128018E-2,-3.857745E-2],"categories":[],"categories_nodes":[],"categories_segments":[],"categories_sizes":[],"default_left":[0,0,0,0,0,0,0,0,0,0,0,0,0,0,0,0,0,0,0,0,0,0,0,0,0,0,0,0,0,0,0],"id":5,"left_children":[1,3,5,7,9,11,13,15,17,19,21,23,25,27,29,-1,-1,-1,-1,-1,-1,-1,-1,-1,-1,-1,-1,-1,-1,-1,-1],"loss_changes":[3.5000774E1,1.9946653E1,8.769847E0,2.7659898E0,1.987857E1,5.011324E0,4.331082E0,6.3286057E0,3.3876188E0,6.469526E0,2.533989E1,3.1962051E0,3.2437344E0,4.7897377E0,6.233357E0,0E0,0E0,0E0,0E0,0E0,0E0,0E0,0E0,0E0,0E0,0E0,0E0,0E0,0E0,0E0,0E0],"parents":[2147483647,0,0,1,1,2,2,3,3,4,4,5,5,6,6,7,7,8,8,9,9,10,10,11,11,12,12,13,13,14,14],"right_children":[2,4,6,8,10,12,14,16,18,20,22,24,26,28,30,-1,-1,-1,-1,-1,-1,-1,-1,-1,-1,-1,-1,-1,-1,-1,-1],"split_conditions":[1.2E1,4E0,1E0,1.4E1,3E0,4E0,1.9E1,6.1E1,7E0,2E0,5E0,2E0,2E0,7E0,4E0,3.608957E-2,-9.1431014E-2,-4.705238E-2,1.0139861E-1,4.1949302E-2,-5.3010266E-2,1.7952962E-1,4.9919765E-2,-6.621316E-3,-4.913911E-2,-5.7672303E-2,1.00496665E-1,1.1068737E-1,-6.290332E-2,1.6128018E-2,-3.857745E-2],"split_indices":[0,0,2,3,3,11,8,8,10,3,0,3,4,7,4,0,0,0,0,0,0,0,0,0,0,0,0,0,0,0,0],"split_type":[0,0,0,0,0,0,0,0,0,0,0,0,0,0,0,0,0,0,0,0,0,0,0,0,0,0,0,0,0,0,0],"sum_hessian":[3.6149814E2,1.2899997E2,2.3249817E2,2.2685175E1,1.06314804E2,1.4102429E2,9.147388E1,1.8398867E1,4.286309E0,2.7529587E1,7.878521E1,1.3665634E2,4.3679476E0,6.815489E0,8.465839E1,4.670968E0,1.37279E1,2.3943717E0,1.8919368E0,1.1407907E1,1.6121681E1,1.9924097E1,5.8861115E1,2.1248E1,1.1540835E2,1.0998005E0,3.2681472E0,5.4273343E0,1.3881545E0,5.0780724E1,3.3877666E1],"tree_param":{"num_deleted":"0","num_feature":"13","num_nodes":"31","size_leaf_vector":"1"}},{"base_weights":[-4.919234E-3,3.5887843E-1,-2.1760102E-1,1.3314189E-1,9.9663955E-1,-3.6590454E-1,4.588914E-3,2.3973218E-4,1.2625705E0,1.74711E0,6.5877086E-1,-3.9963838E-1,5.0218767E-1,5.7880964E-2,-8.6163096E-2,-6.530046E-2,1.2952988E-2,1.5499394E-1,-6.462016E-2,-1.4352589E-2,1.9942684E-1,8.041201E-2,-3.2869797E-2,-4.322956E-2,2.8661681E-2,8.995404E-2,-5.720107E-2,1.793486E-2,-2.9053733E-2],"categories":[],"categories_nodes":[],"categories_segments":[],"categories_sizes":[],"default_left":[0,0,0,0,0,0,0,0,0,0,0,0,0,0,0,0,0,0,0,0,0,0,0,0,0,0,0,0,0],"id":6,"left_children":[1,3,5,7,9,11,13,15,17,19,21,23,25,27,-1,-1,-1,-1,-1,-1,-1,-1,-1,-1,-1,-1,-1,-1,-1],"loss_changes":[2.8040277E1,1.9116606E1,7.537259E0,1.4996172E1,7.6728897E0,4.217266E0,4.321199E0,7.718677E0,6.771139E0,5.051655E0,3.9388618E0,3.0952969E0,2.8936136E0,3.78073E0,0E0,0E0,0E0,0E0,0E0,0E0,0E0,0E0,0E0,0E0,0E0,0E0,0E0,0E0,0E0],"parents":[2147483647,0,0,1,1,2,2,3,3,4,4,5,5,6,6,7,7,8,8,9,9,10,10,11,11,12,12,13,13],"right_children":[2,4,6,8,10,12,14,16,18,20,22,24,26,28,-1,-1,-1,-1,-1,-1,-1,-1,-1,-1,-1,-1,-1,-1,-1],"split_conditions":[1.2E1,7E0,1E0,1.6E1,1.5122515E0,4E0,1.59E2,3E0,5.58E2,6E0,1.2709804E1,1.4E1,1.15E2,1.29459305E1,-8.6163096E-2,-6.530046E-2,1.2952988E-2,1.5499394E-1,-6.462016E-2,-1.4352589E-2,1.9942684E-1,8.041201E-2,-3.2869797E-2,-4.322956E-2,2.8661681E-2,8.995404E-2,-5.720107E-2,1.793486E-2,-2.9053733E-2],"split_indices":[0,0,2,3,12,11,7,0,8,7,12,0,7,12,0,0,0,0,0,0,0,0,0,0,0,0,0,0,0],"split_type":[0,0,0,0,0,0,0,0,0,0,0,0,0,0,0,0,0,0,0,0,0,0,0,0,0,0,0,0,0],"sum_hessian":[3.6039395E2,1.3270729E2,2.2768665E2,9.890757E1,3.3799725E1,1.3615886E2,9.1527794E1,8.9389175E1,9.518394E0,9.198077E0,2.4601646E1,1.3158513E2,4.573729E0,8.710223E1,4.4255705E0,1.4099604E1,7.528957E1,8.436289E0,1.0821058E0,1.1119008E0,8.086176E0,2.1606918E1,2.9947276E0,1.25961006E2,5.6241164E0,3.4574063E0,1.1163226E0,6.494572E1,2.215651E1],"tree_param":{"num_deleted":"0","num_feature":"13","num_nodes":"29","size_leaf_vector":"1"}},{"base_weights":[-5.0296667E-3,3.1617448E-1,-2.0066893E-1,1.8796474E-1,1.1797446E0,-2.4011269E-1,5.3174615E-1,-5.19371E-1,2.998279E-1,1.406289E0,-7.514883E-2,-3.7034485E-1,-4.8751526E-2,1.2062671E0,-2.669278E-1,-8.7609805E-2,2.2197142E-2,6.861382E-2,3.8237274E-3,2.2985004E-1,6.964194E-2,-4.055461E-2,4.414777E-2,-5.2712798E-2,3.2644041E-3,1.6725326E-2,2.0545264E-1,-7.2695486E-2,1.2996602E-2],"categories":[],"categories_nodes":[],"categories_segments":[],"categories_sizes":[],"default_left":[0,0,0,0,0,0,0,0,0,0,0,0,0,0,0,0,0,0,0,0,0,0,0,0,0,0,0,0,0],"id":7,"left_children":[1,3,5,7,9,11,13,15,17,19,-1,21,23,25,27,-1,-1,-1,-1,-1,-1,-1,-1,-1,-1,-1,-1,-1,-1],"loss_changes":[2.2684029E1,1.4907519E1,6.6082077E0,9.66428E0,8.702353E0,5.303876E0,6.665188E0,4.6309104E0,1.0523515E1,8.525776E0,0E0,3.8060207E0,3.4293277E0,5.4421053E0,1.2282999E0,0E0,0E0,0E0,0E0,0E0,0E0,0E0,0E0,0E0,0E0,0E0,0E0,0E0,0E0],"parents":[2147483647,0,0,1,1,2,2,3,3,4,4,5,5,6,6,7,7,8,8,9,9,11,11,12,12,13,13,14,14],"right_children":[2,4,6,8,10,12,14,16,18,20,-1,22,24,26,28,-1,-1,-1,-1,-1,-1,-1,-1,-1,-1,-1,-1,-1,-1],"split_conditions":[1.2E1,1.1E1,1.4E1,3E0,1.2E1,1E0,4.7E1,7E0,5E0,2.1077342E0,-7.514883E-2,4E0,1.0859499E0,9E0,1.48E2,-8.7609805E-2,2.2197142E-2,6.861382E-2,3.8237274E-3,2.2985004E-1,6.964194E-2,-4.055461E-2,4.414777E-2,-5.2712798E-2,3.2644041E-3,1.6725326E-2,2.0545264E-1,-7.2695486E-2,1.2996602E-2],"split_indices":[0,0,0,0,1,2,8,10,0,12,0,11,12,7,8,0,0,0,0,0,0,0,0,0,0,0,0,0,0],"split_type":[0,0,0,0,0,0,0,0,0,0,0,0,0,0,0,0,0,0,0,0,0,0,0,0,0,0,0,0,0],"sum_hessian":[3.5897025E2,1.3564677E2,2.2332347E2,1.19171646E2,1.647513E1,2.1254893E2,1.07745285E1,1.5775668E1,1.0339597E2,1.4988691E1,1.486439E0,1.25918755E2,8.663019E1,5.564601E0,5.2099276E0,1.0527946E1,5.2477226E0,4.109096E1,6.2305016E1,5.6497674E0,9.338923E0,1.2116538E2,4.7533746E0,1.1800484E1,7.4829704E1,3.039166E0,2.5254352E0,2.0278733E0,3.182054E0],"tree_param":{"num_deleted":"0","num_feature":"13","num_nodes":"29","size_leaf_vector":"1"}},{"base_weights":[-4.546553E-3,-2.0548038E-1,2.5273576E-1,-2.6057386E-1,6.419269E-1,5.9690243E-1,4.238335E-3,-1.20074235E-1,-4.865459E-1,9.636033E-1,-3.5965028E-1,-4.8347777E-1,7.515781E-1,5.3053822E-2,-8.449098E-2,-3.1660438E-2,2.7893478E-2,-3.1433396E-2,-8.5282974E-2,1.4098303E-1,-7.0541375E-3,2.5702585E-2,-7.703698E-2,-7.620843E-2,4.4129502E-2,1.2399172E-1,3.663216E-2,1.9825833E-2,-1.9569295E-2],"categories":[],"categories_nodes":[],"categories_segments":[],"categories_sizes":[],"default_left":[0,0,0,0,0,0,0,0,0,0,0,0,0,0,0,0,0,0,0,0,0,0,0,0,0,0,0,0,0],"id":8,"left_children":[1,3,5,7,9,11,13,15,17,19,21,23,25,27,-1,-1,-1,-1,-1,-1,-1,-1,-1,-1,-1,-1,-1,-1,-1],"loss_changes":[1.8575624E1,9.585852E0,1.3473923E1,5.978219E0,4.407378E0,1.1402884E1,3.8796031E0,9.386148E0,4.309387E0,4.627261E0,1.1584939E0,2.6247268E0,1.049152E1,3.2325954E0,0E0,0E0,0E0,0E0,0E0,0E0,0E0,0E0,0E0,0E0,0E0,0E0,0E0,0E0,0E0],"parents":[2147483647,0,0,1,1,2,2,3,3,4,4,5,5,6,6,7,7,8,8,9,9,10,10,11,11,12,12,13,13],"right_children":[2,4,6,8,10,12,14,16,18,20,22,24,26,28,-1,-1,-1,-1,-1,-1,-1,-1,-1,-1,-1,-1,-1,-1,-1],"split_conditions":[1E0,1.6E1,1.2E1,1.3E1,3E0,3E0,1.59E2,1E1,4.63E2,1.9E1,8E0,7E0,3.0949519E0,7.694177E0,-8.449098E-2,-3.1660438E-2,2.7893478E-2,-3.1433396E-2,-8.5282974E-2,1.4098303E-1,-7.0541375E-3,2.5702585E-2,-7.703698E-2,-7.620843E-2,4.4129502E-2,1.2399172E-1,3.663216E-2,1.9825833E-2,-1.9569295E-2],"split_indices":[2,3,0,1,11,0,7,1,8,3,1,10,12,12,0,0,0,0,0,0,0,0,0,0,0,0,0,0,0],"split_type":[0,0,0,0,0,0,0,0,0,0,0,0,0,0,0,0,0,0,0,0,0,0,0,0,0,0,0,0,0],"sum_hessian":[3.5731464E2,2.007405E2,1.5657413E2,1.8913646E2,1.1604045E1,6.506192E1,9.1512215E1,1.17568695E2,7.1567764E1,8.811856E0,2.792189E0,7.881985E0,5.717993E1,8.742394E1,4.088271E0,7.890896E1,3.8659737E1,4.9944183E1,2.1623577E1,5.90193E0,2.9099264E0,1.2658219E0,1.526367E0,6.1923404E0,1.6896449E0,2.4238077E1,3.2941856E1,5.5328953E1,3.209499E1],"tree_param":{"num_deleted":"0","num_feature":"13","num_nodes":"29","size_leaf_vector":"1"}},{"base_weights":[-5.089235E-3,2.5832894E-1,-1.7476171E-1,8.551963E-2,7.076237E-1,-5.4690915E-1,-1.0596941E-1,-2.4325008E-2,9.34263E-1,-7.135893E-2,7.924718E-1,-6.757688E-1,2.5360098E-1,1.8586913E-2,-4.220237E-1,1.2414934E-2,-4.4514008E-2,1.15419924E-1,-6.464256E-2,8.744669E-2,-6.9641486E-2,-8.449649E-2,1.2885797E-2,8.2634196E-2,-6.535012E-2,-4.5567136E-3,1.02591746E-1,-4.8931688E-2,6.2428802E-2],"categories":[],"categories_nodes":[],"categories_segments":[],"categories_sizes":[],"default_left":[0,0,0,0,0,0,0,0,0,0,0,0,0,0,0,0,0,0,0,0,0,0,0,0,0,0,0,0,0],"id":9,"left_children":[1,3,5,7,9,11,13,15,17,-1,19,21,23,25,27,-1,-1,-1,-1,-1,-1,-1,-1,-1,-1,-1,-1,-1,-1],"loss_changes":[1.6017971E1,1.084147E1,5.522075E0,9.583099E0,5.252329E0,3.654313E0,7.298444E0,5.789079E0,4.840089E0,0E0,5.1444225E0,4.1053896E0,3.3500135E0,8.693613E0,3.9946442E0,0E0,0E0,0E0,0E0,0E0,0E0,0E0,0E0,0E0,0E0,0E0,0E0,0E0,0E0],"parents":[2147483647,0,0,1,1,2,2,3,3,4,4,5,5,6,6,7,7,8,8,10,10,11,11,12,12,13,13,14,14],"right_children":[2,4,6,8,10,12,14,16,18,-1,20,22,24,26,28,-1,-1,-1,-1,-1,-1,-1,-1,-1,-1,-1,-1,-1,-1],"split_conditions":[1.2E1,7E0,5E0,1.6E1,4E0,2.033343E1,1.2E1,1.3E1,5.58E2,-7.135893E-2,5.64E2,5.32E2,9.960502E1,1.4E1,1.5E1,1.2414934E-2,-4.4514008E-2,1.15419924E-1,-6.464256E-2,8.744669E-2,-6.9641486E-2,-8.449649E-2,1.2885797E-2,8.2634196E-2,-6.535012E-2,-4.5567136E-3,1.02591746E-1,-4.8931688E-2,6.2428802E-2],"split_indices":[0,0,1,3,7,12,1,1,8,0,8,8,12,0,3,0,0,0,0,0,0,0,0,0,0,0,0,0,0],"split_type":[0,0,0,0,0,0,0,0,0,0,0,0,0,0,0,0,0,0,0,0,0,0,0,0,0,0,0,0,0],"sum_hessian":[3.5637534E2,1.3941292E2,2.1696243E2,1.015462E2,3.7866714E1,3.2764633E1,1.841978E2,9.077006E1,1.0776149E1,1.7158518E0,3.615086E1,2.835595E1,4.408684E0,1.32802E2,5.1395794E1,6.761776E1,2.31523E1,9.696759E0,1.0793896E0,3.465503E1,1.4958308E0,2.3387846E1,4.968104E0,2.7569728E0,1.6517111E0,1.25748215E2,7.0537863E0,4.879021E1,2.605584E0],"tree_param":{"num_deleted":"0","num_feature":"13","num_nodes":"29","size_leaf_vector":"1"}},{"base_weights":[-5.433198E-3,2.2780928E-1,-1.6031466E-1,-3.7633967E-1,3.3453912E-1,-5.201929E-1,-9.620563E-2,2.4676949E-1,-5.458959E-1,-1.980491E-1,5.025354E-1,-6.499974E-1,2.2436348E-1,-4.201824E-2,-8.127041E-1,-6.5100394E-2,7.904408E-2,-8.194282E-2,2.7866324E-2,2.4458334E-2,-5.3839386E-2,1.1829098E-1,2.4134438E-2,-8.252186E-2,1.1693456E-2,1.1625613E-1,-3.324976E-2,5.095355E-3,-4.82564E-2,-9.552005E-2,5.635369E-3],"categories":[],"categories_nodes":[],"categories_segments":[],"categories_sizes":[],"default_left":[0,0,0,0,0,0,0,0,0,0,0,0,0,0,0,0,0,0,0,0,0,0,0,0,0,0,0,0,0,0,0],"id":10,"left_children":[1,3,5,7,9,11,13,15,17,19,21,23,25,27,29,-1,-1,-1,-1,-1,-1,-1,-1,-1,-1,-1,-1,-1,-1,-1,-1],"loss_changes":[1.2900148E1,9.31506E0,4.9005566E0,2.44498E0,1.0983309E1,3.2596216E0,7.0847883E0,3.1337528E0,4.1755023E0,4.6340466E0,1.6198092E1,3.8177986E0,3.2737925E0,7.049811E0,1.6436005E0,0E0,0E0,0E0,0E0,0E0,0E0,0E0,0E0,0E0,0E0,0E0,0E0,0E0,0E0,0E0,0E0],"parents":[2147483647,0,0,1,1,2,2,3,3,4,4,5,5,6,6,7,7,8,8,9,9,10,10,11,11,12,12,13,13,14,14],"right_children":[2,4,6,8,10,12,14,16,18,20,22,24,26,28,30,-1,-1,-1,-1,-1,-1,-1,-1,-1,-1,-1,-1,-1,-1,-1,-1],"split_conditions":[1.2E1,4E0,5E0,1.4E1,3E0,2.033343E1,1.56E2,1.1E1,1.4E1,2E0,5E0,5.32E2,2E0,1.6E1,1.3E1,-6.5100394E-2,7.904408E-2,-8.194282E-2,2.7866324E-2,2.4458334E-2,-5.3839386E-2,1.1829098E-1,2.4134438E-2,-8.252186E-2,1.1693456E-2,1.1625613E-1,-3.324976E-2,5.095355E-3,-4.82564E-2,-9.552005E-2,5.635369E-3],"split_indices":[0,0,1,7,3,12,7,1,3,3,0,8,3,1,3,0,0,0,0,0,0,0,0,0,0,0,0,0,0,0,0],"split_type":[0,0,0,0,0,0,0,0,0,0,0,0,0,0,0,0,0,0,0,0,0,0,0,0,0,0,0,0,0,0,0],"sum_hessian":[3.550872E2,1.415102E2,2.1357698E2,2.0866777E1,1.2064342E2,3.1218222E1,1.8235876E2,4.366128E0,1.650065E1,2.8886728E1,9.175669E1,2.6691822E1,4.526399E0,1.7052122E2,1.1837546E1,1.5723156E0,2.7938125E0,1.2395045E1,4.105604E0,1.2678796E1,1.6207933E1,2.4474457E1,6.7282234E1,2.1665825E1,5.025997E0,1.2808024E0,3.2455966E0,1.415361E2,2.898512E1,1.00848465E1,1.7526993E0],"tree_param":{"num_deleted":"0","num_feature":"13","num_nodes":"31","size_leaf_vector":"1"}},{"base_weights":[-5.983161E-3,-1.7017898E-1,1.8828928E-1,-5.9288047E-2,-4.3843773E-1,2.9884964E-1,-2.4058402E-1,-2.399734E-1,3.820787E-1,-2.3203714E-1,-7.5833875E-1,3.8227692E-1,-4.436254E-1,-3.9152494E-1,1.3384218E0,-3.8430694E-2,4.902855E-3,-3.9511193E-2,6.592979E-2,4.3995902E-2,-3.322758E-2,-8.342293E-2,3.7794404E-2,3.190013E-2,1.6120379E-1,-8.986338E-2,-8.719426E-3,-5.8318775E-2,-1.2712966E-2,1.600927E-1,4.104751E-2],"categories":[],"categories_nodes":[],"categories_segments":[],"categories_sizes":[],"default_left":[0,0,0,0,0,0,0,0,0,0,0,0,0,0,0,0,0,0,0,0,0,0,0,0,0,0,0,0,0,0,0],"id":11,"left_children":[1,3,5,7,9,11,13,15,17,19,21,23,25,27,29,-1,-1,-1,-1,-1,-1,-1,-1,-1,-1,-1,-1,-1,-1,-1,-1],"loss_changes":[1.1353298E1,5.7114186E0,7.8027515E0,1.1066486E1,3.5382986E0,8.226556E0,8.62043E0,4.117466E0,8.95595E0,2.54643E0,2.1796484E0,8.626518E0,2.1275764E0,1.5363102E0,1.19987965E-1,0E0,0E0,0E0,0E0,0E0,0E0,0E0,0E0,0E0,0E0,0E0,0E0,0E0,0E0,0E0,0E0],"parents":[2147483647,0,0,1,1,2,2,3,3,4,4,5,5,6,6,7,7,8,8,9,9,10,10,11,11,12,12,13,13,14,14],"right_children":[2,4,6,8,10,12,14,16,18,20,22,24,26,28,30,-1,-1,-1,-1,-1,-1,-1,-1,-1,-1,-1,-1,-1,-1,-1,-1],"split_conditions":[1E0,4.68E2,1.29459305E1,3.8E1,1.3E1,1.35E2,1.8E1,1E1,5E0,5E0,5E1,5.54E2,6E0,6E0,1.9E1,-3.8430694E-2,4.902855E-3,-3.9511193E-2,6.592979E-2,4.3995902E-2,-3.322758E-2,-8.342293E-2,3.7794404E-2,3.190013E-2,1.6120379E-1,-8.986338E-2,-8.719426E-3,-5.8318775E-2,-1.2712966E-2,1.600927E-1,4.104751E-2],"split_indices":[2,8,12,7,1,7,3,3,1,0,6,8,3,10,3,0,0,0,0,0,0,0,0,0,0,0,0,0,0,0,0],"split_type":[0,0,0,0,0,0,0,0,0,0,0,0,0,0,0,0,0,0,0,0,0,0,0,0,0,0,0,0,0,0,0],"sum_hessian":[3.5391245E2,1.9187062E2,1.6204182E2,1.366176E2,5.5253025E1,1.2907137E2,3.297046E1,9.725851E1,3.9359093E1,3.463306E1,2.0619963E1,1.16469536E2,1.2601824E1,3.0780153E1,2.190305E0,6.464413E1,3.261438E1,1.023625E1,2.912284E1,4.055568E0,3.0577494E1,1.9578192E1,1.0417714E0,1.119678E2,4.5017447E0,4.867251E0,7.734573E0,1.7145481E1,1.3634673E1,1.1420084E0,1.0482965E0],"tree_param":{"num_deleted":"0","num_feature":"13","num_nodes":"31","size_leaf_vector":"1"}},{"base_weights":[-5.768237E-3,1.971729E-1,-1.4467752E-1,4.9457688E-2,5.659341E-1,-1.7949574E-1,4.193285E-1,2.6038522E-1,-2.2918025E-1,-2.5323108E-1,6.892355E-1,1.6315107E-1,-2.3748982E-1,1.0301948E0,-2.1821238E-1,-3.5206124E-2,5.7952177E-2,-5.5113103E-2,5.9229615E-3,-7.514296E-2,1.5531792E-2,7.6594E-2,-6.8207934E-2,-3.2950465E-2,5.583799E-2,-7.06041E-2,-1.6443461E-2,8.625307E-3,1.9422303E-1,4.2196564E-2,-4.019185E-2],"categories":[],"categories_nodes":[],"categories_segments":[],"categories_sizes":[],"default_left":[0,0,0,0,0,0,0,0,0,0,0,0,0,0,0,0,0,0,0,0,0,0,0,0,0,0,0,0,0,0,0],"id":12,"left_children":[1,3,5,7,9,11,13,15,17,19,21,23,25,27,29,-1,-1,-1,-1,-1,-1,-1,-1,-1,-1,-1,-1,-1,-1,-1,-1],"loss_changes":[1.0014021E1,7.8353834E0,4.216047E0,6.1817613E0,4.335026E0,3.9991112E0,5.1163154E0,1.1883301E1,4.249263E0,1.3624257E0,4.3165855E0,5.9166784E0,5.7323503E0,5.504977E0,9.8941946E-1,0E0,0E0,0E0,0E0,0E0,0E0,0E0,0E0,0E0,0E0,0E0,0E0,0E0,0E0,0E0,0E0],"parents":[2147483647,0,0,1,1,2,2,3,3,4,4,5,5,6,6,7,7,8,8,9,9,10,10,11,11,12,12,13,13,14,14],"right_children":[2,4,6,8,10,12,14,16,18,20,22,24,26,28,30,-1,-1,-1,-1,-1,-1,-1,-1,-1,-1,-1,-1,-1,-1,-1,-1],"split_conditions":[1.2E1,7E0,1.4E1,5E0,1E0,2E0,1.3E1,4E0,1.12E2,1.1E1,5.64E2,1.16E2,1.0241872E0,9E0,9.3507797E-1,-3.5206124E-2,5.7952177E-2,-5.5113103E-2,5.9229615E-3,-7.514296E-2,1.5531792E-2,7.6594E-2,-6.8207934E-2,-3.2950465E-2,5.583799E-2,-7.06041E-2,-1.6443461E-2,8.625307E-3,1.9422303E-1,4.2196564E-2,-4.019185E-2],"split_indices":[0,0,0,0,6,3,7,0,8,0,8,8,12,7,12,0,0,0,0,0,0,0,0,0,0,0,0,0,0,0,0],"split_type":[0,0,0,0,0,0,0,0,0,0,0,0,0,0,0,0,0,0,0,0,0,0,0,0,0,0,0,0,0,0,0],"sum_hessian":[3.5321603E2,1.4335721E2,2.0985881E2,1.03165985E2,4.0191227E1,1.9829883E2,1.1559986E1,5.8754574E1,4.4411407E1,5.1202936E0,3.507093E1,2.8441933E1,1.698569E2,5.58897E0,5.9710164E0,2.0092476E1,3.8662098E1,2.0555008E1,2.38564E1,1.9288836E0,3.1914098E0,3.3631226E1,1.4397058E0,1.2734533E1,1.5707399E1,2.1742624E1,1.4811427E2,3.2843227E0,2.3046472E0,1.0422009E0,4.9288154E0],"tree_param":{"num_deleted":"0","num_feature":"13","num_nodes":"31","size_leaf_vector":"1"}},{"base_weights":[-5.8059604E-3,7.657373E-2,-3.333313E-1,-3.0192336E-1,1.7095567E-1,-4.2719173E-1,5.378345E-1,-5.1417726E-1,-6.563593E-2,2.3410599E-1,-3.8273528E-1,-2.6460275E-1,-8.025836E-1,9.348348E-1,-6.963137E-2,-7.796301E-2,-1.801569E-2,2.9405344E-2,-5.2466463E-2,7.757649E-2,1.4965022E-2,-5.1038504E-2,8.173805E-2,-4.4581495E-2,2.5178244E-2,4.19757E-3,-8.9004576E-2,-3.1274337E-2,1.3672662E-1],"categories":[],"categories_nodes":[],"categories_segments":[],"categories_sizes":[],"default_left":[0,0,0,0,0,0,0,0,0,0,0,0,0,0,0,0,0,0,0,0,0,0,0,0,0,0,0,0,0],"id":13,"left_children":[1,3,5,7,9,11,13,15,17,19,21,23,25,27,-1,-1,-1,-1,-1,-1,-1,-1,-1,-1,-1,-1,-1,-1,-1],"loss_changes":[9.544692E0,1.0151072E1,6.0427155E0,2.8143525E0,8.024214E0,3.7386293E0,4.2556095E0,2.4990826E0,4.7804475E0,9.23049E0,4.034321E0,4.4786286E0,1.4461546E0,3.6609807E0,0E0,0E0,0E0,0E0,0E0,0E0,0E0,0E0,0E0,0E0,0E0,0E0,0E0,0E0,0E0],"parents":[2147483647,0,0,1,1,2,2,3,3,4,4,5,5,6,6,7,7,8,8,9,9,10,10,11,11,12,12,13,13],"right_children":[2,4,6,8,10,12,14,16,18,20,22,24,26,28,-1,-1,-1,-1,-1,-1,-1,-1,-1,-1,-1,-1,-1,-1,-1],"split_conditions":[1.3E1,7E0,1.5E1,8E0,1.35E2,4.63E2,6E0,1.6E2,3E0,5E0,6.5E1,1.52E2,9.4E1,1.5E1,-6.963137E-2,-7.796301E-2,-1.801569E-2,2.9405344E-2,-5.2466463E-2,7.757649E-2,1.4965022E-2,-5.1038504E-2,8.173805E-2,-4.4581495E-2,2.5178244E-2,4.19757E-3,-8.9004576E-2,-3.1274337E-2,1.3672662E-1],"split_indices":[1,1,3,10,7,8,4,8,11,0,6,8,7,1,0,0,0,0,0,0,0,0,0,0,0,0,0,0,0],"split_type":[0,0,0,0,0,0,0,0,0,0,0,0,0,0,0,0,0,0,0,0,0,0,0,0,0,0,0,0,0],"sum_hessian":[3.5180435E2,2.8171353E2,7.0090836E1,5.578832E1,2.259252E2,6.3733715E1,6.3571157E0,2.876923E1,2.7019089E1,2.0331377E2,2.2611433E1,4.5661686E1,1.807203E1,4.9933753E0,1.3637404E0,1.5286588E1,1.3482642E1,1.5350231E1,1.1668857E1,2.6320599E1,1.7699316E2,2.0957064E1,1.6543684E0,3.390149E1,1.1760198E1,1.7447084E0,1.632732E1,1.356528E0,3.636847E0],"tree_param":{"num_deleted":"0","num_feature":"13","num_nodes":"29","size_leaf_vector":"1"}},{"base_weights":[-6.176324E-3,6.80335E-2,-3.1138712E-1,-2.4496986E-1,1.6237432E-1,-4.013969E-1,4.7089687E-1,-3.5881412E-1,3.3450025E-1,3.799946E-1,8.219775E-3,-2.4461569E-1,-7.798458E-1,8.1525433E-1,-6.754138E-2,-6.631969E-2,-7.862012E-3,1.3233452E-1,-2.9777056E-2,-4.2718258E-2,4.696392E-2,3.9333683E-2,-9.614546E-3,-9.349409E-2,-1.0332092E-2,3.921296E-3,-8.7139234E-2,-2.980422E-2,1.1745564E-1],"categories":[],"categories_nodes":[],"categories_segments":[],"categories_sizes":[],"default_left":[0,0,0,0,0,0,0,0,0,0,0,0,0,0,0,0,0,0,0,0,0,0,0,0,0,0,0,0,0],"id":14,"left_children":[1,3,5,7,9,11,13,15,17,19,21,23,25,27,-1,-1,-1,-1,-1,-1,-1,-1,-1,-1,-1,-1,-1,-1,-1],"loss_changes":[7.998795E0,8.430419E0,5.0523624E0,4.487691E0,7.34175E0,3.516491E0,3.545602E0,4.7084107E0,7.514661E0,6.7679987E0,5.229959E0,4.3547287E0,1.372242E0,2.8651571E0,0E0,0E0,0E0,0E0,0E0,0E0,0E0,0E0,0E0,0E0,0E0,0E0,0E0,0E0,0E0],"parents":[2147483647,0,0,1,1,2,2,3,3,4,4,5,5,6,6,7,7,8,8,9,9,10,10,11,11,12,12,13,13],"right_children":[2,4,6,8,10,12,14,16,18,20,22,24,26,28,-1,-1,-1,-1,-1,-1,-1,-1,-1,-1,-1,-1,-1,-1,-1],"split_conditions":[1.3E1,8E0,1.5E1,2E1,1.2E1,4.63E2,6E0,7E0,5E0,3E0,1.1E1,2.7E1,9.4E1,1.5E1,-6.754138E-2,-6.631969E-2,-7.862012E-3,1.3233452E-1,-2.9777056E-2,-4.2718258E-2,4.696392E-2,3.9333683E-2,-9.614546E-3,-9.349409E-2,-1.0332092E-2,3.921296E-3,-8.7139234E-2,-2.980422E-2,1.1745564E-1],"split_indices":[1,1,3,6,0,8,4,3,3,0,7,8,7,1,0,0,0,0,0,0,0,0,0,0,0,0,0,0,0],"split_type":[0,0,0,0,0,0,0,0,0,0,0,0,0,0,0,0,0,0,0,0,0,0,0,0,0,0,0,0,0],"sum_hessian":[3.5121793E2,2.831493E2,6.8068634E1,6.520753E1,2.1794177E2,6.1481457E1,6.587181E0,5.4818523E1,1.0389006E1,8.976098E1,1.2818079E2,4.4636227E1,1.684523E1,5.2875705E0,1.2996107E0,2.5619934E1,2.919859E1,3.6256456E0,6.76336E0,8.595963E0,8.1165016E1,2.6739775E1,1.0144101E2,6.6294947E0,3.8006733E1,1.7509856E0,1.5094244E1,1.331724E0,3.9558463E0],"tree_param":{"num_deleted":"0","num_feature":"13","num_nodes":"29","size_leaf_vector":"1"}},{"base_weights":[-6.6105416E-3,6.069975E-2,-2.915176E-1,-2.626478E-1,1.3626464E-1,-1.22574575E-1,-7.1045786E-1,2.4183103E-1,-3.633758E-1,1.628021E-1,-9.0172015E-2,-2.3180251E-1,9.460463E-1,-7.901851E-1,3.4374874E-2,-8.110659E-2,6.625241E-2,-5.3613823E-2,2.632181E-4,5.4575145E-2,9.737242E-3,4.3883994E-3,-6.410309E-2,-6.542889E-2,1.8815683E-1,-2.006554E-2,-9.272566E-2],"categories":[],"categories_nodes":[],"categories_segments":[],"categories_sizes":[],"default_left":[0,0,0,0,0,0,0,0,0,0,0,0,0,0,0,0,0,0,0,0,0,0,0,0,0,0,0],"id":15,"left_children":[1,3,5,7,9,11,13,15,17,19,-1,21,23,25,-1,-1,-1,-1,-1,-1,-1,-1,-1,-1,-1,-1,-1],"loss_changes":[6.753616E0,6.9981685E0,4.676009E0,2.8480945E0,6.527183E0,5.958126E0,1.8795662E0,4.8077993E0,2.88973E0,5.6271996E0,0E0,5.151218E0,8.351869E0,1.2756777E0,0E0,0E0,0E0,0E0,0E0,0E0,0E0,0E0,0E0,0E0,0E0,0E0,0E0],"parents":[2147483647,0,0,1,1,2,2,3,3,4,4,5,5,6,6,7,7,8,8,9,9,11,11,12,12,13,13],"right_children":[2,4,6,8,10,12,14,16,18,20,-1,22,24,26,-1,-1,-1,-1,-1,-1,-1,-1,-1,-1,-1,-1,-1],"split_conditions":[1.3E1,7E0,4.63E2,1.2995462E0,5.87E2,4.27E2,5E1,6E0,1.0680016E1,5E0,-9.0172015E-2,4E0,1.6E1,1.03E2,3.4374874E-2,-8.110659E-2,6.625241E-2,-5.3613823E-2,2.632181E-4,5.4575145E-2,9.737242E-3,4.3883994E-3,-6.410309E-2,-6.542889E-2,1.8815683E-1,-2.006554E-2,-9.272566E-2],"split_indices":[1,1,8,12,8,8,6,0,12,0,0,4,6,7,0,0,0,0,0,0,0,0,0,0,0,0,0],"split_type":[0,0,0,0,0,0,0,0,0,0,0,0,0,0,0,0,0,0,0,0,0,0,0,0,0,0,0],"sum_hessian":[3.5024677E2,2.8394962E2,6.629714E1,5.331881E1,2.306308E2,4.8166122E1,1.8131021E1,8.641005E0,4.4677807E1,2.2570354E2,4.927255E0,4.4409897E1,3.7562273E0,1.7089062E1,1.0419602E0,2.2019951E0,6.439009E0,3.0035622E1,1.4642185E1,3.186453E1,1.93839E2,2.7067793E1,1.7342104E1,1.4966404E0,2.2595868E0,3.6886137E0,1.3400448E1],"tree_param":{"num_deleted":"0","num_feature":"13","num_nodes":"27","size_leaf_vector":"1"}},{"base_weights":[-6.895917E-3,4.043186E-2,-3.7323064E-1,-6.575757E-2,2.1693128E-1,-4.5241585E-1,7.090656E-1,2.3441991E-1,-2.6906854E-1,8.2970095E-1,1.335814E-1,1.0412221E-1,-5.2422285E-1,-1.5115164E-2,1.1984847E-1,8.4831035E-3,1.0208811E-1,-1.3210869E-2,-4.856656E-2,1.31985E-1,1.5377344E-3,2.4832344E-2,-2.3754608E-2,-4.9107697E-2,9.058587E-2,-6.050762E-2,3.3963326E-2],"categories":[],"categories_nodes":[],"categories_segments":[],"categories_sizes":[],"default_left":[0,0,0,0,0,0,0,0,0,0,0,0,0,0,0,0,0,0,0,0,0,0,0,0,0,0,0],"id":16,"left_children":[1,3,5,7,9,11,13,15,17,19,21,23,25,-1,-1,-1,-1,-1,-1,-1,-1,-1,-1,-1,-1,-1,-1],"loss_changes":[6.096055E0,5.852675E0,3.7682204E0,1.19797125E1,5.8775206E0,1.5769396E0,1.4997265E0,9.252309E0,3.4030695E0,5.506508E0,4.5047965E0,2.9203506E0,2.5737076E0,0E0,0E0,0E0,0E0,0E0,0E0,0E0,0E0,0E0,0E0,0E0,0E0,0E0,0E0],"parents":[2147483647,0,0,1,1,2,2,3,3,4,4,5,5,6,6,7,7,8,8,9,9,10,10,11,11,12,12],"right_children":[2,4,6,8,10,12,14,16,18,20,22,24,26,-1,-1,-1,-1,-1,-1,-1,-1,-1,-1,-1,-1,-1,-1],"split_conditions":[1.32E2,8E0,1.7E1,1.1E1,1E1,3E0,1.55E2,3E0,4E0,4E0,1.2E1,1.6E2,6.5E1,-1.5115164E-2,1.1984847E-1,8.4831035E-3,1.0208811E-1,-1.3210869E-2,-4.856656E-2,1.31985E-1,1.5377344E-3,2.4832344E-2,-2.3754608E-2,-4.9107697E-2,9.058587E-2,-6.050762E-2,3.3963326E-2],"split_indices":[7,6,3,7,6,1,7,6,4,4,1,7,6,0,0,0,0,0,0,0,0,0,0,0,0,0,0],"split_type":[0,0,0,0,0,0,0,0,0,0,0,0,0,0,0,0,0,0,0,0,0,0,0,0,0,0,0],"sum_hessian":[3.4973438E2,3.1050858E2,3.9225815E1,1.9426067E2,1.162479E2,3.709386E1,2.1319537E0,7.838157E1,1.158791E2,1.2846785E1,1.03401115E2,4.1876388E0,3.290622E1,1.023747E0,1.1082067E0,6.678633E1,1.1595236E1,7.197647E1,4.390263E1,7.6321383E0,5.214647E0,7.9234856E1,2.4166262E1,2.6257775E0,1.5618613E0,3.0363853E1,2.5423675E0],"tree_param":{"num_deleted":"0","num_feature":"13","num_nodes":"27","size_leaf_vector":"1"}},{"base_weights":[-6.009799E-3,1.4677322E-1,-1.1580129E-1,-4.5343125E-1,2.1297261E-1,5.919744E-1,-1.4111036E-1,-8.372135E-1,2.175273E-1,1.6116032E-1,1.1918892E0,9.8981434E-1,-6.2346097E-2,-1.6584702E-1,5.2676845E-1,-3.702425E-3,-9.2744164E-2,-2.66594E-2,1.2245653E-1,2.3530459E-2,-3.361448E-2,1.7121767E-1,-6.4167395E-2,2.21433E-3,1.8258362E-1,-1.0041812E-2,-5.3186405E-2,9.813034E-2,-6.765173E-2],"categories":[],"categories_nodes":[],"categories_segments":[],"categories_sizes":[],"default_left":[0,0,0,0,0,0,0,0,0,0,0,0,0,0,0,0,0,0,0,0,0,0,0,0,0,0,0,0,0],"id":17,"left_children":[1,3,5,7,9,11,13,15,17,19,21,23,-1,25,27,-1,-1,-1,-1,-1,-1,-1,-1,-1,-1,-1,-1,-1,-1],"loss_changes":[5.889599E0,5.930518E0,3.7426093E0,4.020246E0,6.5497546E0,4.120246E0,3.3589165E0,6.651311E-1,3.3575456E0,4.7765403E0,7.3237276E0,4.6877666E0,0E0,4.537707E0,4.662954E0,0E0,0E0,0E0,0E0,0E0,0E0,0E0,0E0,0E0,0E0,0E0,0E0,0E0,0E0],"parents":[2147483647,0,0,1,1,2,2,3,3,4,4,5,5,6,6,7,7,8,8,9,9,10,10,11,11,13,13,14,14],"right_children":[2,4,6,8,10,12,14,16,18,20,22,24,-1,26,28,-1,-1,-1,-1,-1,-1,-1,-1,-1,-1,-1,-1,-1,-1],"split_conditions":[1.2E1,3E0,3E0,7E0,1.8E1,1.2E1,4E0,8E0,1.819996E1,9E0,1.19E2,6E0,-6.2346097E-2,3E0,1.2709804E1,-3.702425E-3,-9.2744164E-2,-2.66594E-2,1.2245653E-1,2.3530459E-2,-3.361448E-2,1.7121767E-1,-6.4167395E-2,2.21433E-3,1.8258362E-1,-1.0041812E-2,-5.3186405E-2,9.813034E-2,-6.765173E-2],"split_indices":[0,0,7,10,3,8,11,7,12,10,7,8,0,11,12,0,0,0,0,0,0,0,0,0,0,0,0,0,0],"split_type":[0,0,0,0,0,0,0,0,0,0,0,0,0,0,0,0,0,0,0,0,0,0,0,0,0,0,0,0,0],"sum_hessian":[3.4909576E2,1.4582819E2,2.0326758E2,1.3905242E1,1.3192294E2,6.2446384E0,1.9702295E2,8.687998E0,5.217244E0,1.26397575E2,5.5253654E0,4.844539E0,1.4000994E0,1.9071114E2,6.311807E0,1.0232882E0,7.6647096E0,4.019964E0,1.1972799E0,1.1045626E2,1.5941315E1,4.355626E0,1.1697394E0,2.7212534E0,2.1232858E0,1.6287083E2,2.7840296E1,4.7151604E0,1.596647E0],"tree_param":{"num_deleted":"0","num_feature":"13","num_nodes":"29","size_leaf_vector":"1"}},{"base_weights":[-5.4147365E-3,5.1737476E-2,-2.5824186E-1,-1.8246925E-1,1.3548999E-1,-1.0247663E-1,-6.711579E-1,3.675547E-2,-3.4061655E-1,2.0751923E-1,-2.0571801E-1,-2.4115667E-1,6.486119E-1,-7.5521153E-1,3.2237303E-2,-4.008993E-2,4.063843E-2,-5.0391715E-2,4.5481037E-2,2.5093822E-2,-6.509355E-2,-3.224611E-2,1.01578236E-1,-9.282659E-2,-1.1355615E-2,-5.2326944E-2,1.3869876E-1,-1.722339E-2,-9.0264715E-2],"categories":[],"categories_nodes":[],"categories_segments":[],"categories_sizes":[],"default_left":[0,0,0,0,0,0,0,0,0,0,0,0,0,0,0,0,0,0,0,0,0,0,0,0,0,0,0,0,0],"id":18,"left_children":[1,3,5,7,9,11,13,15,17,19,21,23,25,27,-1,-1,-1,-1,-1,-1,-1,-1,-1,-1,-1,-1,-1,-1,-1],"loss_changes":[5.053552E0,5.6216326E0,4.0783596E0,2.6330202E0,5.2222314E0,5.155915E0,1.703289E0,5.433091E0,5.9453278E0,6.6679425E0,5.637547E0,3.510834E0,7.4334917E0,1.2555609E0,0E0,0E0,0E0,0E0,0E0,0E0,0E0,0E0,0E0,0E0,0E0,0E0,0E0,0E0,0E0],"parents":[2147483647,0,0,1,1,2,2,3,3,4,4,5,5,6,6,7,7,8,8,9,9,10,10,11,11,12,12,13,13],"right_children":[2,4,6,8,10,12,14,16,18,20,22,24,26,28,-1,-1,-1,-1,-1,-1,-1,-1,-1,-1,-1,-1,-1,-1,-1],"split_conditions":[1.3E1,1E1,4.63E2,1.2E1,1.4410132E1,4.14E2,5E1,7E0,2.1E1,1.56E2,1.8E1,1.4E1,9.7E1,1.03E2,3.2237303E-2,-4.008993E-2,4.063843E-2,-5.0391715E-2,4.5481037E-2,2.5093822E-2,-6.509355E-2,-3.224611E-2,1.01578236E-1,-9.282659E-2,-1.1355615E-2,-5.2326944E-2,1.3869876E-1,-1.722339E-2,-9.0264715E-2],"split_indices":[1,1,8,0,12,8,6,3,6,7,3,1,7,7,0,0,0,0,0,0,0,0,0,0,0,0,0,0,0],"split_type":[0,0,0,0,0,0,0,0,0,0,0,0,0,0,0,0,0,0,0,0,0,0,0,0,0,0,0,0,0],"sum_hessian":[3.478111E2,2.843324E2,6.3478695E1,7.458452E1,2.097479E2,4.699779E1,1.6480906E1,3.157821E1,4.300631E1,1.7351134E2,3.6236553E1,4.0245785E1,6.7520065E0,1.5416524E1,1.0643811E0,1.4419897E1,1.7158314E1,3.598508E1,7.0212293E0,1.6583159E2,7.6797514E0,3.3747223E1,2.4893289E0,5.320567E0,3.4925217E1,2.7224731E0,4.0295334E0,3.549517E0,1.1867007E1],"tree_param":{"num_deleted":"0","num_feature":"13","num_nodes":"29","size_leaf_vector":"1"}},{"base_weights":[-5.749918E-3,9.8832303E-1,-1.9674566E-2,1.7387258E-1,2.9750758E-1,1.9661494E-2,-3.4369013E-1,-5.663688E-2,8.961743E-2,-7.3677085E-2,1.852161E-1,-4.2629057E-1,7.0280425E-2,1.7594656E-2,-2.4323864E-2,7.386475E-2,2.609309E-3,1.297293E-2,-5.0307926E-2],"categories":[],"categories_nodes":[],"categories_segments":[],"categories_sizes":[],"default_left":[0,0,0,0,0,0,0,0,0,0,0,0,0,0,0,0,0,0,0],"id":19,"left_children":[1,3,5,-1,7,9,11,-1,-1,13,15,17,-1,-1,-1,-1,-1,-1,-1],"loss_changes":[4.8379536E0,1.9856567E0,4.394734E0,0E0,2.4316542E0,4.7723074E0,3.5260181E0,0E0,0E0,8.40828E0,9.783106E0,1.5688896E0,0E0,0E0,0E0,0E0,0E0,0E0,0E0],"parents":[2147483647,0,0,1,1,2,2,4,4,5,5,6,6,9,9,10,10,11,11],"right_children":[2,4,6,-1,8,10,12,-1,-1,14,16,18,-1,-1,-1,-1,-1,-1,-1],"split_conditions":[2E0,1.1E1,1.32E2,1.7387258E-1,1.01E2,1.52E2,1.7E1,-5.663688E-2,8.961743E-2,1.1E1,4.09E2,3E0,7.0280425E-2,1.7594656E-2,-2.4323864E-2,7.386475E-2,2.609309E-3,1.297293E-2,-5.0307926E-2],"split_indices":[11,0,7,0,8,8,3,0,0,7,8,1,0,0,0,0,0,0,0],"split_type":[0,0,0,0,0,0,0,0,0,0,0,0,0,0,0,0,0,0,0],"sum_hessian":[3.4710495E2,3.8282986E0,3.4327664E2,1.1079082E0,2.7203903E0,3.069515E2,3.6325138E1,1.1356281E0,1.5847623E0,1.9664139E2,1.10310135E2,3.4217014E1,2.1081212E0,7.952674E1,1.1711464E2,2.3820433E1,8.64897E1,4.0684304E0,3.0148584E1],"tree_param":{"num_deleted":"0","num_feature":"13","num_nodes":"19","size_leaf_vector":"1"}},{"base_weights":[-4.7069374E-3,1.2528999E-1,-1.0032884E-1,5.070522E-2,5.760142E-1,-1.330202E-1,3.9451864E-1,1.5435502E-1,2.3871604E-2,1.1440539E0,1.5298456E-1,2.0360614E-1,-1.9146068E-1,8.438132E-1,-1.5709479E-1,-4.9618818E-2,8.893619E-3,1.3058285E-1,7.319422E-3,6.2860996E-2,-5.952493E-2,-2.6568804E-2,5.4589726E-2,-6.742277E-2,-1.1874181E-2,1.4182178E-3,1.6432694E-1,1.1937154E-2,-6.492426E-2],"categories":[],"categories_nodes":[],"categories_segments":[],"categories_sizes":[],"default_left":[0,0,0,0,0,0,0,0,0,0,0,0,0,0,0,0,0,0,0,0,0,0,0,0,0,0,0,0,0],"id":20,"left_children":[1,3,5,7,9,11,13,-1,15,17,19,21,23,25,27,-1,-1,-1,-1,-1,-1,-1,-1,-1,-1,-1,-1,-1,-1],"loss_changes":[4.333053E0,4.937791E0,3.301156E0,5.0854306E0,4.842795E0,3.7594862E0,3.279281E0,0E0,4.328902E0,1.4217777E0,5.044334E0,4.716792E0,5.59524E0,4.7218065E0,9.67682E-1,0E0,0E0,0E0,0E0,0E0,0E0,0E0,0E0,0E0,0E0,0E0,0E0,0E0,0E0],"parents":[2147483647,0,0,1,1,2,2,3,3,4,4,5,5,6,6,8,8,9,9,10,10,11,11,12,12,13,13,14,14],"right_children":[2,4,6,8,10,12,14,-1,16,18,20,22,24,26,28,-1,-1,-1,-1,-1,-1,-1,-1,-1,-1,-1,-1,-1,-1],"split_conditions":[1.2E1,1.1E1,1.4E1,2E0,2.1077342E0,2E0,1.3E1,1.5435502E-1,3E0,4.59E2,4E0,1.16E2,1.0241872E0,9E0,1.12E2,-4.9618818E-2,8.893619E-3,1.3058285E-1,7.319422E-3,6.2860996E-2,-5.952493E-2,-2.6568804E-2,5.4589726E-2,-6.742277E-2,-1.1874181E-2,1.4182178E-3,1.6432694E-1,1.1937154E-2,-6.492426E-2],"split_indices":[0,0,0,11,12,3,7,0,0,8,4,8,12,7,7,0,0,0,0,0,0,0,0,0,0,0,0,0,0],"split_type":[0,0,0,0,0,0,0,0,0,0,0,0,0,0,0,0,0,0,0,0,0,0,0,0,0,0,0,0,0],"sum_hessian":[3.4656964E2,1.4675185E2,1.9981778E2,1.2687017E2,1.9881676E1,1.8812103E2,1.1696747E1,1.2421501E0,1.2562802E2,7.7588053E0,1.21228695E1,2.7460463E1,1.6066057E2,6.154295E0,5.542452E0,1.3232763E1,1.12395256E2,6.549894E0,1.2089118E0,7.5093317E0,4.613538E0,1.1676007E1,1.5784455E1,1.9949287E1,1.4071129E2,3.5195951E0,2.6346998E0,4.0338597E0,1.5085919E0],"tree_param":{"num_deleted":"0","num_feature":"13","num_nodes":"29","size_leaf_vector":"1"}},{"base_weights":[-3.7710674E-3,4.7848087E-2,-2.378032E-1,-2.2587623E-1,1.0823233E-1,-3.2441336E-1,4.4758895E-1,-4.5085278E-1,1.6135532E-2,1.288155E-1,-8.569897E-2,-1.8647796E-1,-7.139825E-1,7.315813E-1,-6.489097E-2,-7.2493814E-2,-1.4163985E-2,7.4193455E-2,-1.8736163E-2,4.5986008E-2,7.1386993E-3,-9.12866E-2,-4.5859865E-3,3.885771E-2,-8.295462E-2,-1.4785563E-2,1.1351011E-1],"categories":[],"categories_nodes":[],"categories_segments":[],"categories_sizes":[],"default_left":[0,0,0,0,0,0,0,0,0,0,0,0,0,0,0,0,0,0,0,0,0,0,0,0,0,0,0],"id":21,"left_children":[1,3,5,7,9,11,13,15,17,19,-1,21,23,25,-1,-1,-1,-1,-1,-1,-1,-1,-1,-1,-1,-1,-1],"loss_changes":[4.193541E0,4.726242E0,3.8687656E0,2.8241289E0,4.7539425E0,2.890493E0,2.796955E0,2.172542E0,3.9628654E0,4.334413E0,0E0,4.3409944E0,2.1520448E0,2.4366455E0,0E0,0E0,0E0,0E0,0E0,0E0,0E0,0E0,0E0,0E0,0E0,0E0,0E0],"parents":[2147483647,0,0,1,1,2,2,3,3,4,4,5,5,6,6,7,7,8,8,9,9,11,11,12,12,13,13],"right_children":[2,4,6,8,10,12,14,16,18,20,-1,22,24,26,-1,-1,-1,-1,-1,-1,-1,-1,-1,-1,-1,-1,-1],"split_conditions":[1.3E1,7E0,1.5E1,8E0,5.87E2,1.08E2,3E0,1.6E2,1.2995462E0,5E0,-8.569897E-2,2.7E1,2.811482E-1,1.9894519E0,-6.489097E-2,-7.2493814E-2,-1.4163985E-2,7.4193455E-2,-1.8736163E-2,4.5986008E-2,7.1386993E-3,-9.12866E-2,-4.5859865E-3,3.885771E-2,-8.295462E-2,-1.4785563E-2,1.1351011E-1],"split_indices":[1,1,3,10,8,7,11,8,12,0,0,8,12,12,0,0,0,0,0,0,0,0,0,0,0,0,0],"split_type":[0,0,0,0,0,0,0,0,0,0,0,0,0,0,0,0,0,0,0,0,0,0,0,0,0,0,0],"sum_hessian":[3.4519006E2,2.8346362E2,6.1726433E1,5.0735733E1,2.3272789E2,5.5268993E1,6.457438E0,2.584605E1,2.4889683E1,2.2871709E2,4.010804E0,4.1908913E1,1.3360081E1,5.3933635E0,1.0640746E0,1.2988565E1,1.2857484E1,4.870936E0,2.0018747E1,3.2775623E1,1.9594147E2,5.9064217E0,3.600249E1,1.043348E0,1.2316732E1,1.895616E0,3.4977474E0],"tree_param":{"num_deleted":"0","num_feature":"13","num_nodes":"27","size_leaf_vector":"1"}},{"base_weights":[-4.337702E-3,8.4007007E-1,-1.7005503E-2,1.1018262E0,-7.978471E-3,2.9614838E-2,-2.31875E-1,-1.3173389E-2,1.6723828E-1,-2.2803347E-1,8.438396E-2,-9.353662E-2,-6.2599766E-1,2.3354499E-2,-3.3002164E-2,1.0288014E-2,-8.382532E-2,-7.7267036E-2,2.8541877E-3,-7.1492456E-2,3.3781346E-2],"categories":[],"categories_nodes":[],"categories_segments":[],"categories_sizes":[],"default_left":[0,0,0,0,0,0,0,0,0,0,0,0,0,0,0,0,0,0,0,0,0],"id":22,"left_children":[1,3,5,7,-1,9,11,-1,-1,13,15,17,19,-1,-1,-1,-1,-1,-1,-1,-1],"loss_changes":[3.7120054E0,1.3228946E0,3.4283307E0,3.078115E0,0E0,3.9922078E0,3.2677617E0,0E0,0E0,2.4133158E0,4.061079E0,3.8634517E0,1.5849838E0,0E0,0E0,0E0,0E0,0E0,0E0,0E0,0E0],"parents":[2147483647,0,0,1,1,2,2,3,3,5,5,6,6,9,9,10,10,11,11,12,12],"right_children":[2,4,6,8,-1,10,12,-1,-1,14,16,18,20,-1,-1,-1,-1,-1,-1,-1,-1],"split_conditions":[2E0,1.7E1,1.3E1,7E0,-7.978471E-3,7E0,4.63E2,-1.3173389E-2,1.6723828E-1,1.2995462E0,5.87E2,2.7E1,5E1,2.3354499E-2,-3.3002164E-2,1.0288014E-2,-8.382532E-2,-7.7267036E-2,2.8541877E-3,-7.1492456E-2,3.3781346E-2],"split_indices":[11,6,1,10,0,1,8,0,0,12,8,8,6,0,0,0,0,0,0,0,0],"split_type":[0,0,0,0,0,0,0,0,0,0,0,0,0,0,0,0,0,0,0,0,0],"sum_hessian":[3.44685E2,4.1291556E0,3.4055585E2,3.060443E0,1.068713E0,2.805475E2,6.0008354E1,1.2111074E0,1.8493354E0,4.862749E1,2.3192001E2,4.5333477E1,1.4674875E1,8.566638E0,4.0060852E1,2.282331E2,3.686912E0,6.095328E0,3.9238148E1,1.3671678E1,1.0031973E0],"tree_param":{"num_deleted":"0","num_feature":"13","num_nodes":"21","size_leaf_vector":"1"}},{"base_weights":[-4.357425E-3,-2.4301661E-2,4.6633258E-1,1.1446728E-2,-3.3593896E-1,-4.3597376E-1,7.449761E-1,-5.061291E-2,2.867553E-1,-6.676015E-1,-1.4406182E-1,2.178673E-2,-7.4371524E-2,1.0007896E0,-3.7176955E-2,1.3348087E-2,-1.364556E-2,5.9613865E-2,-2.4513727E-2,-9.549423E-2,8.410774E-4,6.225948E-3,-7.294109E-2,8.362097E-3,1.2683922E-1],"categories":[],"categories_nodes":[],"categories_segments":[],"categories_sizes":[],"default_left":[0,0,0,0,0,0,0,0,0,0,0,0,0,0,0,0,0,0,0,0,0,0,0,0,0],"id":23,"left_children":[1,3,5,7,9,11,13,15,17,19,21,-1,-1,23,-1,-1,-1,-1,-1,-1,-1,-1,-1,-1,-1],"loss_changes":[3.2528722E0,3.7049065E0,3.8663225E0,5.123018E0,2.081549E0,9.577129E-1,3.552126E0,3.8875196E0,9.221703E0,2.390758E0,2.8175318E0,0E0,0E0,2.183319E0,0E0,0E0,0E0,0E0,0E0,0E0,0E0,0E0,0E0,0E0,0E0],"parents":[2147483647,0,0,1,1,2,2,3,3,4,4,5,5,6,6,7,7,8,8,9,9,10,10,13,13],"right_children":[2,4,6,8,10,12,14,16,18,20,22,-1,-1,24,-1,-1,-1,-1,-1,-1,-1,-1,-1,-1,-1],"split_conditions":[1.8E1,1.32E2,2E0,1.07E2,2.5612607E0,5E0,5.37E2,1.1E1,8E0,1.63E2,1.66E2,2.178673E-2,-7.4371524E-2,6E0,-3.7176955E-2,1.3348087E-2,-1.364556E-2,5.9613865E-2,-2.4513727E-2,-9.549423E-2,8.410774E-4,6.225948E-3,-7.294109E-2,8.362097E-3,1.2683922E-1],"split_indices":[3,7,4,7,12,10,8,7,10,7,7,0,0,10,0,0,0,0,0,0,0,0,0,0,0],"split_type":[0,0,0,0,0,0,0,0,0,0,0,0,0,0,0,0,0,0,0,0,0,0,0,0,0],"sum_hessian":[3.4430185E2,3.3121585E2,1.3086019E1,2.9799557E2,3.3220257E1,2.9544048E0,1.0131614E1,2.4384465E2,5.4150936E1,1.1266545E1,2.195371E1,1.038982E0,1.9154227E0,8.327796E0,1.8038185E0,7.736873E1,1.6647592E2,3.4160294E1,1.9990643E1,7.616515E0,3.6500306E0,1.6892982E1,5.0607285E0,2.177436E0,6.1503596E0],"tree_param":{"num_deleted":"0","num_feature":"13","num_nodes":"25","size_leaf_vector":"1"}},{"base_weights":[-4.5692064E-3,1.0638689E-1,-8.7488614E-2,-4.1350317E-1,1.593052E-1,-6.4061624E-1,-5.8756113E-2,-8.1382066E-1,2.317602E-1,1.487236E-1,1.2988338E-1,-9.13283E-2,1.10927455E-1,9.382769E-1,-7.7185355E-2,-3.7688923E-3,-9.105755E-2,-3.4225665E-2,9.6697524E-2,1.8951554E-2,-3.8028855E-2,9.463947E-2,-6.258212E-2,-2.0777995E-2,1.776055E-1,-3.2207116E-2,-1.2788357E-3],"categories":[],"categories_nodes":[],"categories_segments":[],"categories_sizes":[],"default_left":[0,0,0,0,0,0,0,0,0,0,0,0,0,0,0,0,0,0,0,0,0,0,0,0,0,0,0],"id":24,"left_children":[1,3,5,7,9,11,13,15,17,-1,19,-1,21,23,25,-1,-1,-1,-1,-1,-1,-1,-1,-1,-1,-1,-1],"loss_changes":[3.1823175E0,4.1363134E0,3.107911E0,3.7911608E0,5.0815544E0,2.0834236E0,3.54983E0,6.286583E-1,2.9129179E0,0E0,4.12363E0,0E0,2.7261562E0,3.7397573E0,2.940764E0,0E0,0E0,0E0,0E0,0E0,0E0,0E0,0E0,0E0,0E0,0E0,0E0],"parents":[2147483647,0,0,1,1,2,2,3,3,4,4,5,5,6,6,7,7,8,8,10,10,12,12,13,13,14,14],"right_children":[2,4,6,8,10,12,14,16,18,-1,20,-1,22,24,26,-1,-1,-1,-1,-1,-1,-1,-1,-1,-1,-1,-1],"split_conditions":[1.2E1,3E0,3.6763778E-1,7E0,3E0,4.57E2,4.3625113E-1,8E0,9.62893E0,1.487236E-1,1.4410132E1,-9.13283E-2,1.11E2,1.41E2,1E1,-3.7688923E-3,-9.105755E-2,-3.4225665E-2,9.6697524E-2,1.8951554E-2,-3.8028855E-2,9.463947E-2,-6.258212E-2,-2.0777995E-2,1.776055E-1,-3.2207116E-2,-1.2788357E-3],"split_indices":[0,0,12,10,10,8,12,7,12,0,12,0,7,8,1,0,0,0,0,0,0,0,0,0,0,0,0],"split_type":[0,0,0,0,0,0,0,0,0,0,0,0,0,0,0,0,0,0,0,0,0,0,0,0,0,0,0],"sum_hessian":[3.4387686E2,1.4695306E2,1.9692381E2,1.2946601E1,1.3400645E2,8.672583E0,1.8825122E2,7.828577E0,5.1180243E0,1.8306953E0,1.3217577E2,6.205839E0,2.4667435E0,2.5106595E0,1.8574057E2,1.0217776E0,6.8067994E0,3.174233E0,1.9437914E0,1.18905815E2,1.3269945E1,1.0225846E0,1.4441588E0,1.3778231E0,1.1328363E0,3.7840645E1,1.4789992E2],"tree_param":{"num_deleted":"0","num_feature":"13","num_nodes":"27","size_leaf_vector":"1"}},{"base_weights":[-4.020174E-3,7.5562686E-1,-1.5881589E-2,1.261174E-1,2.412328E-1,2.7145168E-2,-2.1769752E-1,-5.6352492E-2,7.749899E-2,7.113299E-2,-2.3144946E-1,-7.416768E-1,-1.245629E-1,1.0235979E-2,-3.943671E-2,-3.60561E-2,3.284876E-2,2.5080473E-4,-9.334599E-2,4.8189066E-2,-2.675578E-2],"categories":[],"categories_nodes":[],"categories_segments":[],"categories_sizes":[],"default_left":[0,0,0,0,0,0,0,0,0,0,0,0,0,0,0,0,0,0,0,0,0],"id":25,"left_children":[1,3,5,-1,7,9,11,-1,-1,13,15,17,19,-1,-1,-1,-1,-1,-1,-1,-1],"loss_changes":[3.1116786E0,1.0764928E0,2.9556744E0,0E0,2.0983024E0,3.2116075E0,2.8262234E0,0E0,0E0,3.5409722E0,3.0875392E0,1.2617455E0,4.6368556E0,0E0,0E0,0E0,0E0,0E0,0E0,0E0,0E0],"parents":[2147483647,0,0,1,1,2,2,4,4,5,5,6,6,9,9,10,10,11,11,12,12],"right_children":[2,4,6,-1,8,10,12,-1,-1,14,16,18,20,-1,-1,-1,-1,-1,-1,-1,-1],"split_conditions":[2E0,1.1E1,1.3E1,1.261174E-1,1.01E2,3E0,1.4E1,-5.6352492E-2,7.749899E-2,4.9835336E2,4E0,2E0,5E0,1.0235979E-2,-3.943671E-2,-3.60561E-2,3.284876E-2,2.5080473E-4,-9.334599E-2,4.8189066E-2,-2.675578E-2],"split_indices":[11,0,1,0,8,11,1,0,0,12,11,4,0,0,0,0,0,0,0,0,0],"split_type":[0,0,0,0,0,0,0,0,0,0,0,0,0,0,0,0,0,0,0,0,0],"sum_hessian":[3.4300772E2,4.3094687E0,3.3869824E2,1.4412453E0,2.8682234E0,2.7989145E2,5.880681E1,1.1215166E0,1.7467068E0,2.3982187E2,4.0069588E1,7.8241754E0,5.0982635E1,2.254765E2,1.4345365E1,3.2850834E1,7.218752E0,1.8054242E0,6.018751E0,9.275303E0,4.1707333E1],"tree_param":{"num_deleted":"0","num_feature":"13","num_nodes":"21","size_leaf_vector":"1"}},{"base_weights":[-3.7667046E-3,6.841273E-1,-1.4864005E-2,9.212591E-1,-1.1684286E-2,-4.5839396E-1,3.289306E-3,-1.34186E-2,1.3749583E0,-9.155955E-2,2.3404948E-1,3.33896E-1,-5.219886E-2,3.3586588E-2,1.7701879E-1,-6.3111335E-2,6.277081E-2,-2.3206828E-2,5.4356296E-2,-1.3345866E-3,-3.6121856E-2],"categories":[],"categories_nodes":[],"categories_segments":[],"categories_sizes":[],"default_left":[0,0,0,0,0,0,0,0,0,0,0,0,0,0,0,0,0,0,0,0,0],"id":26,"left_children":[1,3,5,7,-1,9,11,-1,13,-1,15,17,19,-1,-1,-1,-1,-1,-1,-1,-1],"loss_changes":[2.6325173E0,1.1475465E0,2.7313378E0,2.2612634E0,0E0,4.437018E0,6.0107775E0,0E0,6.876087E-1,0E0,2.4739983E0,5.7138233E0,3.3643749E0,0E0,0E0,0E0,0E0,0E0,0E0,0E0,0E0],"parents":[2147483647,0,0,1,1,2,2,3,3,5,5,6,6,8,8,10,10,11,11,12,12],"right_children":[2,4,6,8,-1,10,12,-1,14,-1,16,18,20,-1,-1,-1,-1,-1,-1,-1,-1],"split_conditions":[2E0,1.7E1,3E0,7E0,-1.1684286E-2,7E0,5E0,-1.34186E-2,1.33E2,-9.155955E-2,4.9E1,3E0,1.6E1,3.3586588E-2,1.7701879E-1,-6.3111335E-2,6.277081E-2,-2.3206828E-2,5.4356296E-2,-1.3345866E-3,-3.6121856E-2],"split_indices":[11,6,0,10,0,10,0,0,8,0,8,3,1,0,0,0,0,0,0,0,0],"split_type":[0,0,0,0,0,0,0,0,0,0,0,0,0,0,0,0,0,0,0,0,0],"sum_hessian":[3.4251962E2,4.475039E0,3.3804456E2,3.3369398E0,1.1380992E0,1.2338303E1,3.2570627E2,1.2149136E0,2.1220262E0,7.2373857E0,5.100917E0,4.6088245E1,2.79618E2,1.0944426E0,1.0275835E0,1.4065261E0,3.6943908E0,1.242959E1,3.3658653E1,2.493149E2,3.030313E1],"tree_param":{"num_deleted":"0","num_feature":"13","num_nodes":"21","size_leaf_vector":"1"}},{"base_weights":[-3.4078138E-3,2.5011927E-2,-2.5831944E-1,-7.194671E-2,1.6649817E-1,-3.3375677E-1,5.7859708E-2,1.4768127E-1,-2.4641006E-1,4.5174548E-1,1.2540006E-2,-6.3575464E-1,-1.6063428E-1,2.230655E-3,7.675099E-2,-5.357388E-4,-4.252131E-2,2.3716241E-2,1.0379251E-1,1.0080606E-1,-7.3868767E-3,-9.384857E-2,4.4570942E-4,1.35894E-2,-5.4599583E-2],"categories":[],"categories_nodes":[],"categories_segments":[],"categories_sizes":[],"default_left":[0,0,0,0,0,0,0,0,0,0,0,0,0,0,0,0,0,0,0,0,0,0,0,0,0],"id":27,"left_children":[1,3,5,7,9,11,-1,13,15,17,19,21,23,-1,-1,-1,-1,-1,-1,-1,-1,-1,-1,-1,-1],"loss_changes":[2.4888957E0,4.253741E0,2.3686962E0,7.09328E0,5.529228E0,1.5836933E0,0E0,6.367398E0,4.437711E0,5.3073263E0,7.204145E0,2.215765E0,2.5691075E0,0E0,0E0,0E0,0E0,0E0,0E0,0E0,0E0,0E0,0E0,0E0,0E0],"parents":[2147483647,0,0,1,1,2,2,3,3,4,4,5,5,7,7,8,8,9,9,10,10,11,11,12,12],"right_children":[2,4,6,8,10,12,-1,14,16,18,20,22,24,-1,-1,-1,-1,-1,-1,-1,-1,-1,-1,-1,-1],"split_conditions":[1.32E2,1.39E2,1.7E1,1.1E1,4.15E2,2.5612607E0,5.7859708E-2,3E0,3.5400636E0,1.07E2,1E0,1.63E2,1.57E2,2.230655E-3,7.675099E-2,-5.357388E-4,-4.252131E-2,2.3716241E-2,1.0379251E-1,1.0080606E-1,-7.3868767E-3,-9.384857E-2,4.4570942E-4,1.35894E-2,-5.4599583E-2],"split_indices":[7,8,3,7,8,12,0,6,12,7,3,7,7,0,0,0,0,0,0,0,0,0,0,0,0],"split_type":[0,0,0,0,0,0,0,0,0,0,0,0,0,0,0,0,0,0,0,0,0,0,0,0,0],"sum_hessian":[3.416637E2,3.082043E2,3.345939E1,1.831711E2,1.2503321E2,3.1244318E1,2.21507E0,8.1157394E1,1.02013695E2,4.3150867E1,8.188235E1,1.0410967E1,2.0833351E1,6.8364975E1,1.2792416E1,4.388298E1,5.813072E1,3.2615784E1,1.0535084E1,5.6877112E0,7.619463E1,6.7522116E0,3.658755E0,1.2139556E1,8.693795E0],"tree_param":{"num_deleted":"0","num_feature":"13","num_nodes":"25","size_leaf_vector":"1"}},{"base_weights":[-3.0794335E-3,3.155147E-2,-2.1012601E-1,-5.406342E-1,4.900904E-2,8.828411E-2,-5.590725E-1,-9.0233825E-2,1.4446577E-1,4.8514238E-1,2.0803006E-2,-2.9712647E-1,4.9956352E-1,-7.0861703E-1,1.2323761E-1,8.507743E-2,-6.38484E-2,8.121597E-2,-6.359717E-2,2.4975E-2,-2.8105318E-3,3.64319E-2,-9.6065745E-2,1.4811784E-1,-1.8524373E-2,-3.263165E-2,-8.4310345E-2,1.0388334E-1,-7.1503684E-2],"categories":[],"categories_nodes":[],"categories_segments":[],"categories_sizes":[],"default_left":[0,0,0,0,0,0,0,0,0,0,0,0,0,0,0,0,0,0,0,0,0,0,0,0,0,0,0,0,0],"id":28,"left_children":[1,3,5,7,9,11,13,-1,15,17,19,21,23,25,27,-1,-1,-1,-1,-1,-1,-1,-1,-1,-1,-1,-1,-1,-1],"loss_changes":[2.4604723E0,2.9638307E0,5.1693516E0,2.3083718E0,3.5114655E0,4.4865236E0,2.4139442E0,0E0,2.699352E0,6.875386E0,3.0294704E0,6.825892E0,9.424913E0,6.94088E-1,4.5428114E0,0E0,0E0,0E0,0E0,0E0,0E0,0E0,0E0,0E0,0E0,0E0,0E0,0E0,0E0],"parents":[2147483647,0,0,1,1,2,2,3,3,4,4,5,5,6,6,8,8,9,9,10,10,11,11,12,12,13,13,14,14],"right_children":[2,4,6,8,10,12,14,-1,16,18,20,22,24,26,28,-1,-1,-1,-1,-1,-1,-1,-1,-1,-1,-1,-1,-1,-1],"split_conditions":[3E0,2E0,7E0,1E1,1E0,3.9E1,6E0,-9.0233825E-2,7E0,1.12E2,5E0,1.5E1,4.24E2,2E0,1.1E1,8.507743E-2,-6.38484E-2,8.121597E-2,-6.359717E-2,2.4975E-2,-2.8105318E-3,3.64319E-2,-9.6065745E-2,1.4811784E-1,-1.8524373E-2,-3.263165E-2,-8.4310345E-2,1.0388334E-1,-7.1503684E-2],"split_indices":[11,1,10,3,3,7,4,0,6,7,0,7,8,4,0,0,0,0,0,0,0,0,0,0,0,0,0,0,0],"split_type":[0,0,0,0,0,0,0,0,0,0,0,0,0,0,0,0,0,0,0,0,0,0,0,0,0,0,0,0,0],"sum_hessian":[3.4122742E2,2.9305777E2,4.8169647E1,7.789286E0,2.852685E2,2.636768E1,2.1801968E1,4.8903155E0,2.8989708E0,1.6344418E1,2.6892407E2,1.3755208E1,1.2612472E1,1.785095E1,3.9510171E0,1.4785373E0,1.4204334E0,1.2866864E1,3.4775531E0,4.661341E1,2.2231067E2,7.1142535E0,6.6409545E0,4.7051344E0,7.9073367E0,5.5371227E0,1.23138275E1,1.774064E0,2.1769533E0],"tree_param":{"num_deleted":"0","num_feature":"13","num_nodes":"29","size_leaf_vector":"1"}},{"base_weights":[-3.4649444E-3,6.4500844E-1,-1.4110663E-2,8.523049E-1,-9.885612E-3,-4.4133836E-1,2.900866E-3,-1.31275235E-2,1.2608321E0,-9.046451E-2,2.0083036E-1,2.800604E-1,-4.491637E-2,3.27882E-2,1.5900272E-1,-3.1332258E-2,7.843935E-2,-2.20609E-2,4.5778755E-2,-9.2675147E-4,-3.3653922E-2],"categories":[],"categories_nodes":[],"categories_segments":[],"categories_sizes":[],"default_left":[0,0,0,0,0,0,0,0,0,0,0,0,0,0,0,0,0,0,0,0,0],"id":29,"left_children":[1,3,5,7,-1,9,11,-1,13,-1,15,17,19,-1,-1,-1,-1,-1,-1,-1,-1],"loss_changes":[2.3690712E0,9.38961E-1,2.4527812E0,1.9490912E0,0E0,4.0266504E0,4.32493E0,0E0,4.7080517E-1,0E0,2.1163814E0,4.3735576E0,2.890831E0,0E0,0E0,0E0,0E0,0E0,0E0,0E0,0E0],"parents":[2147483647,0,0,1,1,2,2,3,3,5,5,6,6,8,8,10,10,11,11,12,12],"right_children":[2,4,6,8,-1,10,12,-1,14,-1,16,18,20,-1,-1,-1,-1,-1,-1,-1,-1],"split_conditions":[2E0,1.7E1,3E0,7E0,-9.885612E-3,7E0,5E0,-1.31275235E-2,1.33E2,-9.046451E-2,9.62893E0,3E0,1.6E1,3.27882E-2,1.5900272E-1,-3.1332258E-2,7.843935E-2,-2.20609E-2,4.5778755E-2,-9.2675147E-4,-3.3653922E-2],"split_indices":[11,6,0,10,0,10,0,0,8,0,12,3,1,0,0,0,0,0,0,0,0],"split_type":[0,0,0,0,0,0,0,0,0,0,0,0,0,0,0,0,0,0,0,0,0],"sum_hessian":[3.4085287E2,4.5428224E0,3.3631006E2,3.4387496E0,1.1040728E0,1.1923354E1,3.243867E2,1.2082938E0,2.2304559E0,6.6888223E0,5.234532E0,4.7015766E1,2.7737094E2,1.1023552E0,1.1281005E0,3.0289435E0,2.2055883E0,1.2254037E1,3.476173E1,2.4807703E2,2.9293903E1],"tree_param":{"num_deleted":"0","num_feature":"13","num_nodes":"21","size_leaf_vector":"1"}},{"base_weights":[-3.0063426E-3,1.0171086E-2,-5.0589806E-1,1.7722575E-3,9.889218E-2,8.760719E-3,-6.483978E-1,-2.318389E-1,3.911833E-2,-8.441266E-2,-1.851048E-1,-1.1584612E-2,-7.966615E-2,9.6864095E-3,-1.7223913E-2,-5.8586307E-2,2.8197289E-2],"categories":[],"categories_nodes":[],"categories_segments":[],"categories_sizes":[],"default_left":[0,0,0,0,0,0,0,0,0,0,0,0,0,0,0,0,0],"id":30,"left_children":[1,3,5,7,-1,-1,9,11,13,-1,15,-1,-1,-1,-1,-1,-1],"loss_changes":[2.264899E0,2.7378821E0,7.9487705E-1,2.9007087E0,0E0,0E0,4.9267983E-1,2.910073E0,3.5148032E0,0E0,8.028051E-1,0E0,0E0,0E0,0E0,0E0,0E0],"parents":[2147483647,0,0,1,1,2,2,3,3,6,6,7,7,8,8,10,10],"right_children":[2,4,6,8,-1,-1,10,12,14,-1,16,-1,-1,-1,-1,-1,-1],"split_conditions":[1.66E2,1.63E2,1.061247E0,7E0,9.889218E-2,8.760719E-3,5.9145474E0,1.21E2,1.0058205E1,-8.441266E-2,5.36E2,-1.1584612E-2,-7.966615E-2,9.6864095E-3,-1.7223913E-2,-5.8586307E-2,2.8197289E-2],"split_indices":[7,7,12,1,0,0,12,7,12,0,8,0,0,0,0,0,0],"split_type":[0,0,0,0,0,0,0,0,0,0,0,0,0,0,0,0,0],"sum_hessian":[3.4000122E2,3.322743E2,7.726912E0,3.3044055E2,1.8337564E0,1.5706083E0,6.156304E0,4.482687E1,2.8561368E2,3.7500112E0,2.4062927E0,3.818935E1,6.6375184E0,2.2475046E2,6.0863216E1,1.1582146E0,1.2480781E0],"tree_param":{"num_deleted":"0","num_feature":"13","num_nodes":"17","size_leaf_vector":"1"}},{"base_weights":[-3.1820615E-3,-2.0202674E-2,3.9143315E-1,1.5666679E-2,-2.3710035E-1,-4.522302E-1,6.3966984E-1,2.969191E-2,-6.2646955E-1,-2.8065282E-1,8.0644816E-2,1.3919811E-2,-7.2109185E-2,8.51133E-1,-3.4797814E-2,7.855332E-3,-1.6371822E-2,-8.917194E-2,6.620009E-5,-4.3394703E-2,-1.0378387E-2,3.318815E-4,1.1065864E-1],"categories":[],"categories_nodes":[],"categories_segments":[],"categories_sizes":[],"default_left":[0,0,0,0,0,0,0,0,0,0,0,0,0,0,0,0,0,0,0,0,0,0,0],"id":31,"left_children":[1,3,5,7,9,11,13,15,17,19,-1,-1,-1,21,-1,-1,-1,-1,-1,-1,-1,-1,-1],"loss_changes":[2.297088E0,2.5530803E0,3.2509558E0,2.559409E0,2.3425515E0,7.047597E-1,2.66473E0,2.6310163E0,1.0112257E0,1.1869447E0,0E0,0E0,0E0,2.0822024E0,0E0,0E0,0E0,0E0,0E0,0E0,0E0,0E0,0E0],"parents":[2147483647,0,0,1,1,2,2,3,3,4,4,5,5,6,6,7,7,8,8,9,9,13,13],"right_children":[2,4,6,8,10,12,14,16,18,20,-1,-1,-1,22,-1,-1,-1,-1,-1,-1,-1,-1,-1],"split_conditions":[1.8E1,1.5153373E1,2E0,1.1E1,1.1E1,5E0,5.37E2,1.2E1,1.1E1,6E0,8.0644816E-2,1.3919811E-2,-7.2109185E-2,2.337105E0,-3.4797814E-2,7.855332E-3,-1.6371822E-2,-8.917194E-2,6.620009E-5,-4.3394703E-2,-1.0378387E-2,3.318815E-4,1.1065864E-1],"split_indices":[3,12,4,10,10,10,8,1,1,10,0,0,0,12,0,0,0,0,0,0,0,0,0],"split_type":[0,0,0,0,0,0,0,0,0,0,0,0,0,0,0,0,0,0,0,0,0,0,0],"sum_hessian":[3.3982455E2,3.2668283E2,1.3141737E1,2.8112042E2,4.5562393E1,2.8008676E0,1.034087E1,2.7604495E2,5.0754814E0,4.44388E1,1.123593E0,1.0260605E0,1.7748071E0,8.631104E0,1.709765E0,2.2084618E2,5.5198772E1,3.270358E0,1.8051232E0,2.30273E1,2.14115E1,2.2330189E0,6.398086E0],"tree_param":{"num_deleted":"0","num_feature":"13","num_nodes":"23","size_leaf_vector":"1"}},{"base_weights":[-3.214083E-3,6.035089E-1,-1.3329702E-2,7.8402376E-1,-8.259232E-3,-3.4367874E-1,6.370743E-3,-1.2653862E-2,1.1490667E0,-7.662538E-1,-1.113424E-1,3.1904462E-1,-4.0991142E-2,3.0550648E-2,1.4367093E-1,-1.0868867E-2,-8.658408E-2,1.1953101E-1,-3.360219E-2,-2.4447385E-2,5.392419E-2,1.5850944E-2,-8.806232E-3],"categories":[],"categories_nodes":[],"categories_segments":[],"categories_sizes":[],"default_left":[0,0,0,0,0,0,0,0,0,0,0,0,0,0,0,0,0,0,0,0,0,0,0],"id":32,"left_children":[1,3,5,7,-1,9,11,-1,13,15,17,19,21,-1,-1,-1,-1,-1,-1,-1,-1,-1,-1],"loss_changes":[2.0972536E0,7.5881743E-1,2.1876051E0,1.6518109E0,0E0,1.771935E0,4.7206025E0,0E0,3.701148E-1,3.3422565E-1,4.328533E0,5.334861E0,2.6147711E0,0E0,0E0,0E0,0E0,0E0,0E0,0E0,0E0,0E0,0E0],"parents":[2147483647,0,0,1,1,2,2,3,3,5,5,6,6,8,8,9,9,10,10,11,11,12,12],"right_children":[2,4,6,8,-1,10,12,-1,14,16,18,20,22,-1,-1,-1,-1,-1,-1,-1,-1,-1,-1],"split_conditions":[2E0,1.7E1,4E0,7E0,-8.259232E-3,2.4017766E0,5E0,-1.2653862E-2,1.33E2,1E1,2.7102475E0,3E0,3.5E1,3.0550648E-2,1.4367093E-1,-1.0868867E-2,-8.658408E-2,1.1953101E-1,-3.360219E-2,-2.4447385E-2,5.392419E-2,1.5850944E-2,-8.806232E-3],"split_indices":[11,6,0,10,0,12,0,0,8,7,12,3,8,0,0,0,0,0,0,0,0,0,0],"split_type":[0,0,0,0,0,0,0,0,0,0,0,0,0,0,0,0,0,0,0,0,0,0,0],"sum_hessian":[3.3940735E2,4.6039953E0,3.3480334E2,3.5319958E0,1.0719994E0,1.7916885E1,3.1688644E2,1.197733E0,2.3342628E0,5.5409417E0,1.2375944E1,4.093109E1,2.7595535E2,1.1179096E0,1.2163533E0,1.0038681E0,4.5370736E0,1.1819708E0,1.1193973E1,1.1469259E1,2.9461834E1,5.2228638E1,2.2372673E2],"tree_param":{"num_deleted":"0","num_feature":"13","num_nodes":"23","size_leaf_vector":"1"}},{"base_weights":[-2.5668684E-3,9.532888E-3,-4.8180366E-1,-6.8760134E-2,1.1361254E-1,-8.0422185E-2,-1.5349998E-1,1.1698965E-1,-2.1114948E-1,6.864741E-1,4.756459E-2,-6.393533E-2,2.1569467E-1,2.4941307E-4,6.702134E-2,-7.137485E-3,-4.373253E-2,1.57756E-1,2.8560935E-2,-8.192154E-2,6.8761567E-3,6.41908E-2,-2.5147447E-2],"categories":[],"categories_nodes":[],"categories_segments":[],"categories_sizes":[],"default_left":[0,0,0,0,0,0,0,0,0,0,0,0,0,0,0,0,0,0,0,0,0,0,0],"id":33,"left_children":[1,3,5,7,9,-1,11,13,15,17,19,-1,21,-1,-1,-1,-1,-1,-1,-1,-1,-1,-1],"loss_changes":[1.9726073E0,2.7133029E0,7.633021E-1,5.052694E0,5.3746014E0,0E0,1.1041372E0,5.2642217E0,3.382051E0,4.8000603E0,2.4303663E0,0E0,9.197568E-1,0E0,0E0,0E0,0E0,0E0,0E0,0E0,0E0,0E0,0E0],"parents":[2147483647,0,0,1,1,2,2,3,3,4,4,6,6,7,7,8,8,9,9,10,10,12,12],"right_children":[2,4,6,8,10,-1,12,14,16,18,20,-1,22,-1,-1,-1,-1,-1,-1,-1,-1,-1,-1],"split_conditions":[1.66E2,8E0,1.78E2,1.1E1,1E1,-8.0422185E-2,6E0,3E0,4E0,1.3724134E0,3.4E1,-6.393533E-2,1.1E1,2.4941307E-4,6.702134E-2,-7.137485E-3,-4.373253E-2,1.57756E-1,2.8560935E-2,-8.192154E-2,6.8761567E-3,6.41908E-2,-2.5147447E-2],"split_indices":[7,6,7,7,6,0,3,6,4,12,7,0,0,0,0,0,0,0,0,0,0,0,0],"split_type":[0,0,0,0,0,0,0,0,0,0,0,0,0,0,0,0,0,0,0,0,0,0,0],"sum_hessian":[3.383919E2,3.3101456E2,7.3773384E0,1.8910289E2,1.4191167E2,2.990662E0,4.3866763E0,8.213479E1,1.0696811E2,1.3699201E1,1.2821246E2,1.578132E0,2.8085442E0,6.888319E1,1.3251598E1,6.692477E1,4.004334E1,3.3397806E0,1.035942E1,2.1618788E0,1.2605059E2,1.2730565E0,1.5354877E0],"tree_param":{"num_deleted":"0","num_feature":"13","num_nodes":"23","size_leaf_vector":"1"}},{"base_weights":[-2.5473812E-3,6.203118E-3,-6.4685786E-1,3.806865E-2,-1.8722543E-1,-5.0766463E-3,-8.095839E-2,-5.131578E-1,5.4137573E-2,8.988892E-2,-5.2872705E-1,-8.7996505E-2,1.3130644E-2,4.562942E-2,2.7331563E-3,2.829342E-2,-6.426161E-2,-6.815662E-2,1.341769E-2],"categories":[],"categories_nodes":[],"categories_segments":[],"categories_sizes":[],"default_left":[0,0,0,0,0,0,0,0,0,0,0,0,0,0,0,0,0,0,0],"id":34,"left_children":[1,3,5,7,9,-1,-1,11,13,15,17,-1,-1,-1,-1,-1,-1,-1,-1],"loss_changes":[1.9155791E0,2.0750234E0,4.0048862E-1,2.5865188E0,4.5541773E0,0E0,0E0,2.0724018E0,3.0231977E0,4.020113E0,2.2675228E0,0E0,0E0,0E0,0E0,0E0,0E0,0E0,0E0],"parents":[2147483647,0,0,1,1,2,2,3,3,4,4,7,7,8,8,9,9,10,10],"right_children":[2,4,6,8,10,-1,-1,12,14,16,18,-1,-1,-1,-1,-1,-1,-1,-1],"split_conditions":[4.2103745E3,3E0,4E0,2E0,7E0,-5.0766463E-3,-8.095839E-2,1E1,1E0,1.378245E1,6E0,-8.7996505E-2,1.3130644E-2,4.562942E-2,2.7331563E-3,2.829342E-2,-6.426161E-2,-6.815662E-2,1.341769E-2],"split_indices":[12,11,3,1,10,0,0,3,3,12,4,0,0,0,0,0,0,0,0],"split_type":[0,0,0,0,0,0,0,0,0,0,0,0,0,0,0,0,0,0,0],"sum_hessian":[3.3804816E2,3.344957E2,3.552475E0,2.878743E2,4.6621387E1,1.0431659E0,2.5093088E0,7.2779408E0,2.8059634E2,2.6143673E1,2.0477716E1,4.405218E0,2.8727224E0,1.653333E1,2.6406302E2,2.1176529E1,4.967144E0,1.6618095E1,3.8596213E0],"tree_param":{"num_deleted":"0","num_feature":"13","num_nodes":"19","size_leaf_vector":"1"}},{"base_weights":[-3.1358353E-3,5.6148714E-1,-1.2717608E-2,9.457269E-2,1.7316878E-1,-2.8030915E-2,3.7578532E-1,-5.4970015E-2,6.164627E-2,-9.874813E-2,5.8635324E-2,-2.0554875E-1,7.3569995E-1,8.969558E-3,-2.1480177E-2,3.162191E-2,-6.3515804E-3,2.847825E-2,-7.299834E-2,-5.6052905E-2,1.00356415E-1],"categories":[],"categories_nodes":[],"categories_segments":[],"categories_sizes":[],"default_left":[0,0,0,0,0,0,0,0,0,0,0,0,0,0,0,0,0,0,0,0,0],"id":35,"left_children":[1,3,5,-1,7,9,11,-1,-1,13,15,17,19,-1,-1,-1,-1,-1,-1,-1,-1],"loss_changes":[1.8414656E0,6.837262E-1,1.9998267E0,0E0,1.6363938E0,1.983104E0,2.8188E0,0E0,0E0,3.9127793E0,4.601063E0,1.6625035E0,3.3724198E0,0E0,0E0,0E0,0E0,0E0,0E0,0E0,0E0],"parents":[2147483647,0,0,1,1,2,2,4,4,5,5,6,6,9,9,10,10,11,11,12,12],"right_children":[2,4,6,-1,8,10,12,-1,-1,14,16,18,20,-1,-1,-1,-1,-1,-1,-1,-1],"split_conditions":[2E0,1.1E1,1.4E1,9.457269E-2,1.01E2,8E0,1.1E1,-5.4970015E-2,6.164627E-2,1E1,4.19E2,4E0,7.694754E-1,8.969558E-3,-2.1480177E-2,3.162191E-2,-6.3515804E-3,2.847825E-2,-7.299834E-2,-5.6052905E-2,1.00356415E-1],"split_indices":[11,0,0,0,8,6,3,0,0,7,8,3,12,0,0,0,0,0,0,0,0],"split_type":[0,0,0,0,0,0,0,0,0,0,0,0,0,0,0,0,0,0,0,0,0],"sum_hessian":[3.380563E2,4.6799917E0,3.333763E2,1.6308391E0,3.0491524E0,3.2162686E2,1.1749458E1,1.0678307E0,1.9813218E0,1.7703328E2,1.4459358E2,4.656759E0,7.0926995E0,6.755958E1,1.09473694E2,4.6001045E1,9.8592545E1,2.6427946E0,2.013964E0,1.02757E0,6.0651293E0],"tree_param":{"num_deleted":"0","num_feature":"13","num_nodes":"21","size_leaf_vector":"1"}},{"base_weights":[-2.7204913E-3,2.9599031E-2,-1.639456E-1,-5.2924987E-2,1.2606388E-1,-2.7806053E-2,-5.7870346E-1,9.705406E-2,-3.6198896E-1,4.3877915E-1,8.488069E-3,-7.5238544E-1,9.8160386E-2,-6.6844803E-1,2.8392151E-2,-3.959605E-3,3.5494518E-2,7.013947E-2,-5.4611035E-2,-3.667376E-2,5.6217123E-2,-6.3845143E-3,3.7237264E-2,-8.739537E-2,-5.320976E-3,2.7405908E-2,-3.4451965E-2,-2.072679E-2,-9.291785E-2],"categories":[],"categories_nodes":[],"categories_segments":[],"categories_sizes":[],"default_left":[0,0,0,0,0,0,0,0,0,0,0,0,0,0,0,0,0,0,0,0,0,0,0,0,0,0,0,0,0],"id":36,"left_children":[1,3,5,7,9,11,13,15,17,19,21,23,25,27,-1,-1,-1,-1,-1,-1,-1,-1,-1,-1,-1,-1,-1,-1,-1],"loss_changes":[1.7700284E0,2.2598374E0,3.1866777E0,7.138532E0,4.8052E0,4.067461E0,1.2710314E0,3.6778836E0,1.02274275E1,3.7564173E0,2.552509E0,5.140989E-1,3.0657523E0,1.3644094E0,0E0,0E0,0E0,0E0,0E0,0E0,0E0,0E0,0E0,0E0,0E0,0E0,0E0,0E0,0E0],"parents":[2147483647,0,0,1,1,2,2,3,3,4,4,5,5,6,6,7,7,8,8,9,9,10,10,11,11,12,12,13,13],"right_children":[2,4,6,8,10,12,14,16,18,20,22,24,26,28,-1,-1,-1,-1,-1,-1,-1,-1,-1,-1,-1,-1,-1,-1,-1],"split_conditions":[1.3E1,1.39E2,4.63E2,6.4E1,4.09E2,2.7E1,4.6E1,8E0,2E0,3E0,6E0,1.3E1,7.229338E0,1.6E1,2.8392151E-2,-3.959605E-3,3.5494518E-2,7.013947E-2,-5.4611035E-2,-3.667376E-2,5.6217123E-2,-6.3845143E-3,3.7237264E-2,-8.739537E-2,-5.320976E-3,2.7405908E-2,-3.4451965E-2,-2.072679E-2,-9.291785E-2],"split_indices":[1,8,8,8,8,8,6,10,3,1,4,3,12,6,0,0,0,0,0,0,0,0,0,0,0,0,0,0,0],"split_type":[0,0,0,0,0,0,0,0,0,0,0,0,0,0,0,0,0,0,0,0,0,0,0,0,0,0,0,0,0],"sum_hessian":[3.3775864E2,2.8203726E2,5.5721367E1,1.5224535E2,1.2979192E2,4.2754673E1,1.2966693E1,1.0296542E2,4.927992E1,3.4718792E1,9.507313E1,5.595506E0,3.7159164E1,1.1948691E1,1.0180012E0,6.785644E1,3.5108986E1,6.8586607E0,4.2421257E1,4.3499193E0,3.0368872E1,7.999601E1,1.5077114E1,4.553752E0,1.0417546E0,2.68652E1,1.0293965E1,4.9637527E0,6.9849386E0],"tree_param":{"num_deleted":"0","num_feature":"13","num_nodes":"29","size_leaf_vector":"1"}},{"base_weights":[-3.2504615E-3,-1.8489458E-2,3.4567967E-1,-1.4744468E-3,-4.1511214E-1,-4.4662818E-1,5.69798E-1,1.9386502E-2,-4.000091E-1,-5.942327E-1,9.8786525E-2,1.1809647E-2,-7.052751E-2,7.4021286E-1,-3.0437425E-2,5.762917E-3,-2.117954E-2,6.1149538E-2,-6.502109E-2,-2.5461828E-2,-8.9660965E-2,7.0368685E-2,-6.4010404E-2,1.0821575E-1,1.6246172E-2],"categories":[],"categories_nodes":[],"categories_segments":[],"categories_sizes":[],"default_left":[0,0,0,0,0,0,0,0,0,0,0,0,0,0,0,0,0,0,0,0,0,0,0,0,0],"id":37,"left_children":[1,3,5,7,9,11,13,15,17,19,21,-1,-1,23,-1,-1,-1,-1,-1,-1,-1,-1,-1,-1,-1],"loss_changes":[1.8068542E0,2.195241E0,2.7795222E0,2.6099854E0,1.2904241E0,6.2314737E-1,1.9420338E0,2.6502383E0,4.3494596E0,8.0530477E-1,2.379479E0,0E0,0E0,1.786984E0,0E0,0E0,0E0,0E0,0E0,0E0,0E0,0E0,0E0,0E0,0E0],"parents":[2147483647,0,0,1,1,2,2,3,3,4,4,5,5,6,6,7,7,8,8,9,9,10,10,13,13],"right_children":[2,4,6,8,10,12,14,16,18,20,22,-1,-1,24,-1,-1,-1,-1,-1,-1,-1,-1,-1,-1,-1],"split_conditions":[1.8E1,4.9835336E2,2E0,1.55E2,4.18E2,1.3E1,5.37E2,3E0,5E0,2.9E1,5.33E2,1.1809647E-2,-7.052751E-2,1.2E1,-3.0437425E-2,5.762917E-3,-2.117954E-2,6.1149538E-2,-6.502109E-2,-2.5461828E-2,-8.9660965E-2,7.0368685E-2,-6.4010404E-2,1.0821575E-1,1.6246172E-2],"split_indices":[3,12,4,7,8,7,8,11,1,7,8,0,0,0,0,0,0,0,0,0,0,0,0,0,0],"split_type":[0,0,0,0,0,0,0,0,0,0,0,0,0,0,0,0,0,0,0,0,0,0,0,0,0],"sum_hessian":[3.3760184E2,3.2438196E2,1.3219882E1,3.1200092E2,1.2381042E1,2.6960225E0,1.0523859E1,2.9738586E2,1.4615048E1,9.065069E0,3.3159726E0,1.0176064E0,1.678416E0,8.935228E0,1.5886304E0,2.5581848E2,4.156739E1,2.6118736E0,1.2003175E1,5.13724E0,3.9278295E0,1.8495024E0,1.46647E0,5.064645E0,3.870584E0],"tree_param":{"num_deleted":"0","num_feature":"13","num_nodes":"25","size_leaf_vector":"1"}},{"base_weights":[-3.3973176E-3,4.5944448E-3,-6.1914074E-1,3.6187775E-2,-1.5340963E-1,-4.53935E-3,-7.843609E-2,3.105443E-1,1.0144256E-2,-7.0017695E-1,-6.129915E-2,5.9655428E-2,-4.4950332E-2,-1.03897555E-2,1.219956E-2,3.398186E-3,-9.072258E-2,6.5088584E-3,-4.764839E-2],"categories":[],"categories_nodes":[],"categories_segments":[],"categories_sizes":[],"default_left":[0,0,0,0,0,0,0,0,0,0,0,0,0,0,0,0,0,0,0],"id":38,"left_children":[1,3,5,7,9,-1,-1,11,13,15,17,-1,-1,-1,-1,-1,-1,-1,-1],"loss_changes":[1.6670206E0,1.6770633E0,3.7584853E-1,1.9965005E0,2.7767837E0,0E0,0E0,5.535063E0,3.286178E0,1.243248E0,2.6028566E0,0E0,0E0,0E0,0E0,0E0,0E0,0E0,0E0],"parents":[2147483647,0,0,1,1,2,2,3,3,4,4,7,7,8,8,9,9,10,10],"right_children":[2,4,6,8,10,-1,-1,12,14,16,18,-1,-1,-1,-1,-1,-1,-1,-1],"split_conditions":[4.2103745E3,1.3E1,4E0,1.9E1,1.4E1,-4.53935E-3,-7.843609E-2,7E0,1.39E2,2E0,4.63E2,5.9655428E-2,-4.4950332E-2,-1.03897555E-2,1.219956E-2,3.398186E-3,-9.072258E-2,6.5088584E-3,-4.764839E-2],"split_indices":[12,1,3,8,1,0,0,7,8,4,8,0,0,0,0,0,0,0,0],"split_type":[0,0,0,0,0,0,0,0,0,0,0,0,0,0,0,0,0,0,0],"sum_hessian":[3.3718698E2,3.3384653E2,3.3404713E0,2.7885892E2,5.4987606E1,1.0318817E0,2.3085895E0,2.3228912E1,2.5563E2,6.976088E0,4.8011517E1,1.7034027E1,6.1948853E0,1.266108E2,1.290192E2,1.7184922E0,5.257596E0,3.7453426E1,1.055809E1],"tree_param":{"num_deleted":"0","num_feature":"13","num_nodes":"19","size_leaf_vector":"1"}},{"base_weights":[-3.8515062E-3,-2.818356E-1,1.2234137E-2,2.0588848E-1,-4.854322E-1,3.177111E-1,-3.3328116E-2,-4.4384366E-1,1.285535E-1,-8.376253E-1,3.3837563E-1,-1.9811644E-1,5.052712E-1,-2.5188234E-1,9.14318E-3,3.3226963E-2,-8.113094E-2,-9.291988E-2,-2.7847637E-3,-5.494819E-2,7.254814E-2,5.8036875E-2,-7.036006E-2,9.27986E-2,2.3519343E-2,-5.525009E-2,8.5580966E-4,3.1638395E-2,-6.1754514E-3],"categories":[],"categories_nodes":[],"categories_segments":[],"categories_sizes":[],"default_left":[0,0,0,0,0,0,0,0,0,0,0,0,0,0,0,0,0,0,0,0,0,0,0,0,0,0,0,0,0],"id":39,"left_children":[1,3,5,7,9,11,13,15,-1,17,19,21,23,25,27,-1,-1,-1,-1,-1,-1,-1,-1,-1,-1,-1,-1,-1,-1],"loss_changes":[1.5158373E0,1.9411986E0,4.4739127E0,4.893822E0,4.165352E0,4.1361723E0,2.601017E0,1.5788784E0,0E0,6.9047403E-1,2.0206058E0,5.0684333E0,3.3065877E0,3.5739565E0,5.146677E0,0E0,0E0,0E0,0E0,0E0,0E0,0E0,0E0,0E0,0E0,0E0,0E0,0E0,0E0],"parents":[2147483647,0,0,1,1,2,2,3,3,4,4,5,5,6,6,7,7,9,9,10,10,11,11,12,12,13,13,14,14],"right_children":[2,4,6,8,10,12,14,16,-1,18,20,22,24,26,28,-1,-1,-1,-1,-1,-1,-1,-1,-1,-1,-1,-1,-1,-1],"split_conditions":[4E0,6.1E1,5E0,4.2E1,1.4E1,3E0,7E0,4E0,1.285535E-1,5.5E2,6E0,2E0,2.7102475E0,1.12E2,1.2E1,3.3226963E-2,-8.113094E-2,-9.291988E-2,-2.7847637E-3,-5.494819E-2,7.254814E-2,5.8036875E-2,-7.036006E-2,9.27986E-2,2.3519343E-2,-5.525009E-2,8.5580966E-4,3.1638395E-2,-6.1754514E-3],"split_indices":[0,8,0,8,3,3,0,10,0,8,10,3,12,8,0,0,0,0,0,0,0,0,0,0,0,0,0,0,0],"split_type":[0,0,0,0,0,0,0,0,0,0,0,0,0,0,0,0,0,0,0,0,0,0,0,0,0,0,0,0,0],"sum_hessian":[3.372246E2,1.7542524E1,3.196821E2,5.1630263E0,1.23794985E1,4.0717068E1,2.7896503E2,3.5909119E0,1.5721146E0,8.660291E0,3.7192073E0,1.08422985E1,2.9874767E1,4.458796E1,2.3437708E2,1.184643E0,2.4062688E0,7.647951E0,1.0123396E0,1.0018724E0,2.717335E0,4.210167E0,6.6321316E0,1.0696712E1,1.9178057E1,2.017693E1,2.4411032E1,4.329448E1,1.910826E2],"tree_param":{"num_deleted":"0","num_feature":"13","num_nodes":"29","size_leaf_vector":"1"}},{"base_weights":[-3.6306975E-3,6.794466E-3,-4.4402808E-1,-3.1904862E-3,7.7604604E-1,1.3148059E-2,-5.99535E-1,-2.0341142E-1,2.786839E-2,1.266667E-1,-1.682077E-2,-8.036398E-2,-1.5159297E-1,-9.27535E-3,-7.7255465E-2,8.0797647E-4,4.8400827E-2,-5.7091493E-2,3.116258E-2],"categories":[],"categories_nodes":[],"categories_segments":[],"categories_sizes":[],"default_left":[0,0,0,0,0,0,0,0,0,0,0,0,0,0,0,0,0,0,0],"id":40,"left_children":[1,3,5,7,9,-1,11,13,15,-1,-1,-1,17,-1,-1,-1,-1,-1,-1],"loss_changes":[1.5497985E0,2.5379117E0,7.7741265E-1,2.0382962E0,2.1744804E0,0E0,4.56465E-1,2.70042E0,2.5581875E0,0E0,0E0,0E0,8.018814E-1,0E0,0E0,0E0,0E0,0E0,0E0],"parents":[2147483647,0,0,1,1,2,2,3,3,4,4,6,6,7,7,8,8,12,12],"right_children":[2,4,6,8,10,-1,12,14,16,-1,-1,-1,18,-1,-1,-1,-1,-1,-1],"split_conditions":[1.66E2,1.6E2,1.061247E0,7E0,2.8E1,1.3148059E-2,5.9145474E0,1.21E2,1.4E1,1.266667E-1,-1.682077E-2,-8.036398E-2,5.36E2,-9.27535E-3,-7.7255465E-2,8.0797647E-4,4.8400827E-2,-5.7091493E-2,3.116258E-2],"split_indices":[7,7,12,1,6,0,12,7,0,0,0,0,8,0,0,0,0,0,0],"split_type":[0,0,0,0,0,0,0,0,0,0,0,0,0,0,0,0,0,0,0],"sum_hessian":[3.3590027E2,3.2909445E2,6.8058095E0,3.258606E2,3.2338467E0,1.4806479E0,5.3251615E0,4.301505E1,2.8284555E2,1.9034126E0,1.330434E0,3.1127613E0,2.2124002E0,3.698673E1,6.0283203E0,2.7206052E2,1.0785035E1,1.039192E0,1.1732084E0],"tree_param":{"num_deleted":"0","num_feature":"13","num_nodes":"19","size_leaf_vector":"1"}},{"base_weights":[-3.4760279E-3,3.981793E-3,-5.9752065E-1,5.01224E-1,-4.743844E-3,-4.1675544E-3,-7.6479755E-2,6.607392E-1,-9.481787E-3,-3.7190554E-1,8.488689E-3,-1.3753156E-2,9.821982E-2,-8.768066E-2,2.2882579E-2,2.4538182E-2,-3.2623082E-3],"categories":[],"categories_nodes":[],"categories_segments":[],"categories_sizes":[],"default_left":[0,0,0,0,0,0,0,0,0,0,0,0,0,0,0,0,0],"id":41,"left_children":[1,3,5,7,9,-1,-1,11,-1,13,15,-1,-1,-1,-1,-1,-1],"loss_changes":[1.4942095E0,1.4495844E0,3.5693967E-1,6.104548E-1,1.6005851E0,0E0,0E0,1.3336456E0,0E0,3.6765027E0,3.1082714E0,0E0,0E0,0E0,0E0,0E0,0E0],"parents":[2147483647,0,0,1,1,2,2,3,3,4,4,7,7,9,9,10,10],"right_children":[2,4,6,8,10,-1,-1,12,-1,14,16,-1,-1,-1,-1,-1,-1],"split_conditions":[4.2103745E3,2E0,4E0,1.7E1,3E0,-4.1675544E-3,-7.6479755E-2,7E0,-9.481787E-3,7E0,5E0,-1.3753156E-2,9.821982E-2,-8.768066E-2,2.2882579E-2,2.4538182E-2,-3.2623082E-3],"split_indices":[12,11,3,6,0,0,0,10,0,10,0,0,0,0,0,0,0],"split_type":[0,0,0,0,0,0,0,0,0,0,0,0,0,0,0,0,0],"sum_hessian":[3.3573514E2,3.3255347E2,3.1816826E0,4.761652E0,3.277918E2,1.0249646E0,2.156718E0,3.6707306E0,1.0909213E0,1.0459788E1,3.1733203E2,1.2180768E0,2.4526536E0,5.4334946E0,5.0262938E0,4.6192753E1,2.7113928E2],"tree_param":{"num_deleted":"0","num_feature":"13","num_nodes":"17","size_leaf_vector":"1"}},{"base_weights":[-3.3965043E-3,6.333795E-3,-4.256495E-1,-1.4375321E-3,8.618715E-2,-7.699003E-2,-9.4415754E-2,-1.9296221E-1,2.7765565E-2,-5.9376687E-2,2.4884412E-1,-8.6113205E-3,-7.5819746E-2,-2.2326952E-2,6.3698404E-3,6.404141E-2,-2.3042103E-2],"categories":[],"categories_nodes":[],"categories_segments":[],"categories_sizes":[],"default_left":[0,0,0,0,0,0,0,0,0,0,0,0,0,0,0,0,0],"id":42,"left_children":[1,3,5,7,-1,-1,9,11,13,-1,15,-1,-1,-1,-1,-1,-1],"loss_changes":[1.3842709E0,2.193113E0,7.92644E-1,1.8382329E0,0E0,0E0,1.0060443E0,2.5607963E0,2.5870225E0,0E0,8.366972E-1,0E0,0E0,0E0,0E0,0E0,0E0],"parents":[2147483647,0,0,1,1,2,2,3,3,6,6,7,7,8,8,10,10],"right_children":[2,4,6,8,-1,-1,10,12,14,-1,16,-1,-1,-1,-1,-1,-1],"split_conditions":[1.66E2,1.63E2,1.78E2,7E0,8.618715E-2,-7.699003E-2,6E0,1.21E2,8.782407E-1,-5.9376687E-2,2.3E1,-8.6113205E-3,-7.5819746E-2,-2.2326952E-2,6.3698404E-3,6.404141E-2,-2.3042103E-2],"split_indices":[7,7,7,1,0,0,3,7,12,0,6,0,0,0,0,0,0],"split_type":[0,0,0,0,0,0,0,0,0,0,0,0,0,0,0,0,0],"sum_hessian":[3.3526022E2,3.2867142E2,6.588827E0,3.2670212E2,1.9692982E0,2.5815177E0,4.0073094E0,4.2481983E1,2.8422012E2,1.3351849E0,2.6721244E0,3.6697277E1,5.7847066E0,3.4935963E1,2.4928416E2,1.2855558E0,1.3865687E0],"tree_param":{"num_deleted":"0","num_feature":"13","num_nodes":"17","size_leaf_vector":"1"}},{"base_weights":[-3.5077855E-3,3.482225E-3,-5.7742107E-1,3.3018775E-2,-1.4570981E-1,-3.979746E-3,-7.454514E-2,6.441995E-2,-1.6871819E-1,-7.3316264E-1,-6.957431E-2,-4.8264947E-2,8.237298E-3,-3.760944E-2,1.16364155E-2,-8.5952416E-2,-5.1793647E-3,8.421334E-3,-5.283006E-2],"categories":[],"categories_nodes":[],"categories_segments":[],"categories_sizes":[],"default_left":[0,0,0,0,0,0,0,0,0,0,0,0,0,0,0,0,0,0,0],"id":43,"left_children":[1,3,5,7,9,-1,-1,11,13,15,17,-1,-1,-1,-1,-1,-1,-1,-1],"loss_changes":[1.3507065E0,1.4728429E0,3.3632576E-1,1.7776566E0,2.4196386E0,0E0,0E0,2.4171746E0,2.280927E0,4.921329E-1,3.5722811E0,0E0,0E0,0E0,0E0,0E0,0E0,0E0,0E0],"parents":[2147483647,0,0,1,1,2,2,3,3,4,4,7,7,8,8,9,9,10,10],"right_children":[2,4,6,8,10,-1,-1,12,14,16,18,-1,-1,-1,-1,-1,-1,-1,-1],"split_conditions":[4.2103745E3,1.3E1,4E0,3E0,2.7E1,-3.979746E-3,-7.454514E-2,2E0,9E0,1.3E1,4.63E2,-4.8264947E-2,8.237298E-3,-3.760944E-2,1.16364155E-2,-8.5952416E-2,-5.1793647E-3,8.421334E-3,-5.283006E-2],"split_indices":[12,1,3,11,8,0,0,1,3,3,8,0,0,0,0,0,0,0,0],"split_type":[0,0,0,0,0,0,0,0,0,0,0,0,0,0,0,0,0,0,0],"sum_hessian":[3.3519394E2,3.3214252E2,3.0514164E0,2.779029E2,5.4239616E1,1.0211208E0,2.0302956E0,2.4106139E2,3.684151E1,5.2329636E0,4.9006653E1,6.8370442E0,2.3422433E2,2.1142595E1,1.5698915E1,4.193755E0,1.039208E0,3.7313686E1,1.1692967E1],"tree_param":{"num_deleted":"0","num_feature":"13","num_nodes":"19","size_leaf_vector":"1"}},{"base_weights":[-4.1641276E-3,-6.183166E-2,6.773575E-2,-2.8498773E-2,-6.736841E-1,5.722004E-1,9.576794E-3,-5.3952362E-2,6.195059E-1,1.5438693E-2,-8.441254E-1,9.507168E-1,-8.95154E-2,1.24067865E-1,-1.4368907E-1,4.9161334E-3,-2.278139E-2,9.54228E-2,-6.1065335E-2,-9.490608E-2,-1.2502151E-2,1.8857375E-1,3.758123E-2,3.8553484E-2,-7.6108605E-2,2.7135914E-2,-3.0422244E-2,-6.825172E-2,-4.7830045E-3],"categories":[],"categories_nodes":[],"categories_segments":[],"categories_sizes":[],"default_left":[0,0,0,0,0,0,0,0,0,0,0,0,0,0,0,0,0,0,0,0,0,0,0,0,0,0,0,0,0],"id":44,"left_children":[1,3,5,7,9,11,13,15,17,-1,19,21,23,25,27,-1,-1,-1,-1,-1,-1,-1,-1,-1,-1,-1,-1,-1,-1],"loss_changes":[1.3978472E0,3.795537E0,4.397666E0,2.976376E0,1.4879665E0,3.9665518E0,2.3969429E0,3.1055121E0,3.392462E0,0E0,4.9497938E-1,4.6365957E0,2.3839684E0,5.0121484E0,2.9857087E0,0E0,0E0,0E0,0E0,0E0,0E0,0E0,0E0,0E0,0E0,0E0,0E0,0E0,0E0],"parents":[2147483647,0,0,1,1,2,2,3,3,4,4,5,5,6,6,7,7,8,8,10,10,11,11,12,12,13,13,14,14],"right_children":[2,4,6,8,10,12,14,16,18,-1,20,22,24,26,28,-1,-1,-1,-1,-1,-1,-1,-1,-1,-1,-1,-1,-1,-1],"split_conditions":[8E0,4.2E1,1E1,3.8E1,8E0,4E0,9E0,5.2E1,9E0,1.5438693E-2,1.2E1,1.5776896E0,9.7E1,8.55027E0,1.1176599E0,4.9161334E-3,-2.278139E-2,9.54228E-2,-6.1065335E-2,-9.490608E-2,-1.2502151E-2,1.8857375E-1,3.758123E-2,3.8553484E-2,-7.6108605E-2,2.7135914E-2,-3.0422244E-2,-6.825172E-2,-4.7830045E-3],"split_indices":[6,7,6,7,1,4,3,8,10,0,3,12,7,12,12,0,0,0,0,0,0,0,0,0,0,0,0,0,0],"split_type":[0,0,0,0,0,0,0,0,0,0,0,0,0,0,0,0,0,0,0,0,0,0,0,0,0,0,0,0,0],"sum_hessian":[3.35122E2,1.8604446E2,1.4907755E2,1.7742517E2,8.619304E0,1.4496642E1,1.345809E2,1.7160141E2,5.823754E0,1.4873526E0,7.1319513E0,8.943827E0,5.552816E0,7.714406E1,5.743685E1,1.08167015E2,6.343439E1,4.7544026E0,1.0693514E0,5.9446893E0,1.187262E0,2.5372205E0,6.406606E0,3.5017188E0,2.0510972E0,5.767555E1,1.946851E1,7.7505608E0,4.968629E1],"tree_param":{"num_deleted":"0","num_feature":"13","num_nodes":"29","size_leaf_vector":"1"}},{"base_weights":[-4.02679E-3,-1.7299384E-2,3.0027363E-1,-1.170199E-3,-3.3714992E-1,-4.5162442E-1,5.1006275E-1,-2.4173655E-2,3.4239787E-1,6.3418716E-2,-5.236797E-1,9.25365E-3,-6.9716044E-2,6.502793E-1,-2.6258586E-2,1.8643176E-2,-5.79369E-3,8.141833E-2,-1.104021E-2,2.8899878E-2,-6.8374634E-2,-3.1943545E-3,8.529871E-2],"categories":[],"categories_nodes":[],"categories_segments":[],"categories_sizes":[],"default_left":[0,0,0,0,0,0,0,0,0,0,0,0,0,0,0,0,0,0,0,0,0,0,0],"id":45,"left_children":[1,3,5,7,9,11,13,15,17,-1,19,-1,-1,21,-1,-1,-1,-1,-1,-1,-1,-1,-1],"loss_changes":[1.3616194E0,1.6646658E0,2.4530199E0,2.4445524E0,3.1387734E0,5.4607666E-1,1.4151752E0,2.0718591E0,4.2364073E0,0E0,1.9593043E0,0E0,0E0,1.4115181E0,0E0,0E0,0E0,0E0,0E0,0E0,0E0,0E0,0E0],"parents":[2147483647,0,0,1,1,2,2,3,3,4,4,5,5,6,6,7,7,8,8,10,10,13,13],"right_children":[2,4,6,8,10,12,14,16,18,-1,20,-1,-1,22,-1,-1,-1,-1,-1,-1,-1,-1,-1],"split_conditions":[1.8E1,1.55E2,2E0,5.49E2,3E0,1.3E1,5.37E2,2E0,5.58E2,6.3418716E-2,1.061247E0,9.25365E-3,-6.9716044E-2,6E0,-2.6258586E-2,1.8643176E-2,-5.79369E-3,8.141833E-2,-1.104021E-2,2.8899878E-2,-6.8374634E-2,-3.1943545E-3,8.529871E-2],"split_indices":[3,7,4,8,1,7,8,3,8,0,12,0,0,10,0,0,0,0,0,0,0,0,0],"split_type":[0,0,0,0,0,0,0,0,0,0,0,0,0,0,0,0,0,0,0,0,0,0,0],"sum_hessian":[3.348438E2,3.2175314E2,1.3090673E1,3.072624E2,1.4490741E1,2.6042204E0,1.0486453E1,2.8885208E2,1.841033E1,1.9478028E0,1.2542937E1,1.00346E0,1.6007603E0,9.009778E0,1.476675E0,3.928456E1,2.4956752E2,8.625287E0,9.785043E0,1.9314147E0,1.0611523E1,2.256806E0,6.7529726E0],"tree_param":{"num_deleted":"0","num_feature":"13","num_nodes":"23","size_leaf_vector":"1"}},{"base_weights":[-3.525017E-3,4.5766896E-1,-1.1656906E-2,8.023941E-2,1.2779935E-1,-2.9765517E-1,4.2649377E-3,-5.5155825E-2,5.398493E-2,-5.1525956E-1,1.5753183E-1,2.6147255E-1,-3.5154194E-2,-6.480102E-2,5.9168744E-3,-4.6134416E-2,6.725598E-2,-2.017633E-2,4.2874705E-2,-2.3830658E-2,3.643911E-4],"categories":[],"categories_nodes":[],"categories_segments":[],"categories_sizes":[],"default_left":[0,0,0,0,0,0,0,0,0,0,0,0,0,0,0,0,0,0,0,0,0],"id":46,"left_children":[1,3,5,-1,7,9,11,-1,-1,13,15,17,19,-1,-1,-1,-1,-1,-1,-1,-1],"loss_changes":[1.263445E0,5.612395E-1,1.5068095E0,0E0,1.4657271E0,1.8095769E0,3.1945827E0,0E0,0E0,9.5646214E-1,2.3533015E0,3.330884E0,2.1550422E0,0E0,0E0,0E0,0E0,0E0,0E0,0E0,0E0],"parents":[2147483647,0,0,1,1,2,2,4,4,5,5,6,6,9,9,10,10,11,11,12,12],"right_children":[2,4,6,-1,8,10,12,-1,-1,14,16,18,20,-1,-1,-1,-1,-1,-1,-1,-1],"split_conditions":[2E0,1.1E1,4E0,8.023941E-2,1.01E2,9.184278E0,5E0,-5.5155825E-2,5.398493E-2,1.6E1,7E0,3E0,7E0,-6.480102E-2,5.9168744E-3,-4.6134416E-2,6.725598E-2,-2.017633E-2,4.2874705E-2,-2.3830658E-2,3.643911E-4],"split_indices":[11,0,0,0,8,12,0,0,0,3,10,3,0,0,0,0,0,0,0,0,0],"split_type":[0,0,0,0,0,0,0,0,0,0,0,0,0,0,0,0,0,0,0,0,0],"sum_hessian":[3.3446216E2,4.837304E0,3.2962485E2,1.6649336E0,3.1723707E0,1.6449722E1,3.131751E2,1.0698724E0,2.1024983E0,1.1040014E1,5.4097075E0,4.086967E1,2.7230545E2,8.863549E0,2.1764655E0,2.504475E0,2.9052322E0,1.0788032E1,3.008164E1,4.2841106E1,2.2946434E2],"tree_param":{"num_deleted":"0","num_feature":"13","num_nodes":"21","size_leaf_vector":"1"}},{"base_weights":[-3.2100417E-3,-5.970196E-2,6.0785305E-2,3.0765206E-2,-2.812939E-1,1.7874268E-1,-1.2701172E-1,-1.09369956E-1,3.6361134E-1,5.082602E-1,-4.3290305E-1,-8.506379E-2,2.3438999E-1,1.5064034E-1,-3.333253E-1,-5.395415E-2,2.1529457E-4,-5.761692E-2,4.908055E-2,1.0831387E-1,-1.0001223E-2,-5.2640833E-2,1.9348053E-2,5.7473343E-2,7.3544644E-3,-2.4132922E-3,1.12991594E-1,2.181175E-3,-5.3347047E-2],"categories":[],"categories_nodes":[],"categories_segments":[],"categories_sizes":[],"default_left":[0,0,0,0,0,0,0,0,0,0,0,0,0,0,0,0,0,0,0,0,0,0,0,0,0,0,0,0,0],"id":47,"left_children":[1,3,5,7,9,11,13,15,17,19,21,-1,23,25,27,-1,-1,-1,-1,-1,-1,-1,-1,-1,-1,-1,-1,-1,-1],"loss_changes":[1.2136191E0,3.582453E0,3.5098896E0,5.9864454E0,6.4183507E0,5.761745E0,3.562605E0,4.342208E0,4.8256636E0,3.1859353E0,2.6777325E0,0E0,5.043779E0,4.618854E0,2.534116E0,0E0,0E0,0E0,0E0,0E0,0E0,0E0,0E0,0E0,0E0,0E0,0E0,0E0,0E0],"parents":[2147483647,0,0,1,1,2,2,3,3,4,4,5,5,6,6,7,7,8,8,9,9,10,10,12,12,13,13,14,14],"right_children":[2,4,6,8,10,12,14,16,18,20,22,-1,24,26,28,-1,-1,-1,-1,-1,-1,-1,-1,-1,-1,-1,-1,-1,-1],"split_conditions":[1.39E2,7.5E1,8E0,3E0,2E0,4E0,1.05E2,3E0,9.9604857E-1,3.2616806E0,1.5E1,-8.506379E-2,4.15E2,2E1,1.7E1,-5.395415E-2,2.1529457E-4,-5.761692E-2,4.908055E-2,1.0831387E-1,-1.0001223E-2,-5.2640833E-2,1.9348053E-2,5.7473343E-2,7.3544644E-3,-2.4132922E-3,1.12991594E-1,2.181175E-3,-5.3347047E-2],"split_indices":[8,8,10,6,3,0,7,3,12,12,1,0,8,6,6,0,0,0,0,0,0,0,0,0,0,0,0,0,0],"split_type":[0,0,0,0,0,0,0,0,0,0,0,0,0,0,0,0,0,0,0,0,0,0,0,0,0,0,0,0,0],"sum_hessian":[3.336934E2,1.7727281E2,1.5642056E2,1.2649223E2,5.078058E1,9.610449E1,6.0316074E1,8.9487526E1,3.7004704E1,7.801144E0,4.2979435E1,4.1961737E0,9.190832E1,2.5827658E1,3.448842E1,1.7633356E1,7.185417E1,3.9905417E0,3.3014164E1,3.6093063E0,4.191838E0,3.7535778E1,5.443659E0,2.8670109E1,6.3238205E1,2.274387E1,3.0837877E0,1.2752116E1,2.1736301E1],"tree_param":{"num_deleted":"0","num_feature":"13","num_nodes":"29","size_leaf_vector":"1"}},{"base_weights":[-3.3692268E-3,6.7334734E-2,-5.6960136E-2,-1.6032116E-2,3.118507E-1,-6.018381E-1,-3.0256456E-2,6.014015E-2,-4.5831195E-1,-1.6737789E-1,5.3436637E-1,-8.955764E-2,1.5329629E-1,7.882579E-1,-4.7178242E-2,1.7960459E-3,8.640914E-2,-6.780197E-2,4.3127358E-2,-7.437601E-2,1.3896038E-2,9.437496E-2,2.6128009E-2,8.369411E-2,-5.7600845E-2,-2.0941472E-2,1.4441495E-1,-6.9650686E-3,4.8702985E-2],"categories":[],"categories_nodes":[],"categories_segments":[],"categories_sizes":[],"default_left":[0,0,0,0,0,0,0,0,0,0,0,0,0,0,0,0,0,0,0,0,0,0,0,0,0,0,0,0,0],"id":48,"left_children":[1,3,5,7,9,11,13,15,17,19,21,-1,23,25,27,-1,-1,-1,-1,-1,-1,-1,-1,-1,-1,-1,-1,-1,-1],"loss_changes":[1.27086E0,2.9532676E0,2.7573223E0,3.6933033E0,4.0160837E0,2.1023052E0,2.570431E0,3.162128E0,3.4396439E0,2.2994406E0,2.591414E0,0E0,2.144769E0,2.763517E0,2.1964357E0,0E0,0E0,0E0,0E0,0E0,0E0,0E0,0E0,0E0,0E0,0E0,0E0,0E0,0E0],"parents":[2147483647,0,0,1,1,2,2,3,3,4,4,5,5,6,6,7,7,8,8,9,9,10,10,12,12,13,13,14,14],"right_children":[2,4,6,8,10,12,14,16,18,20,22,-1,24,26,28,-1,-1,-1,-1,-1,-1,-1,-1,-1,-1,-1,-1,-1,-1],"split_conditions":[1.2E1,8E0,3.6763778E-1,9E0,2E0,4.57E2,4.3625113E-1,1.9E1,6E0,1.1E1,4E0,-8.955764E-2,1.11E2,1.41E2,4E0,1.7960459E-3,8.640914E-2,-6.780197E-2,4.3127358E-2,-7.437601E-2,1.3896038E-2,9.437496E-2,2.6128009E-2,8.369411E-2,-5.7600845E-2,-2.0941472E-2,1.4441495E-1,-6.9650686E-3,4.8702985E-2],"split_indices":[0,0,12,10,6,8,12,1,4,0,6,0,7,8,11,0,0,0,0,0,0,0,0,0,0,0,0,0,0],"split_type":[0,0,0,0,0,0,0,0,0,0,0,0,0,0,0,0,0,0,0,0,0,0,0,0,0,0,0,0,0],"sum_hessian":[3.333876E2,1.4363263E2,1.8975496E2,1.0780972E2,3.582291E1,7.8589315E0,1.8189603E2,9.270713E1,1.5102594E1,1.1437637E1,2.4385275E1,5.5241284E0,2.3348029E0,2.7610366E0,1.79135E2,8.905705E1,3.6500816E0,1.2302081E1,2.8005128E0,3.473766E0,7.963871E0,8.774926E0,1.5610348E1,1.128948E0,1.2058549E0,1.3651829E0,1.3958538E0,1.7273807E2,6.3969254E0],"tree_param":{"num_deleted":"0","num_feature":"13","num_nodes":"29","size_leaf_vector":"1"}},{"base_weights":[-2.6573054E-3,3.8873309E-3,-5.5704755E-1,3.168535E-2,-1.380276E-1,-7.214101E-2,-5.256527E-3,2.826132E-1,7.416116E-3,-6.5401876E-1,-5.7904515E-2,5.3548675E-2,-4.292147E-2,-5.0660353E-2,3.1385329E-3,7.1693347E-3,-8.786684E-2,-6.7847304E-2,1.9117559E-3],"categories":[],"categories_nodes":[],"categories_segments":[],"categories_sizes":[],"default_left":[0,0,0,0,0,0,0,0,0,0,0,0,0,0,0,0,0,0,0],"id":49,"left_children":[1,3,5,7,9,-1,-1,11,13,15,17,-1,-1,-1,-1,-1,-1,-1,-1],"loss_changes":[1.212018E0,1.30839E0,2.8524518E-1,1.6861479E0,2.2082596E0,0E0,0E0,4.62568E0,3.1429124E0,1.2376692E0,2.313186E0,0E0,0E0,0E0,0E0,0E0,0E0,0E0,0E0],"parents":[2147483647,0,0,1,1,2,2,3,3,4,4,7,7,8,8,9,9,10,10],"right_children":[2,4,6,8,10,-1,-1,12,14,16,18,-1,-1,-1,-1,-1,-1,-1,-1],"split_conditions":[4.2103745E3,1.3E1,2.66E2,1.9E1,1.4E1,-7.214101E-2,-5.256527E-3,7E0,2.6E1,2E0,2.7E1,5.3548675E-2,-4.292147E-2,-5.0660353E-2,3.1385329E-3,7.1693347E-3,-8.786684E-2,-6.7847304E-2,1.9117559E-3],"split_indices":[12,1,8,8,1,0,0,7,8,4,8,0,0,0,0,0,0,0,0],"split_type":[0,0,0,0,0,0,0,0,0,0,0,0,0,0,0,0,0,0,0],"sum_hessian":[3.324505E2,3.2955307E2,2.8974214E0,2.7622366E2,5.332942E1,1.8610746E0,1.0363467E0,2.3421005E1,2.5280266E2,6.2052226E0,4.7124195E1,1.7464539E1,5.956467E0,1.03661E1,2.4243655E2,1.6277565E0,4.577466E0,4.3408732E0,4.278332E1],"tree_param":{"num_deleted":"0","num_feature":"13","num_nodes":"19","size_leaf_vector":"1"}},{"base_weights":[-3.3521268E-3,2.0205656E-3,-6.676845E-2,-1.7677296E-2,2.515296E-1,1.04382085E-2,-2.0912911E-1,6.9044673E-1,-6.0460348E-2,1.8261602E-2,-3.9957976E-3,-7.0348404E-2,5.59915E-3,-3.763786E-2,1.1342583E-1,4.020181E-2,-4.7857646E-2],"categories":[],"categories_nodes":[],"categories_segments":[],"categories_sizes":[],"default_left":[0,0,0,0,0,0,0,0,0,0,0,0,0,0,0,0,0],"id":50,"left_children":[1,3,-1,5,7,9,11,13,15,-1,-1,-1,-1,-1,-1,-1,-1],"loss_changes":[1.1917046E0,1.6352938E0,0E0,1.6626521E0,3.3755248E0,2.3495142E0,5.2227135E0,5.2542024E0,3.12188E0,0E0,0E0,0E0,0E0,0E0,0E0,0E0,0E0],"parents":[2147483647,0,0,1,1,3,3,4,4,5,5,6,6,7,7,8,8],"right_children":[2,4,-1,6,8,10,12,14,16,-1,-1,-1,-1,-1,-1,-1,-1],"split_conditions":[6.31E2,5.49E2,-6.676845E-2,5.06E2,5.58E2,1.6630632E0,2.5612607E0,4E0,2.2E1,1.8261602E-2,-3.9957976E-3,-7.0348404E-2,5.59915E-3,-3.763786E-2,1.1342583E-1,4.020181E-2,-4.7857646E-2],"split_indices":[8,8,0,8,8,12,12,10,6,0,0,0,0,0,0,0,0],"split_type":[0,0,0,0,0,0,0,0,0,0,0,0,0,0,0,0,0],"sum_hessian":[3.3250266E2,3.3082413E2,1.6785342E0,3.074789E2,2.3345226E1,2.689308E2,3.8548134E1,9.195571E0,1.4149655E1,6.0298443E1,2.0863232E2,1.2879337E1,2.5668798E1,2.7462153E0,6.449356E0,6.7366953E0,7.41296E0],"tree_param":{"num_deleted":"0","num_feature":"13","num_nodes":"17","size_leaf_vector":"1"}},{"base_weights":[-3.4079351E-3,4.3698764E-1,-1.1258773E-2,7.714073E-2,1.1947112E-1,-3.3614048E-1,-2.183868E-4,-5.3214755E-2,4.9141366E-2,-8.528475E-2,2.0789637E-1,2.0181091E-1,-3.5476297E-2,-5.9919458E-2,5.3994633E-2,2.946345E-2,-3.9587475E-2,-6.507394E-4,-2.8678594E-2],"categories":[],"categories_nodes":[],"categories_segments":[],"categories_sizes":[],"default_left":[0,0,0,0,0,0,0,0,0,0,0,0,0,0,0,0,0,0,0],"id":51,"left_children":[1,3,5,-1,7,9,11,-1,-1,-1,13,15,17,-1,-1,-1,-1,-1,-1],"loss_changes":[1.157488E0,5.304676E-1,1.1781673E0,0E0,1.2772835E0,3.2120106E0,2.2772746E0,0E0,0E0,0E0,1.9483038E0,2.7521157E0,1.9797397E0,0E0,0E0,0E0,0E0,0E0,0E0],"parents":[2147483647,0,0,1,1,2,2,4,4,5,5,6,6,10,10,11,11,12,12],"right_children":[2,4,6,-1,8,10,12,-1,-1,-1,14,16,18,-1,-1,-1,-1,-1,-1],"split_conditions":[2E0,1.1E1,3E0,7.714073E-2,1.01E2,7E0,5E0,-5.3214755E-2,4.9141366E-2,-8.528475E-2,4.9E1,1.22E2,1.6E1,-5.9919458E-2,5.3994633E-2,2.946345E-2,-3.9587475E-2,-6.507394E-4,-2.8678594E-2],"split_indices":[11,0,0,0,8,10,0,0,0,0,8,7,1,0,0,0,0,0,0],"split_type":[0,0,0,0,0,0,0,0,0,0,0,0,0,0,0,0,0,0,0],"sum_hessian":[3.323555E2,4.863691E0,3.274918E2,1.6725739E0,3.191117E0,9.795532E0,3.1769626E2,1.0030736E0,2.1880434E0,4.7328296E0,5.0627027E0,4.6503784E1,2.7119247E2,1.2412208E0,3.821482E0,4.069127E1,5.812516E0,2.4408255E2,2.7109932E1],"tree_param":{"num_deleted":"0","num_feature":"13","num_nodes":"19","size_leaf_vector":"1"}},{"base_weights":[-3.3891643E-3,3.3198085E-2,-9.255181E-2,-1.8457613E-3,7.596656E-1,-2.568138E-1,1.0768041E-1,-2.367796E-1,4.0786922E-2,1.2435572E0,2.6870346E-1,-3.418231E-1,2.4413511E-1,1.8400306E-1,-7.799979E-2,-3.5962574E-2,1.15231775E-1,1.310608E-2,-1.2107484E-2,3.0958692E-2,1.6058959E-1,-2.0494042E-2,6.1153393E-2,-4.7213726E-2,1.2759283E-2,-5.0265636E-2,6.817814E-2,6.2487513E-2,-3.2729048E-3],"categories":[],"categories_nodes":[],"categories_segments":[],"categories_sizes":[],"default_left":[0,0,0,0,0,0,0,0,0,0,0,0,0,0,0,0,0,0,0,0,0,0,0,0,0,0,0,0,0],"id":52,"left_children":[1,3,5,7,9,11,13,15,17,19,21,23,25,27,-1,-1,-1,-1,-1,-1,-1,-1,-1,-1,-1,-1,-1,-1,-1],"loss_changes":[1.0887642E0,6.027685E0,3.2211726E0,2.2814252E0,2.2543607E0,2.3674734E0,3.155773E0,6.384391E0,2.8335116E0,1.2665491E0,1.2106651E0,2.890623E0,3.0764573E0,4.0097404E0,0E0,0E0,0E0,0E0,0E0,0E0,0E0,0E0,0E0,0E0,0E0,0E0,0E0,0E0,0E0],"parents":[2147483647,0,0,1,1,2,2,3,3,4,4,5,5,6,6,7,7,8,8,9,9,10,10,11,11,12,12,13,13],"right_children":[2,4,6,8,10,12,14,16,18,20,22,24,26,28,-1,-1,-1,-1,-1,-1,-1,-1,-1,-1,-1,-1,-1,-1,-1],"split_conditions":[7.694177E0,6.9131823E0,9E0,8E0,1E1,9E0,5.5E2,2.9E1,8E0,4.5E1,3.8E1,3.676194E1,3E0,1.1E1,-7.799979E-2,-3.5962574E-2,1.15231775E-1,1.310608E-2,-1.2107484E-2,3.0958692E-2,1.6058959E-1,-2.0494042E-2,6.1153393E-2,-4.7213726E-2,1.2759283E-2,-5.0265636E-2,6.817814E-2,6.2487513E-2,-3.2729048E-3],"split_indices":[12,12,3,1,0,10,8,6,10,8,7,12,4,1,0,0,0,0,0,0,0,0,0,0,0,0,0,0,0],"split_type":[0,0,0,0,0,0,0,0,0,0,0,0,0,0,0,0,0,0,0,0,0,0,0,0,0,0,0,0,0],"sum_hessian":[3.3180804E2,2.3571269E2,9.6095345E1,2.2581703E2,9.89566E0,5.2634037E1,4.3461304E1,3.3984787E1,1.9183224E2,4.211708E0,5.6839523E0,4.5269592E1,7.3644443E0,4.0750305E1,2.7109995E0,3.19044E1,2.0803874E0,1.2327137E2,6.8560875E1,1.6955755E0,2.5161324E0,2.5555267E0,3.1284256E0,3.5428516E1,9.841077E0,2.6662538E0,4.69819E0,1.2809767E1,2.7940538E1],"tree_param":{"num_deleted":"0","num_feature":"13","num_nodes":"29","size_leaf_vector":"1"}},{"base_weights":[-2.6287036E-3,3.5433162E-3,-5.389334E-1,-8.411537E-3,2.7688712E-1,-7.039198E-2,-4.999576E-3,1.9350918E-2,-1.5655297E-1,-4.475484E-1,4.7399086E-1,4.3923473E-3,-2.8595632E-2,-8.49952E-2,-7.663419E-3,4.5465347E-3,-6.670262E-2,-2.855554E-2,5.9980452E-2],"categories":[],"categories_nodes":[],"categories_segments":[],"categories_sizes":[],"default_left":[0,0,0,0,0,0,0,0,0,0,0,0,0,0,0,0,0,0,0],"id":53,"left_children":[1,3,5,7,9,-1,-1,11,13,15,17,-1,-1,-1,-1,-1,-1,-1,-1],"loss_changes":[1.101724E0,1.0789826E0,2.7028358E-1,1.3052951E0,2.1876843E0,0E0,0E0,2.0198069E0,2.7103226E0,4.061836E-1,1.2570357E0,0E0,0E0,0E0,0E0,0E0,0E0,0E0,0E0],"parents":[2147483647,0,0,1,1,2,2,3,3,4,4,7,7,8,8,9,9,10,10],"right_children":[2,4,6,8,10,-1,-1,12,14,16,18,-1,-1,-1,-1,-1,-1,-1,-1],"split_conditions":[4.2103745E3,1.8E1,2.66E2,1.3E1,2E0,-7.039198E-2,-4.999576E-3,1.4E1,2.7E1,1.4E1,1.1440505E0,4.3923473E-3,-2.8595632E-2,-8.49952E-2,-7.663419E-3,4.5465347E-3,-6.670262E-2,-2.855554E-2,5.9980452E-2],"split_indices":[12,3,8,1,4,0,0,3,8,7,12,0,0,0,0,0,0,0,0],"split_type":[0,0,0,0,0,0,0,0,0,0,0,0,0,0,0,0,0,0,0],"sum_hessian":[3.3126187E2,3.2847504E2,2.7868357E0,3.156396E2,1.2835457E1,1.7549541E0,1.0318816E0,2.6655518E2,4.908441E1,2.4735484E0,1.0361908E1,2.4749199E2,1.906318E1,4.076892E0,4.500752E1,1.0061892E0,1.4673592E0,1.292048E0,9.06986E0],"tree_param":{"num_deleted":"0","num_feature":"13","num_nodes":"19","size_leaf_vector":"1"}},{"base_weights":[-3.1412733E-3,6.336398E-2,-5.0946068E-2,-2.0951131E-6,5.173573E-1,1.5884389E-1,-1.5552038E-1,2.8332895E-2,-8.948081E-2,7.2840625E-1,-7.253068E-2,2.8594816E-1,-4.430853E-1,-2.2509092E-1,1.733241E-1,3.429087E-2,-4.4473163E-3,2.809205E-2,2.2167496E-1,4.0952027E-2,-2.2963753E-2,3.7122946E-2,-7.368661E-2,-1.6151335E-2,-7.9502694E-2,-5.454001E-2,4.51569E-2],"categories":[],"categories_nodes":[],"categories_segments":[],"categories_sizes":[],"default_left":[0,0,0,0,0,0,0,0,0,0,0,0,0,0,0,0,0,0,0,0,0,0,0,0,0,0,0],"id":54,"left_children":[1,3,5,7,9,11,13,15,-1,17,-1,19,21,23,25,-1,-1,-1,-1,-1,-1,-1,-1,-1,-1,-1,-1],"loss_changes":[1.0593075E0,4.0091624E0,4.276713E0,3.1513824E0,5.004924E0,5.097217E0,3.0096219E0,2.7745764E0,0E0,9.427396E0,0E0,3.5503178E0,3.0770996E0,3.7707748E0,4.893551E0,0E0,0E0,0E0,0E0,0E0,0E0,0E0,0E0,0E0,0E0,0E0,0E0],"parents":[2147483647,0,0,1,1,2,2,3,3,4,4,5,5,6,6,7,7,9,9,11,11,12,12,13,13,14,14],"right_children":[2,4,6,8,10,12,14,16,-1,18,-1,20,22,24,26,-1,-1,-1,-1,-1,-1,-1,-1,-1,-1,-1,-1],"split_conditions":[3.2616806E0,2.8081908E0,4E0,1.1E1,3E0,1.9185244E1,2.1777008E1,5E0,-8.948081E-2,9E0,-7.253068E-2,1.17E2,2E0,1.5153373E1,6E0,3.429087E-2,-4.4473163E-3,2.809205E-2,2.2167496E-1,4.0952027E-2,-2.2963753E-2,3.7122946E-2,-7.368661E-2,-1.6151335E-2,-7.9502694E-2,-5.454001E-2,4.51569E-2],"split_indices":[12,12,10,10,11,12,12,0,0,10,0,7,10,12,10,0,0,0,0,0,0,0,0,0,0,0,0],"split_type":[0,0,0,0,0,0,0,0,0,0,0,0,0,0,0,0,0,0,0,0,0,0,0,0,0,0,0],"sum_hessian":[3.3117667E2,1.3836295E2,1.9281374E2,1.22293785E2,1.6069149E1,6.396749E1,1.2884625E2,1.1947871E2,2.815085E0,1.4089997E1,1.9791526E0,5.324842E1,1.0719069E1,1.0660775E2,2.2238495E1,2.1758043E1,9.772066E1,1.1746914E1,2.3430834E0,4.3119537E1,1.0128883E1,2.7719698E0,7.947099E0,9.70635E1,9.544251E0,5.938592E0,1.6299902E1],"tree_param":{"num_deleted":"0","num_feature":"13","num_nodes":"27","size_leaf_vector":"1"}},{"base_weights":[-3.3787657E-3,1.413411E-1,-2.5848377E-2,2.304833E-1,-6.433813E-1,-2.7816E-1,1.424516E-2,3.0429231E-2,8.933793E-1,-7.970815E-2,-3.0633977E-3,4.2386836E-1,-3.7210873E-1,9.953727E-1,-1.6669134E-2,4.820707E-2,-2.0338904E-2,1.4251535E-1,3.3745135E-4,-3.7506506E-2,9.613521E-2,-1.0147658E-2,-6.5472625E-2,1.490951E-1,1.8275278E-2,-3.4325175E-2,2.5845403E-3],"categories":[],"categories_nodes":[],"categories_segments":[],"categories_sizes":[],"default_left":[0,0,0,0,0,0,0,0,0,0,0,0,0,0,0,0,0,0,0,0,0,0,0,0,0,0,0],"id":55,"left_children":[1,3,5,7,9,11,13,15,17,-1,-1,19,21,23,25,-1,-1,-1,-1,-1,-1,-1,-1,-1,-1,-1,-1],"loss_changes":[1.0830657E0,3.2797866E0,2.919176E0,5.40156E0,4.3050063E-1,2.7670531E0,7.5876064E0,3.5281425E0,4.4699674E0,0E0,0E0,2.5664759E0,2.6430883E0,2.8048053E0,3.3824306E0,0E0,0E0,0E0,0E0,0E0,0E0,0E0,0E0,0E0,0E0,0E0,0E0],"parents":[2147483647,0,0,1,1,2,2,3,3,4,4,5,5,6,6,7,7,8,8,11,11,12,12,13,13,14,14],"right_children":[2,4,6,8,10,12,14,16,18,-1,-1,20,22,24,26,-1,-1,-1,-1,-1,-1,-1,-1,-1,-1,-1,-1],"split_conditions":[2E0,1.28E2,9.9604857E-1,4.6E2,2.9E1,6E0,1.1440505E0,2.5612607E0,5.27E2,-7.970815E-2,-3.0633977E-3,6E0,1.2E1,1.2E1,3E0,4.820707E-2,-2.0338904E-2,1.4251535E-1,3.3745135E-4,-3.7506506E-2,9.613521E-2,-1.0147658E-2,-6.5472625E-2,1.490951E-1,1.8275278E-2,-3.4325175E-2,2.5845403E-3],"split_indices":[3,7,12,8,6,1,12,12,8,0,0,10,0,0,3,0,0,0,0,0,0,0,0,0,0,0,0],"split_type":[0,0,0,0,0,0,0,0,0,